-1.33658
-0.87541
-0.63582
0.33633
-1.01535
0.46753
-0.60937
0.27080
0.17380
-0.60906
-1.12574
0.33671
0.15736
0.13044
0.17351
-0.16345
0.46662
-0.08205
0.01394
0.59213
-0.30963
-0.04355
0.42299
-0.01171
0.33786
0.71037
-0.90035
-1.85385
0.16283
0.60976
0.56589
0.26836
-0.63192
0.77316
-0.26062
0.02824
0.12777
0.69621
0.19038
0.57872
0.60250
-1.65227
0.94211
0.77460
0.54610
0.27853
0.14589
0.29755
1.00686
0.76190
0.56127
0.39920
0.32605
-0.52513
-0.23468
-0.49754
-0.34643
0.71523
0.82582
0.45945
-0.47334
0.14883
-0.43066
-1.25782
-1.07877
0.19628
0.35261
-1.39202
0.17927
0.38625
-0.79316
0.70142
0.73758
0.01641
0.25249
0.25573
0.22822
-0.43192
0.34901
-0.14843
0.20953
-0.13235
0.12480
0.02473
0.16232
-0.04870
0.24363
0.25173
-0.11528
-0.05049
0.38488
-0.00955
-0.09940
-0.05649
0.17602
-0.15127
0.05820
0.04568
-0.24152
0.09423
-0.17169
-0.12858
-0.00411
-0.12210
0.13884
-0.00657
-0.11391
0.14450
0.02288
-0.12738
0.01155
-0.01367
0.13426
-0.22216
-0.10663
-0.05784
-0.19958
-0.08942
0.26974
0.09643
0.12449
0.05576
0.04241
0.13572
-0.00599
0.01341
-0.25374
-0.04051
-0.06316
-0.07843
-0.13230
-0.05024
-0.03181
0.08868
-0.07896
-0.00673
-0.07794
-0.03367
0.02753
-0.17832
-0.13474
-0.13404
0.11494
-0.11562
0.00797
-0.21875
-0.06674
-0.18358
-0.00601
0.01823
0.13170
0.25455
0.03538
0.02478
-0.16497
0.06116
0.11094
-0.08891
-0.32097
-0.10372
0.02088
0.08418
-0.04720
-0.02826
-0.09189
0.01577
-0.00481
0.05790
-0.08185
-0.10947
0.05588
-0.17621
0.23138
-0.57638
-0.16075
0.05217
0.05826
-0.29659
-0.07095
-0.06939
0.10941
0.08621
0.27495
0.15051
0.11482
-0.15717
0.00750
0.11159
0.01898
-0.09164
-0.04997
0.30044
-0.05078
-0.09096
-0.01664
-0.19786
-0.28418
0.07521
0.16687
-0.19798
0.07199
-0.21521
-0.01340
0.24385
0.03490
-0.19579
-0.20823
-0.11933
-0.00429
-0.03272
-0.09111
-0.18890
0.05627
0.03733
0.14394
0.12392
-0.10734
-0.09144
0.20926
-0.01625
0.01267
0.01145
-0.11258
0.01272
0.03190
-0.05358
-0.10558
-0.04501
-0.15452
-0.08334
0.01213
0.04528
-0.01106
-0.08713
-0.06150
0.04017
0.05672
-0.28627
0.08242
-0.06989
-0.11026
0.10576
-0.02143
-0.01211
-0.01005
0.33140
-0.34888
-0.10176
-0.13308
-0.02211
0.11417
-0.06972
-0.12877
0.04509
0.12019
-0.11166
0.04351
-0.04103
-0.07297
-0.03997
0.03255
-0.06024
0.00519
-0.11698
0.05241
-0.14924
0.06936
0.13046
0.03315
0.25074
-0.02541
-0.04018
0.07373
0.07505
0.00595
-0.04070
-0.00209
0.11215
0.03040
0.13244
-0.09366
-0.03906
-0.08305
-0.06193
0.09885
-0.01720
-0.02678
0.03763
-0.07284
-0.05806
-0.00725
0.00554
0.12209
-0.09956
-0.02765
0.14769
-0.05124
-0.11842
0.08251
0.12741
-0.00583
-0.07633
-0.15207
-0.06090
-0.06831
-0.05317
-0.00458
0.22046
0.07159
0.08037
-0.09695
0.10284
0.03696
-0.01381
0.08160
0.17392
-0.05084
0.08283
0.00794
-0.00647
-0.02149
-0.06616
-0.03662
0.10768
-0.12356
0.02227
-0.05662
-0.03067
0.09599
0.02811
0.03704
-0.01896
0.04788
-0.08651
0.02552
-0.06934
0.11113
-0.17436
0.09380
0.25775
-0.09142
0.02188
0.15940
0.19446
0.06321
0.14259
-0.02529
0.07012
-0.00836
0.04213
0.11194
0.19890
-0.08322
0.07526
0.13851
0.09974
-0.14568
0.04659
-0.14258
-0.00852
-0.13414
-0.05972
-0.20240
-0.13047
0.18121
-0.07153
-0.04387
0.07039
0.01016
-0.02267
-0.03229
0.35444
0.04194
0.20126
-0.11696
-0.19302
-0.04561
0.12025
-0.07933
-0.02061
0.09096
-0.06025
-0.14307
-0.24470
-0.13427
0.09348
-0.20250
0.05446
-0.22666
-0.08830
-0.25528
-0.03224
-0.10834
0.01045
0.12051
-0.09279
0.20566
0.16532
-0.03548
-0.00343
-0.04288
-0.17629
0.05135
0.35523
0.16750
0.13966
-0.17015
-0.07013
0.06089
0.09665
0.18375
-0.12319
-0.01488
0.03917
-0.20454
-0.20321
0.03395
-0.09545
-0.17992
-0.01031
-0.16702
-0.04441
0.03861
-0.05491
-0.03747
0.06236
0.15291
-0.32946
0.36744
-0.14038
-0.09856
-0.00344
0.02155
-0.29660
0.10883
0.03224
-0.18351
-0.06927
0.09372
0.32260
0.07782
-0.12965
0.04451
0.12842
-0.09485
-0.02259
0.37303
0.25338
-0.11190
-0.04711
0.02198
-0.05187
-0.20836
-0.11007
0.11064
0.20147
0.10552
0.10050
-0.05732
-0.02839
0.27419
-0.22759
-0.14822
0.06726
-0.03570
-0.05672
-0.09747
0.07981
0.03113
0.11865
-0.00438
0.09497
0.01195
0.00725
-0.10137
-0.06623
0.02433
0.06759
-0.10283
0.06764
0.05079
0.04676
-0.07716
-0.08676
-0.05375
-0.02620
0.04612
-0.13677
-0.12542
-0.03317
0.05797
-0.02744
0.15543
0.02212
-0.04469
-0.05594
-0.10751
0.02730
-0.10295
-0.04512
0.05266
0.00603
-0.17455
0.19423
-0.00244
-0.11812
-0.09456
0.05724
-0.03807
-0.02927
0.19482
0.04273
-0.03345
-0.04715
-0.06714
0.00195
0.08826
0.06270
-0.00571
-0.17559
0.04592
-0.05808
-0.02322
-0.06688
-0.12284
0.23997
0.08662
-0.12676
0.12518
0.09951
-0.02787
-0.02241
0.01646
0.11567
0.04637
0.11220
-0.12541
0.04158
0.02029
-0.09820
0.12104
0.05604
-0.15419
0.13206
0.00534
-0.09279
0.22524
-0.04204
0.06087
0.11736
0.10405
0.01003
0.06782
-0.00906
0.00429
-0.02614
0.09041
-0.08692
0.13769
0.04632
0.06159
-0.11611
0.01432
0.30305
0.11801
-0.08029
0.01502
0.16898
0.05046
0.10675
0.01456
-0.04978
0.02206
0.00755
0.05692
0.21245
-0.05530
-0.06118
0.10182
0.09477
0.00564
0.00587
0.07752
0.11856
0.03301
0.01602
-0.05064
-0.13338
-0.01167
0.00374
-0.05236
0.00668
-0.07179
0.11186
-0.05020
0.22521
0.07167
0.22200
-0.23747
-0.12722
-0.11858
0.10072
0.02384
0.13516
0.03344
-0.00865
0.11394
-0.05781
0.10197
-0.04210
-0.16033
0.06941
-0.22853
-0.07410
-0.24997
0.08034
-0.24626
-0.11980
0.10253
-0.09732
-0.43127
0.33834
-0.05990
-0.03228
0.12114
0.21091
-0.11332
0.16088
-0.09977
0.06885
-0.16977
-0.13814
0.08158
-0.01493
0.18204
0.25012
-0.01199
0.08080
-0.00696
-0.14662
-0.08172
-0.08331
0.22938
0.18026
0.21510
0.04651
-0.11447
-0.10169
0.04136
-0.03771
0.12345
-0.26952
0.28490
0.39737
0.01248
-0.02195
0.00881
-0.19472
0.06379
0.24732
0.33585
0.48098
-0.27144
0.01244
-0.03971
-0.16375
-0.00303
0.20594
-0.07274
0.03970
0.23218
0.17566
-0.10781
-0.10587
0.01455
0.16780
-0.07058
-0.10587
-0.05589
-0.05855
0.22808
0.10982
0.32084
-0.41344
-0.23520
0.03593
0.00470
-0.12285
0.07152
-0.41534
-0.11881
0.53822
-0.05131
-0.34533
-0.01747
-0.04882
0.02981
0.31171
0.00855
-0.26722
0.04507
-0.02801
-0.28339
0.03602
-0.00026
0.05030
-0.29427
0.04626
-0.22052
-0.06303
-0.19099
0.20733
-0.24108
0.36812
0.03347
0.17068
0.53154
-0.24155
-0.24480
-0.12898
-0.10415
-0.14086
-0.08374
0.06424
0.23370
0.18139
-0.11850
-0.11936
-0.02194
-0.04453
-0.00037
-0.06809
0.06595
-0.10690
0.02848
0.10268
0.11549
-0.12114
-0.15048
-0.15642
-0.20887
0.03429
-0.19093
0.01913
-0.01178
-0.02174
0.22906
-0.18054
0.08991
0.18568
-0.10500
-0.08370
-0.02483
0.23343
-0.12048
-0.04545
-0.04517
-0.17743
-0.02746
0.26367
0.00380
0.15067
0.10781
-0.06310
-0.06335
0.02548
0.15268
0.22620
-0.07222
0.13700
0.04733
0.05273
-0.03156
-0.10496
0.17421
0.10606
0.06924
-0.00465
-0.17681
0.23349
0.15616
-0.50870
0.13823
-0.10910
0.03542
0.05956
0.08406
0.18867
0.12208
-0.19051
-0.13884
0.02217
0.09078
-0.10313
0.17214
0.01664
-0.06800
0.00379
0.05546
0.03390
-0.01296
0.04185
0.11884
0.04437
-0.06146
-0.04262
-0.16032
0.02000
0.01178
0.10811
-0.00489
-0.06524
0.03960
-0.04756
-0.07745
0.02141
-0.10277
-0.17369
0.03880
0.02122
0.09826
-0.07106
-0.08893
0.15893
0.08157
0.06764
0.00375
0.03530
0.06101
-0.07653
0.11879
-0.04494
0.05897
-0.07198
-0.04761
0.20956
-0.04548
-0.02548
0.03339
0.14747
-0.02226
0.13183
-0.29882
0.27377
0.19782
-0.21154
0.10358
0.03727
0.06638
-0.14811
0.12291
0.05268
0.31820
0.18206
0.24676
-0.18615
-0.11197
0.12043
-0.04919
-0.04929
-0.08605
0.06019
0.50661
-0.16224
0.08017
0.11139
-0.25784
-0.19106
-0.10210
0.12629
0.25023
-0.11287
0.33154
-0.30659
0.08748
0.51292
-0.12625
0.01637
0.05503
-0.03633
-0.12192
-0.04368
0.06003
0.33268
0.04039
0.11454
0.01002
0.22406
0.11301
-0.24741
0.11029
0.04773
0.00197
0.01423
0.01428
-0.36642
-0.09765
-0.03151
-0.05600
-0.22962
-0.23942
0.05004
0.02926
0.23083
0.14549
-0.07912
-0.29827
0.08677
0.11601
0.18379
-0.07696
0.09593
-0.07321
-0.04174
0.01558
0.03426
0.00917
0.01673
0.05202
-0.08686
0.08747
-0.17919
-0.20469
0.08059
0.01253
-0.04969
0.11815
-0.20382
-0.03980
0.09166
0.05541
-0.21083
0.08790
0.07709
0.18092
0.01697
-0.15496
-0.16589
-0.29409
0.04099
-0.29295
-0.03880
-0.13923
-0.10728
-0.21152
0.13604
0.00236
0.25603
-0.20660
-0.36042
-0.07989
-0.13288
-0.11118
-0.06006
-0.07357
0.38648
-0.04925
-0.05429
0.12328
0.11279
-0.07496
0.03772
0.21628
-0.24317
0.02418
-0.10212
-0.09083
-0.01152
-0.12280
-0.13109
0.05652
-0.11360
-0.48051
-0.27324
0.10393
-0.08690
-0.02615
-0.26250
-0.05930
0.18897
0.14874
-0.01091
0.08991
0.11951
0.00378
0.03022
-0.03912
-0.16215
0.10941
0.10113
0.13856
-0.04779
0.00121
0.09252
-0.02578
-0.06058
0.04413
-0.04366
0.16596
-0.05253
-0.05470
-0.05884
-0.17485
0.06129
-0.04601
-0.03866
-0.17565
0.10864
0.15400
0.38838
-0.00376
-0.31438
-0.08835
0.02824
-0.10738
0.08655
-0.00264
-0.07686
0.23236
0.12943
0.05297
-0.04050
-0.05988
-0.31999
0.00307
0.10562
-0.19071
0.08205
-0.01899
0.06353
0.03869
-0.05431
0.04347
0.04768
0.14911
0.03911
-0.05228
0.03509
0.16739
-0.04893
0.09601
-0.23095
0.05699
0.01748
0.12858
0.09963
0.08100
0.09101
0.00368
0.04898
-0.11725
-0.10487
-0.01330
0.10025
0.04397
0.01917
0.10020
0.10868
-0.26331
0.12782
0.18108
-0.03253
-0.00322
-0.08098
-0.00390
0.08403
0.06675
0.07517
0.07505
0.08091
-0.21713
0.12426
0.13084
0.27374
-0.03885
-0.02726
-0.15179
-0.23054
-0.01010
0.19801
-0.02177
-0.01020
0.27424
-0.06471
0.06766
0.00121
-0.12273
0.01263
-0.10336
0.07343
0.22609
-0.02431
-0.11428
0.02585
-0.06014
-0.10084
-0.15023
-0.09707
0.13164
0.02065
0.08277
-0.18761
0.16909
-0.11954
-0.01757
-0.01337
-0.04143
0.10720
0.21726
0.06800
0.23874
-0.00873
0.08596
-0.08082
0.32694
-0.26459
-0.01024
0.10952
0.16867
0.02041
-0.10095
0.04919
-0.04516
-0.11432
-0.00782
0.05902
0.15507
-0.14167
0.24883
-0.04966
0.03933
-0.04940
-0.23168
0.00684
0.02236
0.08850
0.06296
0.03109
0.07354
-0.13060
0.13072
0.01312
-0.08593
0.16569
-0.10765
0.00914
0.12088
0.23645
-0.02648
0.02051
-0.20894
-0.24443
0.08751
0.08380
0.10945
-0.24139
-0.15174
-0.03764
0.01630
-0.13920
0.09233
-0.13894
-0.18371
0.15948
-0.09384
-0.08769
-0.07333
0.00386
-0.01699
-0.03902
-0.08417
0.14983
-0.16029
-0.21656
0.24875
0.14787
-0.08461
-0.15705
-0.18443
0.06774
0.03609
0.11483
0.20430
0.27855
0.08681
0.06776
-0.05645
-0.05532
0.09632
0.00781
0.17106
0.05081
-0.13313
0.02906
0.02230
-0.00008
-0.17930
-0.22472
0.01131
0.06692
0.12312
-0.08029
-0.05061
0.41335
-0.02746
-0.12683
0.04226
-0.02783
-0.07547
-0.12240
-0.33429
0.01234
0.03019
-0.06471
-0.06058
-0.13219
0.08123
-0.10610
-0.17713
-0.27983
0.02608
0.01516
-0.15467
0.06849
0.00348
-0.03459
0.26512
-0.17104
-0.07110
-0.09446
0.05474
-0.04580
0.00630
-0.02831
-0.10993
-0.02738
0.09954
0.02984
0.16195
0.13226
-0.01381
0.05488
0.13316
-0.20128
-0.09617
-0.07797
-0.07802
-0.11132
-0.10227
0.05591
0.08133
-0.01950
-0.18152
-0.08800
0.23493
-0.03946
0.07328
-0.03343
-0.18418
0.11308
-0.06776
-0.18036
-0.14153
-0.09087
-0.13102
0.30214
-0.10919
0.00088
-0.05935
0.22287
-0.20996
-0.30269
-0.10893
0.06051
-0.00898
-0.09787
-0.06449
-0.00488
-0.27950
-0.62792
0.06361
-0.11287
-0.17229
0.00014
0.12270
-0.04962
-0.01229
-0.08699
-0.14929
-0.05161
0.16634
0.07845
-0.00356
0.07949
-0.08413
-0.01821
-0.08373
-0.03286
-0.04668
-0.03073
-0.04860
0.13507
0.15707
-0.00088
-0.06618
-0.00488
-0.20045
0.00660
0.04602
0.10660
0.29496
0.27484
0.07773
-0.01553
0.00267
0.17587
0.16651
0.00039
0.10751
0.03030
0.08370
-0.11040
-0.07670
-0.14579
0.05445
-0.11071
0.03143
-0.04182
-0.14245
0.22746
-0.10809
0.10720
-0.11776
-0.10675
-0.02991
-0.22597
-0.02918
0.00330
-0.08887
0.04492
-0.05904
0.04180
-0.09796
-0.45363
-0.06349
-0.10181
0.00801
-0.06961
0.04200
0.09348
-0.02691
-0.09936
0.10785
-0.11136
0.22039
-0.14479
-0.11057
-0.05267
0.13639
0.09304
-0.02126
-0.20269
-0.11507
0.07298
-0.19056
-0.00196
0.10122
-0.11410
-0.11798
-0.01944
0.00309
0.08554
-0.09102
0.10115
0.23808
0.26231
0.10714
0.11168
-0.24733
0.05523
0.18101
-0.07456
-0.00446
-0.01839
-0.11310
0.07065
-0.02212
-0.03096
-0.08545
0.17705
0.13533
0.02420
-0.03976
-0.31865
-0.05841
0.02851
-0.25758
0.25186
0.01226
-0.15600
-0.09753
0.00361
-0.43353
-0.03210
0.01380
-0.03687
-0.18441
-0.20863
-0.03188
0.01679
-0.01621
-0.24828
-0.00708
-0.00555
-0.14871
0.19258
-0.11459
0.14977
0.15886
0.09165
-0.16460
0.64020
-0.20668
-0.07033
0.05460
-0.18878
-0.09886
0.22555
-0.05490
0.14259
-0.10916
0.12466
0.00213
-0.03602
-0.17679
0.13572
-0.10089
-0.05366
-0.14136
0.07280
-0.11443
0.00056
0.11817
0.22426
0.14092
-0.10713
0.07980
0.05903
-0.08455
0.47396
0.10097
0.03250
0.28247
0.12220
0.03008
0.01348
-0.00154
-0.49869
0.04643
-0.07902
-0.01116
-0.21926
-0.00296
0.18733
0.01604
0.02026
-0.24852
0.44570
-0.11977
0.01504
0.23690
0.07876
-0.02221
0.00553
-0.10462
-0.23812
0.09498
0.04957
0.07043
0.00691
0.01779
0.06607
-0.08485
-0.14569
0.02454
-0.09465
0.09858
0.08089
0.07146
-0.21505
0.04734
0.26007
0.06321
0.06793
0.10590
0.18057
0.04244
0.05829
-0.05715
-0.04614
0.04825
-0.07551
0.21127
0.19972
0.01145
-0.12773
-0.08058
0.06716
-0.10921
0.10650
-0.16434
-0.11583
0.05868
0.07717
-0.00178
0.02194
0.09131
0.01018
0.05613
0.05226
-0.09459
0.16145
-0.07440
-0.05078
0.03227
0.28030
-0.42779
0.00938
-0.08316
-0.15164
0.01399
0.04430
-0.07662
-0.11803
-0.17505
0.04393
0.08516
-0.02557
0.07411
0.22874
0.00010
-0.11922
-0.03216
-0.05894
0.07981
-0.04756
0.13134
0.05501
0.01770
0.16647
-0.03747
-0.01293
0.08791
-0.05040
0.05932
0.05779
-0.00785
-0.07525
0.08280
0.14875
0.04477
0.01134
0.16028
-0.00777
0.01626
-0.07189
0.44116
0.36472
0.08601
-0.09640
-0.12743
-0.05093
0.02101
-0.01233
0.11567
0.08327
-0.00749
-0.01646
-0.11897
-0.09572
0.12136
-0.02313
0.11971
0.09379
-0.11139
-0.09286
0.04943
-0.02736
-0.08419
0.05154
-0.41363
0.10381
-0.10897
-0.08888
-0.15113
0.10362
0.10894
-0.10965
-0.20944
0.09175
-0.12667
0.10114
0.09783
0.07339
0.00899
-0.03816
0.04869
-0.11862
-0.07032
0.12804
0.12536
-0.04107
-0.03832
0.36837
0.10881
-0.11557
-0.04186
0.22173
-0.06321
-0.19668
-0.10183
0.04177
0.12682
-0.00282
-0.10817
-0.04685
-0.02015
-0.22610
0.03904
-0.12675
-0.23605
-0.13123
0.11748
-0.12137
-0.21938
0.02304
-0.00668
0.00046
-0.02922
-0.13677
-0.18026
0.18530
-0.10243
0.20727
0.30138
0.15899
-0.12073
0.11513
-0.08259
-0.00081
-0.02147
0.04139
-0.07433
0.17632
-0.08148
-0.20622
-0.08981
-0.20516
0.14071
-0.14885
-0.01314
-0.10630
-0.09088
0.41268
-0.08919
0.05955
0.51861
0.28916
0.37163
-0.02536
-0.21982
-0.12398
-0.07930
0.22671
-0.37953
-0.09544
0.20227
-0.40667
0.04669
0.12670
0.07276
-0.17145
-0.11418
-0.18234
0.02150
-0.08852
0.03514
-0.01478
0.03916
0.12459
0.07575
0.02425
0.03932
0.06284
-0.03434
-0.15475
-0.00739
-0.08685
0.02968
-0.01852
-0.04168
-0.06777
-0.12904
0.05760
-0.13360
0.02571
-0.15195
0.04591
0.18616
0.39712
0.09760
0.01048
-0.09445
-0.13821
-0.12078
-0.10868
-0.35048
0.26827
0.65131
-0.22824
0.03094
0.01182
-0.26400
-0.26919
-0.10025
0.04280
-0.15409
0.05707
0.07194
-0.10758
-0.31315
-0.03834
0.17377
-0.07864
0.29589
0.67308
-0.35439
0.15268
-0.00698
0.29077
-0.02530
0.33215
-0.06759
-0.09064
0.07106
-0.12609
0.02615
-0.05868
0.17344
-0.16800
0.11328
-0.03971
-0.06538
0.00989
0.03207
-0.11443
0.04762
-0.00381
0.04422
-0.12560
-0.05130
-0.02287
-0.24997
-0.05993
0.07349
0.11187
-0.03601
-0.15797
-0.05932
0.12113
-0.04147
0.13298
0.13253
0.03525
-0.01910
0.08449
0.13982
0.04266
0.00240
0.17067
0.19481
0.03030
0.12774
0.16650
0.09934
-0.05628
-0.05485
0.11973
-0.06414
-0.08444
0.04943
0.02499
0.05845
-0.08084
-0.13454
0.03218
0.08709
-0.12213
0.29728
0.19498
-0.03222
-0.13768
-0.26574
-0.13715
-0.14968
-0.24976
0.02385
0.00397
0.05672
0.13809
0.06480
0.12871
0.00522
-0.20758
0.07999
-0.06098
-0.03177
0.06756
-0.00784
-0.05769
-0.08467
0.07248
0.12044
0.03835
-0.06128
-0.05767
-0.13735
-0.09946
0.02099
-0.06324
0.00400
-0.22143
-0.07224
0.12144
0.04919
0.02034
-0.09235
-0.04285
0.03863
0.07753
-0.13667
0.24652
0.07651
0.09184
0.09124
-0.08586
0.53555
-0.41449
-0.10605
-0.07870
-0.27075
-0.13785
0.07456
-0.00502
0.32824
0.24751
-0.07653
-0.07186
-0.17231
-0.15755
0.09898
-0.06494
0.42938
0.21164
-0.20801
-0.29185
0.16194
0.17358
-0.39179
-0.02777
0.05833
-0.06290
0.08543
0.10151
-0.11748
0.06399
0.23536
0.04589
-0.17155
-0.30452
-0.08782
0.07671
-0.14153
-0.35667
-0.02890
0.10573
0.27245
0.12590
0.06981
-0.10246
-0.12455
-0.01455
-0.01564
0.01473
0.10581
-0.18990
0.06250
-0.06723
-0.10988
0.34615
0.19568
-0.12826
0.14910
-0.07210
-0.05514
0.18287
0.02301
0.36025
0.13016
-0.51001
0.11060
-0.25942
-0.06751
0.23483
0.16746
0.05576
-0.08699
-0.08351
-0.08371
0.59096
0.10935
0.10600
0.49769
0.02828
0.17383
0.11900
0.17574
0.17318
0.13445
-0.18507
-0.11670
-0.23141
-0.44336
-0.22582
0.09607
-0.06265
0.11730
0.05420
-0.01038
-0.05119
-0.09640
-0.29392
0.01860
0.00350
-0.05199
0.18193
-0.13420
0.10706
-0.06225
0.05477
0.13459
0.18013
-0.09402
-0.01034
-0.09662
0.15221
0.21290
-0.00205
-0.03238
-0.04253
-0.06171
0.04320
-0.06222
0.21107
-0.11187
0.25010
-0.15542
0.05174
0.11023
0.25878
-0.02879
-0.00404
0.11100
-0.22028
-0.11714
-0.13337
-0.00995
0.18469
-0.02244
-0.08051
0.00217
-0.08719
0.00484
-0.07394
0.00163
-0.05900
0.29892
0.11973
0.08159
0.04743
-0.09385
-0.07485
-0.08009
0.19865
0.10021
0.31706
0.03960
-0.05347
0.17103
0.12675
0.02395
0.11539
-0.05545
0.06783
0.13335
-0.17388
0.15035
0.09402
0.01163
0.11271
0.00103
0.09690
0.05146
0.01916
0.29050
-0.04385
0.06332
-0.10012
-0.08289
-0.08781
-0.13486
0.12203
0.00822
-0.01724
-0.13436
0.02932
0.02268
0.17693
0.02095
-0.02493
-0.07428
0.10753
0.10911
0.25504
-0.04860
0.12157
0.08330
0.06020
0.10214
0.09932
-0.03703
0.02779
0.27162
-0.14534
-0.06613
-0.05223
0.03131
-0.22164
0.03962
-0.11581
0.15820
0.08530
0.11013
-0.06495
-0.02737
0.06602
0.13018
0.05654
-0.28583
0.04944
0.13484
0.05314
0.00174
0.05180
-0.15430
0.00071
0.03707
-0.09754
0.10766
0.02543
0.02886
-0.12563
-0.04343
-0.15502
0.03236
-0.05936
-0.00702
-0.03142
0.26173
-0.12507
-0.09627
-0.11852
-0.25665
-0.10951
-0.02235
-0.11059
-0.05623
-0.13865
-0.04060
-0.11247
0.26488
-0.09299
-0.04934
0.27077
-0.06435
0.12600
0.06322
0.05091
0.00403
0.08319
-0.02818
0.00307
0.15862
0.03442
0.03059
-0.12652
0.06829
-0.03581
0.02129
-0.11105
0.07975
0.18711
0.03813
-0.01071
0.01635
-0.01623
0.25960
0.02509
-0.00378
0.19720
-0.04956
0.04812
-0.02440
0.15765
0.15231
-0.09268
0.13745
-0.04502
-0.02525
-0.13670
0.02850
0.14857
0.33494
-0.11228
0.13974
0.02214
-0.11394
0.06394
0.48470
-0.39769
-0.05044
0.12678
0.59138
0.10308
-0.05133
-0.05943
0.20835
0.00375
0.10767
-0.08262
0.21716
-0.22073
0.51952
0.23292
-0.08656
0.05249
-0.10027
0.01497
0.13346
0.04836
0.00282
-0.15487
0.03561
0.17110
-0.22875
-0.26462
0.05674
0.03554
-0.00284
-0.06269
0.34956
0.12568
0.11605
0.08928
-0.45567
0.16832
0.08108
0.09198
-0.33066
-0.08596
0.16431
0.06962
0.11136
0.12538
-0.23858
-0.13538
-0.19173
-0.34035
0.09038
-0.28177
-0.16493
0.11114
0.03347
0.06174
0.07144
-0.09830
-0.02154
0.20234
0.02419
0.20753
0.00725
0.06474
0.05953
0.22139
-0.01283
-0.09314
0.07783
0.32760
-0.13034
0.09158
-0.20456
0.06865
0.04945
-0.04577
-0.07797
0.02450
0.09974
-0.00699
0.01483
0.10852
-0.12502
0.35293
-0.07586
-0.10111
-0.08804
0.08994
-0.00181
0.09081
0.05232
0.10397
0.15614
-0.31374
0.06366
0.04677
-0.01374
-0.12379
0.09881
-0.12716
-0.34248
0.36070
-0.04376
-0.12968
0.57127
0.24766
0.02677
0.02540
-0.10969
-0.11810
0.15869
-0.18866
0.20025
-0.22658
-0.26258
0.20132
0.01713
0.01736
-0.03933
0.01019
0.06953
0.07950
0.10392
-0.05047
0.32686
0.30030
-0.02697
-0.05987
0.15271
-0.11739
-0.11703
-0.06069
0.34059
0.21858
0.10700
0.00484
0.03305
0.09098
-0.06024
-0.02448
0.08144
0.06527
0.07006
-0.08172
0.09195
-0.03086
-0.01351
-0.02244
-0.03043
-0.11569
0.12296
0.17330
-0.04559
0.03939
-0.24951
0.04222
-0.11728
0.20226
0.05819
0.00368
-0.20630
0.17901
-0.11963
-0.02251
-0.35324
-0.16188
-0.13346
0.09948
0.33474
0.00935
-0.04383
-0.11092
-0.04625
0.13529
0.06432
0.27708
0.01198
0.10591
0.19973
0.05509
0.10547
-0.08055
-0.12113
-0.00304
-0.09404
-0.07803
0.17858
0.27221
0.06418
0.00550
-0.11229
-0.13657
-0.08951
-0.07598
0.01123
-0.06299
0.19083
-0.05426
0.13196
-0.06098
-0.19543
-0.04570
0.00247
-0.05460
0.00088
-0.06638
-0.12950
0.02405
0.09541
-0.01694
-0.03597
0.28764
0.15140
0.01462
-0.03417
0.10015
-0.10045
0.03484
0.09790
-0.00877
-0.02065
0.10462
-0.09488
-0.13661
-0.16164
0.12463
-0.03845
-0.00080
-0.14248
0.01391
-0.12343
0.03214
0.28108
0.13063
0.17958
-0.07431
0.13589
-0.01392
0.03315
0.03170
0.06182
-0.09887
0.23997
0.06062
-0.06454
-0.05330
-0.00045
0.07613
0.00022
-0.00333
0.05477
0.07151
-0.03020
0.07685
-0.00264
-0.01153
0.03163
-0.02976
0.00000
-0.00012
0.04217
-0.02504
-0.00762
0.00107
-0.04394
0.04387
-0.00499
-0.00128
0.04659
0.00163
-0.02558
0.00900
0.01457
0.05927
0.03002
0.07595
0.04231
-0.00177
-0.19993
0.17536
0.16861
0.22550
0.14460
-0.00521
-0.14347
-0.19910
-0.21247
0.25349
-0.16635
0.00264
-0.05663
-0.02163
-0.01333
0.01302
0.18035
0.18874
0.01552
-0.06710
0.13670
0.03030
0.09210
-0.05379
-0.13902
-0.24208
0.18989
-0.07612
0.20119
0.05658
-0.22550
-0.00271
0.04729
-0.15103
-0.23241
-0.21490
-0.08751
-0.10258
-0.10835
0.19644
0.24044
-0.10768
-0.06027
0.06796
0.17565
-0.03094
0.19417
-0.13959
0.16508
-0.05839
-0.01077
-0.15192
0.17042
0.08704
0.19375
-0.12063
0.14864
0.21613
0.20096
0.28858
-0.07317
-0.09596
-0.23270
-0.01268
0.13849
0.42803
0.02845
0.28328
-0.10521
0.26009
0.04206
0.28139
0.23486
-0.09693
-0.02627
-0.10107
-0.48809
0.20407
0.12222
0.11778
-0.07209
0.01864
-0.01854
-0.43104
-0.13491
0.04663
-0.42869
0.06804
-0.25056
-0.10872
-0.18586
0.14987
0.07307
-0.08926
-0.31636
0.04224
-0.14111
-0.20529
-0.18310
0.25620
0.18278
0.40882
0.11427
-0.11179
0.03099
-0.12091
-0.23823
0.24907
-0.24018
-0.02399
0.13041
0.15667
0.36481
0.06097
-0.07336
0.05451
-0.18010
0.10203
0.42872
-0.19912
-0.20541
0.07713
-0.32359
0.26181
0.04076
0.14135
-0.20435
-0.31796
-0.21503
0.08729
0.00666
-0.14037
-0.18409
0.11288
0.22030
0.09441
-0.00673
0.00296
0.23716
-0.00154
-0.10509
-0.22549
0.04508
0.11503
0.06736
-0.01831
0.15251
0.02101
-0.23152
-0.24582
-0.10566
-0.20264
0.19038
0.16443
-0.09416
-0.04836
0.00712
-0.14767
-0.09986
-0.15473
0.19035
-0.20425
0.04363
0.16273
-0.03707
0.04439
-0.16308
0.10151
-0.18758
-0.10075
0.14997
-0.21889
0.18425
0.03791
-0.12011
0.15284
0.04658
-0.16395
-0.17194
0.22851
-0.17663
-0.20910
-0.17833
-0.19126
0.19700
0.23242
0.14810
0.07430
0.18637
0.21245
-0.02736
-0.15544
0.31619
0.05704
-0.11415
-0.36296
0.35994
-0.05816
0.65408
0.12913
0.15035
0.44022
-0.22326
0.17881
-0.20354
-0.00195
-0.24719
-0.24052
-0.24904
0.45690
-0.21643
0.33933
0.09817
-0.17800
0.50944
0.08889
-0.16656
-0.16727
0.16219
0.08581
-0.28861
0.24530
-0.11117
0.25520
-0.16089
0.26258
-0.33777
0.45880
0.24682
0.08947
-0.10278
-0.09384
-0.14691
-0.10595
0.03567
-0.01984
0.13497
-0.21895
-0.21948
0.01784
0.41509
-0.36133
-0.30696
0.27248
-0.20792
-0.09883
-0.29022
-0.09870
-0.11818
-0.04894
0.27101
0.29611
-0.07662
0.51118
-0.19162
0.12684
0.29204
-0.04374
0.20631
-0.03295
0.08852
0.45524
-0.08324
0.22407
-0.20453
-0.06597
0.05761
-0.18935
-0.01191
-0.21653
-0.11771
0.30517
-0.09589
-0.22130
-0.20679
-0.04201
-0.04192
-0.24795
0.11619
0.06690
0.03945
-0.17447
0.21961
-0.31028
0.18817
-0.12018
0.28374
0.21010
0.26461
-0.15204
0.10988
-0.13357
-0.03774
0.06321
0.01248
-0.11264
-0.17094
0.03242
-0.09295
-0.05022
-0.05281
0.03424
-0.01928
0.02230
-0.00728
0.14203
-0.29205
-0.17285
0.11535
-0.11605
-0.12845
-0.07031
-0.12005
-0.09907
0.42065
0.08807
0.16227
-0.22600
0.02213
0.27790
0.21253
-0.14420
-0.23460
-0.25290
-0.15255
0.27728
0.08194
-0.18185
0.05315
0.04786
-0.11333
-0.14914
0.11707
0.39756
0.07387
0.20021
-0.24280
-0.05417
-0.03230
-0.40810
0.12707
-0.17470
-0.11959
-0.22357
-0.13367
0.15645
-0.07584
0.01065
0.34335
0.03080
0.24558
-0.38065
0.38770
0.03342
0.05420
-0.04604
-0.33953
0.46523
0.21681
0.00535
0.08993
-0.18884
0.02417
0.00223
0.07932
0.08830
-0.18288
-0.03073
0.39958
0.52309
0.35487
-0.48592
-0.07050
0.08178
0.11155
-0.15288
0.11291
-0.08706
0.08910
-0.26835
0.00544
-0.21195
0.10789
0.27501
-0.03385
-0.00306
0.09929
0.25789
-0.13588
-0.04789
0.00539
0.41878
-0.09606
-0.02299
-0.04284
0.23744
-0.13916
0.34111
-0.21241
-0.33754
-0.09220
-0.09214
-0.16363
-0.18020
0.06683
-0.01484
0.12540
-0.15112
0.14353
-0.09666
0.26823
0.15398
0.03652
0.19305
0.28878
-0.06958
-0.54302
-0.19121
0.24219
0.39536
-0.38346
-0.20580
-0.14880
0.13821
0.39707
0.08876
-0.10484
-0.01681
-0.23727
-0.06767
-0.15007
0.34384
-0.10574
-0.16423
0.41616
0.23948
0.15864
0.12025
0.44632
0.17770
-0.03843
0.18932
-0.07880
0.33406
0.22562
-0.21205
-0.11671
0.02762
-0.05690
-0.22073
0.03331
0.04328
-0.17448
-0.05018
-0.39389
-0.23333
0.14479
0.36691
0.10948
-0.13320
0.27460
0.26961
0.21944
0.18932
-0.14083
0.08888
0.22344
-0.26339
0.17157
0.05913
0.20724
-0.00231
-0.21245
0.00310
0.40817
0.09438
0.16136
-0.28632
0.32646
0.12973
0.24329
-0.03218
0.22826
-0.39155
0.47040
-0.25511
0.02269
-0.20702
0.17913
0.02058
-0.05610
0.20009
-0.07985
0.02007
-0.22317
-0.14072
-0.39961
0.04704
-0.18272
-0.08588
-0.22760
-0.07480
-0.38889
0.21908
0.23929
0.37000
0.13778
0.29854
-0.10060
0.31653
-0.08832
-0.29235
-0.06808
0.00295
-0.23808
-0.17957
0.04773
-0.01786
-0.00480
0.07478
-0.00231
0.11331
-0.14418
-0.20949
-0.14548
0.16860
-0.11977
-0.18508
0.10013
0.16157
0.11150
0.15289
0.00501
-0.03557
-0.17241
0.23956
-0.01602
-0.00208
-0.04762
-0.23400
-0.10447
-0.03020
-0.15418
0.22450
-0.22958
0.05283
0.12503
0.00097
0.23888
0.01276
-0.11870
-0.07848
0.10218
0.07762
0.24454
-0.09416
-0.14304
-0.15684
-0.03932
0.16051
-0.17620
0.13626
0.11082
-0.22764
-0.07049
0.11281
-0.06460
0.13462
-0.04364
0.17815
0.15800
-0.07396
-0.15695
0.05977
-0.23882
0.24499
0.19231
0.23762
-0.06171
-0.00617
0.27666
0.20207
0.11230
-0.07327
0.03996
0.32566
-0.09291
0.27790
-0.17738
0.11315
-0.06234
-0.19000
-0.17043
-0.00333
-0.01797
0.06761
-0.14242
0.04594
-0.21551
-0.18405
-0.03106
-0.00376
0.22901
0.01417
-0.00118
0.01628
0.11966
-0.17772
-0.26882
-0.04058
0.24135
-0.15610
0.04421
-0.20054
-0.23720
-0.04170
0.03707
-0.06542
-0.16260
-0.05511
-0.24374
-0.24436
-0.13953
-0.03303
-0.33233
-0.15001
-0.22962
-0.19470
-0.20083
0.03946
0.30358
0.14411
-0.13032
-0.00646
-0.19639
-0.27055
0.19684
-0.10008
-0.15234
0.06855
-0.15104
0.23111
0.05384
-0.30992
0.28436
0.58763
0.18074
-0.29814
-0.15894
0.21127
-0.18721
-0.31796
0.17403
-0.35421
-0.20472
0.08698
-0.06896
-0.01038
0.23083
-0.13609
0.11139
-0.06854
-0.25894
0.02266
0.04819
-0.01782
-0.22102
-0.28185
0.04893
-0.11122
0.23766
-0.08871
0.28848
0.08765
0.15835
0.02556
-0.00963
0.33704
0.00922
-0.25862
-0.26494
-0.21600
0.02413
0.29720
-0.12308
-0.13447
-0.01426
-0.15694
-0.13569
0.08961
0.15931
-0.21232
-0.23378
-0.10680
-0.04246
-0.18070
-0.13097
-0.38021
0.49209
0.23597
-0.18371
0.16703
0.13207
0.13044
-0.05943
-0.10338
-0.21724
0.12998
-0.08799
-0.42277
0.41793
-0.24056
-0.12677
0.26997
-0.22426
-0.15232
0.04522
-0.09282
0.02914
0.01503
-0.14683
0.12940
-0.00369
0.30380
-0.21172
0.15728
0.36303
0.18191
0.03076
-0.03488
-0.21874
0.24289
-0.01752
-0.08897
0.05775
0.35921
0.26928
-0.16159
0.22061
-0.23538
0.40745
0.18144
-0.23013
-0.23979
-0.21367
-0.07128
-0.13485
-0.25409
-0.20769
-0.22718
0.23250
-0.18411
-0.03959
0.24356
0.17532
0.34750
0.23868
-0.00580
0.26026
0.31982
0.20168
-0.09736
-0.09562
0.24636
-0.00809
0.48837
-0.01397
-0.19114
-0.02830
0.19208
-0.08688
-0.12467
-0.18040
-0.22348
-0.16873
-0.08584
0.24228
0.08513
0.14106
0.22924
0.21899
0.21916
0.13829
-0.18634
0.06477
-0.18297
-0.06963
0.09028
0.03830
0.14633
0.21743
-0.08587
0.06011
0.23691
0.06650
0.23317
-0.18716
0.11989
0.00998
0.19639
-0.22149
0.09003
-0.24978
-0.15564
0.18178
-0.02123
0.08691
-0.20751
-0.04364
0.08957
-0.07230
0.10852
0.04308
0.24506
-0.02840
0.20627
-0.11058
-0.05549
0.20084
0.10145
-0.15164
-0.02417
0.01734
-0.08814
-0.11946
-0.23443
-0.13637
0.05060
0.18096
0.00897
0.10895
0.17288
-0.21461
0.24933
0.10895
0.15458
0.07418
-0.08068
0.15615
0.04627
-0.03927
0.03100
0.20345
-0.05591
0.09102
-0.01883
0.22738
0.09216
0.18474
0.12493
0.22881
0.07552
0.07252
0.10760
0.19717
0.20508
0.02787
0.15021
-0.03830
-0.11666
0.23001
0.11811
0.20466
0.19201
-0.13026
-0.07904
-0.02944
-0.15223
-0.02991
0.01336
0.05390
0.07325
0.01320
0.08088
0.10806
-0.04520
0.04555
-0.13191
-0.22860
0.16382
-0.15743
-0.03797
-0.18309
0.16173
-0.12326
-0.01396
0.15707
0.18381
-0.07663
0.21708
-0.08560
-0.20781
-0.12395
0.14567
-0.19350
-0.20045
0.34997
-0.35124
0.16441
0.41608
0.09865
0.39727
-0.02169
0.41985
0.08018
-0.20291
-0.23096
0.19700
0.37199
-0.48758
-0.14427
-0.29108
0.01740
-0.09249
0.24613
-0.23879
-0.04037
0.05076
-0.02686
-0.07764
0.02096
0.15508
0.25969
0.31458
0.22146
-0.16799
0.54409
0.25573
-0.30734
0.01231
0.43292
0.25260
-0.39721
-0.14651
-0.10314
-0.08905
0.17320
-0.22649
-0.13015
0.06965
-0.24523
-0.13758
-0.20846
-0.11609
-0.14212
-0.31653
-0.20274
0.03079
0.07005
0.16805
0.30549
0.20875
-0.02084
-0.03146
0.47752
-0.35270
0.04977
-0.21503
-0.19120
0.04919
-0.07412
-0.13245
0.06351
0.11210
-0.19030
0.28694
0.31687
-0.26915
0.07385
0.06823
0.04982
0.47473
0.22207
-0.38281
-0.12767
0.42141
0.03596
-0.20234
-0.10955
0.35295
-0.00267
0.09816
-0.03179
-0.10208
0.05616
0.08162
-0.09968
0.20063
0.48961
0.29892
-0.05608
0.02572
-0.23409
0.40088
0.47488
0.33270
0.13131
-0.48598
-0.21540
0.11927
-0.00693
-0.07595
-0.00327
0.40516
-0.20505
-0.03033
-0.00726
-0.06714
-0.13960
0.16633
0.47771
0.31666
-0.24381
-0.15760
0.20990
-0.15376
0.21687
0.19370
0.10521
-0.48750
-0.03144
-0.52131
-0.12027
0.24163
0.18081
0.10572
0.23153
0.12601
0.13848
-0.01282
-0.13530
-0.13104
0.14206
0.23235
-0.04327
-0.08589
0.03082
0.09562
-0.12957
0.09483
-0.21666
-0.02209
0.05281
0.10928
0.23902
-0.18278
-0.05832
0.24759
0.12753
-0.18827
-0.02034
0.04879
0.12570
-0.04415
-0.15363
-0.20873
-0.14239
-0.02557
0.11936
-0.22854
0.00257
-0.03757
-0.12178
0.16247
-0.06963
0.11349
-0.21746
-0.01962
0.11652
-0.20370
-0.23725
-0.02883
0.17338
0.04898
-0.11526
0.22765
0.06755
-0.05951
0.08569
0.03180
-0.08282
-0.17694
0.21602
-0.04079
0.15439
0.07320
0.04689
0.07971
-0.09301
-0.16210
0.23402
0.05856
-0.23021
-0.21105
-0.13687
0.09971
0.03580
-0.14575
-0.24689
-0.14178
-0.20801
-0.23169
0.22583
-0.18546
0.23631
-0.22512
-0.16788
0.11659
-0.16743
0.04986
0.13732
0.14838
0.11323
-0.06811
0.01475
-0.07964
0.13179
0.15128
0.15909
-0.11581
-0.19038
-0.05754
-0.20622
0.09162
0.23712
0.22063
0.19410
-0.11516
-0.23424
-0.16619
0.00817
-0.03341
-0.04255
-0.04102
-0.04901
0.04336
0.22244
0.07333
0.00438
-0.21676
0.02024
-0.02896
0.09454
-0.16273
0.08359
0.21868
-0.23662
0.04944
0.15744
-0.24593
-0.12802
0.24883
-0.04777
0.18210
-0.18378
-0.03983
-0.35447
-0.15703
-0.18702
-0.23036
-0.09672
-0.24469
-0.12531
0.07614
0.43017
0.28773
-0.02809
0.58753
-0.14153
0.15259
-0.18155
-0.22169
-0.06423
-0.12697
0.11781
-0.02163
-0.05560
-0.15418
-0.48485
-0.08692
0.03546
0.34402
-0.52527
-0.39730
0.22386
0.55679
-0.11311
-0.01446
0.11007
-0.22418
0.02513
0.12439
0.08828
0.15720
-0.05027
0.23209
-0.04513
0.07424
-0.20291
0.14234
0.39192
0.24322
-0.00791
-0.14473
-0.22462
-0.04000
0.06467
-0.14915
0.04553
0.46578
-0.04099
0.18352
-0.21034
0.33698
0.23534
-0.06619
0.35274
0.08548
-0.01935
0.06549
0.00516
0.08221
-0.31636
0.22525
-0.18890
0.20276
-0.04582
0.13408
-0.08354
0.25603
-0.24741
0.43036
0.04990
0.15338
0.00265
-0.07231
-0.04237
-0.10017
-0.33452
-0.07596
0.10388
-0.20352
0.26025
0.09668
-0.08805
-0.18300
-0.17636
-0.12675
0.35150
-0.12118
-0.01135
-0.34560
0.17105
0.18832
0.13950
0.00522
0.19135
-0.01384
0.00895
0.23174
0.07554
0.10791
0.07777
-0.02604
-0.00306
-0.11668
-0.17438
-0.24496
-0.05403
0.11426
0.20576
-0.02956
-0.21094
0.12470
0.09226
-0.25370
0.05484
-0.13683
-0.15166
0.15183
-0.26357
-0.02562
-0.18119
0.17320
-0.20960
-0.16427
0.02498
0.07336
-0.14939
-0.07819
-0.18803
-0.17712
0.21716
0.02017
-0.08279
0.15135
-0.11306
-0.15273
-0.07126
0.23926
0.19652
-0.10218
-0.18230
-0.07490
0.02472
-0.17338
0.08018
0.05770
0.02832
-0.11057
-0.30046
0.14110
0.40193
0.24065
0.23888
-0.04424
0.24098
0.09504
-0.07918
0.21543
-0.07186
-0.11630
-0.19543
-0.00889
0.03304
-0.18242
0.00703
0.07256
0.28650
0.12884
0.31733
-0.08462
0.16953
0.05186
0.28380
0.01508
0.30673
0.10553
-0.45123
-0.23801
0.24743
-0.08361
0.15843
0.17635
0.03228
-0.13541
0.05564
-0.05689
-0.13190
-0.10289
0.14485
-0.21827
-0.12370
0.06238
0.22376
0.00014
-0.19723
0.11333
-0.14393
0.23570
-0.01111
-0.01669
0.19368
-0.09029
-0.21491
-0.04400
0.09637
0.17010
-0.19247
0.08378
0.21759
-0.11938
0.24666
-0.00528
0.11257
0.18410
0.16732
0.01490
0.07651
0.20338
0.11146
-0.01606
0.17680
0.00969
0.14181
-0.06577
0.11495
0.08507
-0.03908
-0.11471
-0.15158
0.23444
0.09016
0.00125
-0.05068
0.10720
-0.05431
0.06509
0.01988
0.16499
-0.07887
-0.12646
0.16473
-0.13010
0.02542
-0.22055
0.04999
0.13649
0.14715
-0.21082
-0.14425
0.34277
-0.24135
0.28666
-0.00271
0.51987
-0.00639
-0.36583
-0.12608
0.22703
0.18363
0.17092
0.04535
0.08012
0.22803
-0.10049
-0.10850
0.28135
-0.23912
-0.20373
-0.20144
-0.02639
0.15329
-0.00500
0.31185
-0.22207
0.04148
0.11285
0.17935
0.37937
0.17562
-0.19573
-0.11623
0.27102
0.06781
0.21083
0.17905
-0.11287
-0.01896
-0.18094
-0.01060
0.03454
0.01253
0.05320
0.03531
0.34606
0.24858
0.25432
0.00354
-0.04288
-0.00262
0.01679
0.32061
0.13871
-0.26540
0.32798
-0.20005
-0.07606
-0.24278
0.19836
-0.23831
-0.10810
-0.09613
0.19405
0.17666
-0.04732
-0.01922
-0.19799
0.01890
-0.23895
-0.23776
-0.08738
0.23319
-0.06777
0.22055
0.26370
0.08215
0.23620
-0.00901
0.10482
0.03617
0.28886
0.05397
0.05457
0.35630
-0.06325
-0.20397
-0.22611
-0.05195
0.28767
-0.50262
0.26259
-0.11381
-0.28447
-0.03775
-0.07927
0.13005
-0.29764
-0.19446
0.19583
-0.23654
-0.03908
0.29032
0.16562
0.23459
-0.17171
-0.18152
-0.16864
-0.22368
0.24774
-0.19028
-0.19785
0.14545
0.03607
0.21604
-0.10312
0.32865
0.33360
0.07563
0.35026
-0.24024
0.13318
-0.07619
0.09703
-0.23144
-0.19267
0.02888
0.21485
-0.21697
0.22459
0.10539
0.29472
-0.38171
0.26499
-0.19420
0.11157
0.19023
0.00986
0.18251
-0.03209
0.04438
0.07499
0.13120
-0.08800
-0.20257
-0.18017
-0.17380
-0.00870
-0.23486
-0.22986
0.07129
0.11571
0.04718
-0.36968
-0.19288
0.10381
0.08008
-0.20854
0.30991
0.44707
0.26074
0.00344
0.10441
0.07529
-0.23202
0.09276
0.17365
0.12323
-0.14399
0.01886
0.04578
0.10190
0.12610
-0.11949
-0.05557
-0.11028
-0.20249
0.03001
0.12443
-0.01123
-0.22924
0.13766
0.18193
-0.08887
0.41016
0.26057
-0.18289
-0.09772
0.19174
0.32195
-0.31390
-0.05442
0.20214
0.20504
0.20019
-0.23148
-0.19585
-0.10065
-0.16489
-0.38883
-0.17192
-0.14893
0.31475
0.08341
0.12844
-0.18706
0.05468
0.22185
-0.21929
0.51777
0.12817
-0.20793
-0.11600
0.09725
0.13255
0.05094
-0.04181
-0.09979
0.05350
-0.03662
0.12946
0.22373
0.34480
0.25844
-0.00149
-0.29354
-0.01502
0.17031
0.01655
-0.00185
0.25234
0.06896
-0.11601
-0.18523
0.16979
0.23739
0.16563
0.28384
-0.34388
0.14524
-0.31240
-0.06517
-0.24238
0.11651
-0.16665
-0.06116
0.18455
-0.24891
0.05709
0.17841
0.20872
-0.22530
-0.14656
-0.01993
0.21828
-0.23048
0.00722
0.13616
-0.10147
0.23339
-0.03055
-0.33190
-0.08830
0.31711
-0.01769
0.42465
0.24237
0.29778
-0.18371
0.25083
0.01736
-0.18347
-0.09603
0.03630
-0.20325
-0.23012
0.24455
0.05549
-0.05952
-0.22306
0.17200
0.00333
0.30067
-0.25575
-0.17574
0.10074
-0.18382
0.21088
0.38485
0.11474
0.01480
-0.04582
-0.18972
-0.13321
-0.17910
-0.21995
-0.02457
-0.06209
0.13349
-0.17870
-0.06607
-0.02724
0.03255
0.05673
0.22722
0.06349
0.01915
-0.23835
0.02205
0.34233
0.21989
-0.09663
-0.32756
-0.33323
0.00402
0.01703
0.03616
-0.13046
-0.25419
0.28768
0.03948
-0.13080
-0.01175
0.21261
-0.16247
0.11563
-0.00527
0.12195
-0.08244
-0.37755
-0.32368
-0.19020
0.03553
-0.35329
-0.17684
-0.37503
-0.00954
0.18414
0.09156
-0.14566
0.06742
-0.04219
-0.16993
0.07583
0.30314
0.37506
-0.05823
0.16178
0.39524
0.05208
0.09079
-0.25169
0.09235
-0.28635
-0.16225
-0.09700
-0.03112
-0.03669
-0.17447
-0.17124
0.18321
-0.20864
-0.01470
0.09392
-0.08237
0.00617
-0.25326
0.17174
0.37772
0.09201
-0.02387
0.15770
0.17169
-0.30239
-0.33298
-0.28852
0.19980
0.13226
-0.19829
-0.22702
-0.04497
-0.19070
-0.37575
0.17165
-0.01066
-0.00065
-0.13767
0.16527
-0.38101
0.19902
-0.13170
-0.20874
0.15817
-0.11657
0.04008
-0.12094
-0.16066
-0.10248
0.04966
0.00096
-0.03636
0.75178
-0.15228
0.16618
-0.27585
0.12495
0.05415
0.09834
-0.04077
-0.36881
0.03125
-0.12236
0.34509
-0.28554
0.59028
-0.11848
-0.35083
-0.03123
0.18932
-0.07618
-0.09233
-0.17469
-0.05424
-0.05227
0.07205
-0.29041
-0.08196
0.14970
-0.23683
-0.17004
-0.17797
0.20508
0.20595
-0.01419
0.24343
-0.09602
-0.35099
-0.03665
-0.22071
0.19564
0.24978
-0.00525
0.11573
0.06768
-0.24940
0.49950
0.35264
-0.20726
-0.18357
0.19295
0.11911
-0.31558
0.04505
0.04499
-0.22290
0.01240
0.09038
0.12447
-0.13665
0.26921
0.08284
-0.09416
-0.13081
0.11553
-0.16266
-0.27544
0.05175
-0.04333
-0.23234
-0.11224
-0.01114
-0.17154
0.02827
0.75129
0.18588
0.51120
0.30575
-0.15201
-0.05170
-0.36360
-0.06034
0.21593
-0.00095
0.26128
0.11895
0.17339
-0.26784
0.13959
0.18602
-0.15912
0.01056
0.04248
-0.03989
0.06118
0.32816
0.48266
0.60738
0.03783
-0.05978
-0.23332
0.31034
0.38710
0.17517
-0.34924
-0.49932
-0.20310
-0.16308
-0.48396
0.01448
0.00117
-0.19508
0.05724
0.08321
0.06520
0.29895
0.31478
0.04733
-0.16773
-0.14074
-0.30754
-0.07519
-0.28772
-0.28779
-0.21484
0.10386
0.20853
-0.23480
-0.02149
0.00794
-0.15730
-0.19148
-0.11919
0.09543
-0.12251
0.16264
0.14013
-0.22818
0.03265
0.30127
-0.19000
-0.12272
-0.21327
0.26841
0.00317
0.10626
0.04553
-0.19355
0.30179
-0.19245
0.18489
0.20280
0.05078
-0.06252
0.30048
-0.16596
0.00995
-0.02077
0.27092
0.09364
-0.12572
0.06737
-0.02890
0.08939
-0.11885
0.23143
-0.02148
0.15555
-0.06039
0.08188
0.06858
-0.03489
0.30181
-0.10465
0.21784
-0.14908
0.16425
-0.02365
-0.14191
-0.24874
0.05796
-0.16377
-0.08805
0.16070
-0.00212
0.01293
0.12670
0.17502
-0.12621
-0.02480
0.20588
0.04306
0.17064
0.12652
-0.10456
-0.23127
-0.17695
0.21902
0.12323
0.24893
-0.16687
-0.02518
0.06130
-0.06215
-0.06423
-0.12325
-0.14609
-0.10771
-0.23712
-0.09085
0.03157
-0.12783
-0.12101
0.20979
-0.08745
-0.17815
-0.00718
0.22452
-0.11059
-0.03514
0.12716
-0.23553
-0.04503
-0.15350
0.08508
0.01610
-0.04067
-0.03953
0.02039
-0.00660
-0.22066
-0.07737
-0.00513
0.11418
-0.00067
-0.05544
-0.14648
-0.20497
0.02096
0.05523
0.00576
-0.00454
-0.05949
0.03869
0.09633
0.07665
0.03055
0.00005
-0.02009
0.00000
-0.03503
-0.10495
-0.00185
-0.00717
0.01504
0.00000
0.08741
0.00000
-0.01976
-0.02673
0.00000
0.02934
0.00650
-0.00194
0.00000
-0.00644
0.01220
-0.04738
0.05640
0.01475
0.02756
0.11023
-0.01716
-0.03170
0.05657
-0.00726
0.08832
-0.01971
-0.00409
0.00552
0.00000
-0.00858
0.11907
0.00000
-0.00910
0.00000
0.01617
0.14111
0.01453
0.06663
0.02669
0.00399
-0.05012
0.00784
0.00526
-0.01543
0.07864
-0.00228
0.00545
-0.00011
0.13368
-0.00145
0.02223
0.32367
0.20424
0.09252
-0.23526
-0.02066
-0.13303
-0.02605
-0.23937
-0.05832
0.15567
-0.33973
-0.26594
0.20564
-0.01198
-0.08704
0.12569
0.40986
0.16038
0.07390
0.16690
-0.44479
-0.24837
-0.16967
0.20761
-0.22004
0.01325
0.10446
-0.01296
0.43665
-0.16614
-0.02853
-0.08514
0.00348
-0.02388
0.07182
0.32153
-0.20325
0.51409
-0.16180
-0.30756
-0.21305
0.04749
-0.15239
0.08947
-0.24217
-0.17233
0.16429
-0.26769
0.07062
-0.04947
0.25656
0.24185
-0.21764
0.14583
-0.03531
-0.10273
0.12737
-0.15397
0.21473
-0.20750
-0.15973
-0.25722
-0.00629
0.00794
0.17276
0.23807
0.14892
-0.10280
0.09788
-0.05111
-0.09255
0.16049
-0.05729
0.17063
0.01913
-0.23023
-0.21266
0.24073
0.45620
0.26692
-0.31541
-0.04825
-0.17747
-0.00816
-0.03821
-0.08271
-0.02795
0.06478
0.16188
0.02795
-0.08560
0.21550
-0.24828
0.05095
-0.27660
-0.07015
0.25408
-0.40616
-0.34942
-0.22722
-0.26986
-0.02088
-0.06440
-0.12081
0.02943
0.03093
-0.20606
-0.23151
0.15572
0.08610
0.05984
-0.34979
0.25128
0.03458
0.10811
0.22929
0.19385
-0.31679
-0.14273
0.03676
0.27953
-0.10568
-0.05719
-0.26420
-0.08840
0.11116
0.27947
0.24560
-0.03162
-0.16571
0.23023
-0.07949
0.19923
-0.30290
-0.06457
0.17408
-0.27583
0.13672
-0.32891
0.24619
0.31418
-0.32054
0.02021
-0.49393
-0.44259
0.07903
-0.39434
-0.00882
0.05565
-0.28331
-0.44340
0.28164
0.11603
0.15437
-0.01844
0.63600
0.00380
-0.25987
0.02329
0.11581
-0.32072
-0.03191
0.53254
0.18788
-0.17045
-0.02969
-0.48027
-0.37925
-0.09018
0.18058
0.30107
0.04467
0.47938
0.14517
-0.14876
-0.07849
0.19752
0.27937
0.24756
-0.35307
-0.07678
-0.07880
0.37179
-0.07723
-0.01324
-0.01488
-0.06212
-0.27527
0.12835
-0.20853
0.03249
0.29036
0.27431
0.13246
0.01955
0.27075
-0.16958
-0.45028
-0.30425
-0.11186
0.13800
-0.09367
-0.17672
-0.42764
0.02445
0.38075
0.13054
0.31096
0.23318
0.16873
-0.24573
0.22932
0.07969
0.21242
0.04846
-0.13575
-0.20909
0.17814
-0.09413
-0.16297
-0.10395
0.15885
-0.22420
0.17615
-0.00420
-0.08972
0.02992
0.07431
-0.20602
-0.19210
-0.07511
0.20733
-0.09370
-0.10504
-0.16451
0.04042
0.08059
-0.16301
-0.09506
-0.13822
-0.18776
0.27976
-0.17974
-0.03347
-0.39526
-0.37683
0.23879
-0.20958
0.25232
0.07385
0.36395
0.27679
0.01990
0.24877
-0.05276
0.40324
-0.26880
-0.30542
0.32735
-0.10206
0.17725
0.10905
0.23054
0.06646
0.00488
0.20580
-0.15280
0.12739
0.22685
0.03272
0.01434
0.20046
-0.25621
0.03904
0.02316
-0.01859
-0.21504
-0.16163
-0.21399
-0.12590
-0.04457
-0.24206
0.07052
0.13303
-0.24329
-0.04639
0.21656
0.37840
-0.18616
0.12486
-0.12906
-0.10420
-0.23192
0.37696
-0.16267
-0.02069
-0.26563
0.02016
0.15353
0.37893
-0.08364
0.09580
0.16727
0.33754
-0.30506
0.03002
-0.16882
-0.23942
-0.06139
-0.20186
-0.08750
-0.14074
-0.23340
0.15973
-0.11067
0.28354
0.24204
0.40284
-0.42349
0.15388
-0.16061
-0.08431
0.02011
-0.24584
-0.03023
0.25489
-0.27451
0.32291
-0.13358
-0.01610
-0.22345
-0.00911
-0.25785
0.08679
-0.23659
0.34928
-0.04030
-0.16347
-0.20922
0.30864
0.19329
0.34963
0.10871
0.04837
0.11953
0.13017
0.28050
0.11597
-0.44794
0.03881
-0.12802
-0.43470
0.10135
-0.31517
-0.14258
-0.33001
0.42321
0.04316
-0.25706
-0.23793
0.00174
-0.06303
0.05779
-0.30774
0.12038
0.25603
0.18228
-0.19429
-0.09560
0.08170
0.24798
0.13793
-0.08879
0.04960
-0.16263
0.14757
-0.25101
0.22080
-0.03424
-0.00189
0.01840
0.01810
-0.15506
0.16275
-0.05990
0.01318
0.25462
-0.10633
-0.13423
-0.22957
0.03402
0.30220
0.22578
0.21177
0.18085
0.36370
0.01929
0.27838
0.08077
0.44293
-0.19220
0.31607
-0.05222
-0.51543
-0.36344
0.37643
-0.20306
0.30012
-0.25932
0.37347
-0.21375
0.08371
-0.37365
-0.10293
-0.07465
-0.12986
-0.25813
-0.10451
0.20944
-0.18075
-0.15846
0.09975
-0.18097
-0.06790
-0.19839
0.19268
0.19126
0.24716
-0.20965
0.12772
-0.02857
-0.00054
0.15827
-0.23607
0.01666
-0.11978
0.23677
-0.16066
-0.06183
-0.16737
-0.15651
0.00043
-0.24391
-0.06173
0.09641
0.33224
0.02781
0.08460
-0.21855
-0.04204
0.19162
-0.00659
-0.15207
-0.11619
-0.13491
-0.15991
0.23019
0.12509
0.28601
-0.28891
0.21154
0.16588
0.21983
-0.08660
0.13075
-0.00879
-0.08239
-0.42116
0.14873
0.01218
-0.10782
0.23403
0.05352
-0.23673
0.03779
0.04914
0.23837
-0.19018
-0.20684
-0.09879
0.12703
0.02465
-0.24162
0.23379
-0.12000
0.01597
-0.23511
-0.08912
0.01298
0.06449
-0.20443
-0.01959
0.13633
-0.21022
-0.23054
-0.24019
-0.10205
0.07502
-0.11653
-0.12611
-0.01802
0.28822
-0.32434
-0.32830
0.42804
0.29291
-0.25686
0.27097
-0.09008
-0.36421
-0.13905
0.18191
-0.37738
0.25698
0.30344
0.06276
0.40300
0.09590
0.40648
-0.61099
0.04401
0.24042
0.06011
0.03566
-0.13519
-0.02763
-0.01548
-0.00852
-0.25901
-0.14164
0.09032
0.04391
0.05126
-0.25462
-0.05664
0.19877
0.04350
0.19363
-0.14268
-0.02638
-0.04009
-0.00813
0.11336
-0.13427
0.02890
-0.06793
0.08715
-0.02295
-0.15684
0.17346
-0.04800
-0.16115
-0.01611
0.12680
0.02434
-0.10139
0.06611
0.08687
0.09082
-0.14979
0.08593
-0.22326
0.19282
0.09586
0.24946
0.01908
-0.24669
-0.05254
-0.02990
-0.23718
-0.15563
0.00278
-0.35197
0.22446
-0.32605
0.26038
-0.10928
-0.22368
-0.17985
0.30429
-0.25462
-0.21487
-0.34466
-0.17039
0.21160
0.29402
0.30004
0.01043
0.38156
-0.15138
-0.04596
0.32431
0.33992
0.30212
0.23187
-0.06280
-0.14033
-0.03240
-0.19399
-0.13613
0.20837
0.21473
0.14025
-0.14009
0.10939
-0.24993
-0.21332
-0.06786
0.20971
-0.15087
-0.00864
0.15946
-0.15102
0.06212
-0.05601
-0.21212
-0.23027
0.02405
0.10732
-0.01372
0.05496
0.14191
-0.20037
-0.01736
-0.25489
-0.07048
-0.17037
-0.01288
0.19301
-0.15695
-0.19856
-0.11583
-0.12117
-0.25843
-0.10746
0.17620
0.18431
-0.20070
0.22713
0.02558
0.15145
-0.11510
-0.19636
-0.16421
-0.23916
-0.11998
-0.22246
-0.09308
-0.02449
0.01958
0.08056
0.05388
0.03385
-0.24914
-0.03009
-0.04518
-0.21294
-0.21739
-0.16909
0.12702
-0.15825
-0.20255
-0.11317
-0.01691
0.01764
0.04264
0.22430
-0.06793
-0.17845
0.04033
-0.16705
-0.23491
-0.05326
-0.10681
-0.03922
0.04175
0.22537
0.19692
0.02557
0.02821
-0.00747
-0.21653
-0.20020
0.13638
0.00645
-0.21439
0.09302
-0.35746
0.46892
-0.04285
-0.07485
-0.24591
-0.10770
0.11970
0.36388
0.00179
-0.48673
0.04547
0.26211
0.08011
0.29348
0.11290
-0.03474
-0.09923
0.20780
-0.22509
0.11381
0.15934
0.22085
-0.06914
-0.24907
-0.20515
-0.24104
-0.15564
0.31481
0.40369
0.29078
0.03098
0.14465
0.25128
0.42932
-0.36456
-0.00484
-0.17857
-0.29876
-0.32392
-0.10427
-0.68114
-0.04570
0.12692
-0.32988
-0.33555
0.33527
0.07412
0.14785
-0.21503
0.19319
-0.18268
0.03455
-0.27013
-0.26503
-0.11618
-0.34123
0.22253
-0.30855
0.38732
0.01037
-0.12173
-0.31586
-0.13420
0.13102
-0.26594
-0.15506
0.20347
-0.19178
0.20831
0.41069
0.09168
0.22224
0.15482
0.01873
0.14535
-0.17739
-0.19690
0.17718
0.10413
0.05676
0.29915
0.28619
0.07822
0.33072
-0.11976
0.04828
-0.42236
0.26316
0.07108
0.11699
-0.18772
-0.41113
-0.13023
-0.06281
0.07681
-0.04937
-0.36576
0.04944
0.19067
-0.00060
0.06691
-0.23764
-0.41255
0.35518
-0.14194
0.49004
0.24587
-0.23221
-0.28351
0.10280
-0.08404
0.38525
-0.07754
-0.52073
0.28753
0.19555
0.36504
0.40046
0.12531
0.23207
-0.29265
-0.26643
0.05783
-0.27053
-0.41257
-0.37466
-0.20568
-0.21471
0.14709
-0.22894
-0.18396
0.03595
0.31923
-0.00093
-0.24919
-0.23672
0.23035
0.06809
-0.11659
-0.19781
0.26222
0.11681
-0.01788
0.17838
-0.01597
-0.18475
-0.27919
-0.15443
-0.15074
0.33105
0.44928
-0.24322
-0.34290
0.26777
-0.20577
0.35838
0.40615
-0.64940
-0.48293
-0.21109
0.06791
-0.11750
-0.09671
-0.03221
0.45001
0.11863
-0.02906
-0.62468
0.36123
0.27857
0.02015
-0.21010
0.04489
-0.15419
0.42148
0.21799
0.01946
-0.32063
-0.03538
-0.04484
0.07922
-0.01783
0.17673
-0.35014
0.11444
-0.24862
0.55338
-0.09032
0.23059
-0.33552
-0.21266
0.26627
0.00157
0.23368
0.11181
-0.17617
0.18372
0.20433
0.35509
-0.40890
0.05811
0.24128
0.03611
0.00738
0.06178
-0.06956
-0.12928
-0.04668
-0.29449
0.29529
0.21906
-0.05798
0.34192
-0.26093
0.36327
-0.08830
-0.23708
-0.17342
0.42463
0.03967
0.16041
-0.05369
-0.13224
0.20453
-0.11834
0.21542
0.41110
-0.22971
0.07113
0.29199
0.15701
-0.22097
-0.10104
-0.12071
-0.31726
0.18952
0.11093
0.18093
0.06029
-0.03926
0.27278
-0.13962
-0.08110
0.02950
-0.30565
0.44527
-0.13945
-0.51831
0.23410
-0.08560
-0.25299
-0.18407
0.05974
-0.06725
0.28605
-0.34213
0.16973
0.44269
0.22145
-0.13297
0.06162
-0.37895
0.01798
0.18434
0.16463
0.04306
0.10993
-0.02969
0.19737
0.22216
0.07175
-0.17381
-0.21576
0.37409
-0.05364
-0.01065
-0.12835
0.36667
-0.07828
-0.01465
-0.05799
0.31091
-0.44494
0.23486
0.13648
0.07161
0.36977
-0.33571
-0.10260
-0.00370
-0.12225
0.35810
-0.15795
0.42478
0.03428
0.02042
-0.10399
-0.40528
-0.02560
-0.14524
0.28354
0.02460
0.12439
-0.23929
-0.02476
-0.24463
0.21587
0.04544
-0.10087
-0.05995
0.05935
-0.03861
-0.06007
0.24010
0.06532
-0.14779
0.14510
-0.06367
0.15277
-0.16366
-0.13748
0.16481
-0.18519
-0.18523
0.18939
0.08892
0.16711
-0.07616
-0.09794
-0.02949
0.12443
-0.03734
0.04975
-0.09035
0.25232
-0.01639
-0.14558
0.02062
0.14200
0.17757
0.02274
-0.24778
-0.21477
-0.16083
-0.02750
0.19646
-0.01063
-0.01424
0.06260
-0.24051
0.14032
-0.16296
0.24771
0.06693
0.28346
-0.22426
-0.01217
0.04067
-0.26587
0.16069
-0.09978
-0.04864
0.18786
0.06586
0.20587
0.29611
-0.12127
-0.17618
-0.09519
-0.01465
-0.19011
0.22501
0.05544
-0.21365
0.13034
-0.10129
0.28353
0.06568
0.05909
0.08921
0.08625
0.07306
-0.23969
0.16052
-0.16547
-0.09354
0.16913
0.05370
-0.08205
-0.17011
-0.18972
-0.24821
-0.01661
0.06794
0.01166
-0.14220
-0.08541
0.04208
-0.18377
-0.07631
-0.13421
-0.13656
-0.18252
-0.17041
-0.04584
0.08860
0.24282
0.11474
-0.11686
0.10041
-0.12595
-0.10034
-0.11152
0.23747
-0.02645
0.06353
-0.25344
0.14154
-0.08330
0.12482
0.11125
0.01439
0.04527
0.12738
0.25090
-0.16125
0.03353
0.22061
0.14225
0.11100
0.14680
0.30076
0.00915
0.01450
-0.22124
0.20928
-0.02315
0.02556
-0.03048
0.17811
0.32594
-0.08950
-0.23195
0.04625
-0.30072
-0.22383
0.46127
-0.19545
0.01603
-0.14118
0.14378
0.03068
-0.05128
0.08071
-0.07468
-0.26736
0.00353
-0.02952
0.20492
0.18980
0.12318
-0.09555
0.04642
0.06138
-0.20265
0.13134
0.18546
0.19688
-0.14212
0.20059
-0.18874
-0.16857
-0.00374
0.22189
-0.05073
-0.15992
0.14052
0.04457
-0.23765
0.23946
0.17336
-0.16948
-0.18909
0.22128
-0.10127
0.16511
0.09787
-0.20615
-0.11495
0.22880
-0.04838
-0.17390
0.08056
0.20818
-0.04937
-0.07887
-0.20382
0.13366
0.11426
0.18194
-0.00455
0.12607
-0.22405
-0.09077
-0.05200
-0.04288
-0.16920
0.06258
0.01071
-0.04024
-0.21181
-0.16104
-0.24784
0.16580
-0.17653
0.18879
-0.15148
0.03972
-0.05663
0.02362
-0.18525
0.21772
-0.06985
0.16020
-0.24945
0.22611
0.02026
0.20027
-0.06253
-0.17487
0.20102
-0.22146
0.07853
0.25393
-0.21166
0.26721
0.10695
0.25650
0.26059
-0.14718
-0.26121
0.01929
-0.06297
0.00072
-0.02521
0.09747
0.28938
0.14922
0.20492
0.04286
-0.33215
-0.15768
-0.02311
-0.02563
-0.20925
-0.07440
0.17004
0.13924
0.11637
-0.14702
-0.07625
0.11581
-0.21846
0.39133
0.40603
0.12090
0.09153
0.23497
-0.12791
-0.05444
0.38947
-0.03590
-0.02258
-0.38304
-0.25261
0.44532
0.13629
0.29196
-0.00601
-0.14273
0.23237
-0.14216
-0.39231
-0.18123
-0.16333
-0.46707
0.09838
-0.24307
0.02309
0.13191
-0.11607
0.17244
0.46496
0.07928
-0.17602
0.00549
-0.18267
0.26244
-0.07952
-0.35869
-0.19163
-0.12062
-0.11273
-0.26527
0.01102
0.32215
0.21174
-0.19542
-0.11891
-0.22774
-0.36170
-0.17169
-0.13925
-0.23376
0.28140
0.25491
-0.14434
0.40676
0.22315
0.64641
0.14868
-0.01630
-0.39075
0.30261
-0.05085
0.22367
-0.06393
0.28715
-0.08557
-0.17096
0.37009
0.00211
-0.04593
0.18572
-0.18373
-0.33345
-0.30802
-0.34023
-0.19703
-0.01404
0.04830
-0.11996
-0.14356
-0.41211
-0.34326
-0.10100
0.16644
-0.16114
0.08242
0.07447
-0.12247
0.00510
0.37290
0.27707
0.04404
-0.07449
-0.09630
-0.09247
-0.12583
0.41203
-0.06741
0.12657
-0.30518
-0.19100
-0.12463
0.17950
-0.06678
0.04191
0.07550
0.14162
-0.06143
0.08089
-0.15610
0.15232
-0.20565
0.20999
-0.21491
0.19212
-0.14781
0.21567
-0.24842
0.24747
0.11501
0.14532
0.13816
0.01464
0.14909
0.22962
0.14488
0.01127
-0.06227
0.22634
0.23695
0.06678
0.01460
-0.12351
0.00606
-0.15717
0.06227
0.25184
0.24720
0.24262
-0.11205
0.10459
0.12805
-0.21930
0.07828
0.09597
0.01804
-0.05625
0.25269
0.07791
-0.24820
0.00357
-0.22693
0.17110
-0.08841
0.45433
0.17973
-0.21655
-0.04260
0.01357
-0.15950
0.49032
0.23355
-0.06637
0.11962
0.25581
0.28239
0.19631
-0.19475
0.29202
-0.07831
0.09014
-0.05623
0.20569
-0.61282
-0.08705
-0.00982
-0.28750
-0.44464
-0.48546
-0.14879
0.20232
0.22559
-0.32254
0.29132
0.08838
0.01669
0.06913
0.09099
-0.07027
-0.17214
0.13753
0.02801
0.04279
0.38789
-0.01544
0.12357
0.19711
-0.15807
0.35793
0.01059
-0.07943
0.12512
-0.05281
-0.11882
-0.02605
-0.31382
-0.19035
0.10074
0.10975
0.18728
0.23888
0.16530
-0.26032
-0.07758
0.08880
-0.19619
0.16272
-0.10568
-0.17628
-0.15275
-0.01948
0.09952
0.09919
-0.08639
-0.19760
0.14881
-0.30672
-0.26655
-0.25840
-0.11502
0.17164
-0.07315
0.21419
0.30451
-0.07758
-0.09658
0.09637
-0.04865
-0.39330
0.41253
0.27593
0.30201
-0.31301
-0.04855
-0.12525
0.06121
0.01288
-0.10544
-0.15071
-0.24045
-0.35349
0.35162
0.13025
-0.37731
-0.05797
0.10391
-0.26227
-0.15594
-0.21353
-0.29558
-0.18360
-0.35573
-0.12665
0.05250
-0.10397
-0.08358
-0.19723
-0.10352
0.22637
-0.38877
0.13432
-0.25283
-0.40387
0.26026
0.05996
-0.20709
-0.17645
0.21359
0.14808
0.36366
0.46802
0.58578
0.31627
0.47836
-0.34607
-0.07625
0.30020
0.09307
-0.26315
-0.38849
-0.33405
-0.19536
0.22974
0.16840
0.00126
0.11458
0.04591
-0.03431
-0.06555
-0.25256
-0.09087
-0.40228
0.06442
-0.01441
0.51271
0.02769
-0.14070
-0.12227
0.16337
0.37852
-0.23361
0.24738
-0.17783
0.18104
-0.18546
-0.23235
0.07042
0.00111
0.04629
-0.01354
-0.21724
-0.20739
0.13339
0.05188
-0.04746
0.06659
0.17149
-0.24871
0.01306
0.02684
-0.20082
0.03126
-0.24452
-0.11906
0.05444
0.05990
-0.31069
-0.43155
-0.15132
0.31025
-0.41538
-0.30559
-0.15040
-0.07598
0.51672
0.31780
-0.56639
0.22871
-0.26428
-0.11995
-0.06872
-0.11821
0.07795
-0.09567
0.08345
0.22056
0.29929
0.29904
-0.00700
-0.10714
-0.04942
-0.01831
0.23538
0.22097
0.10176
0.14638
-0.20759
0.20429
0.19158
-0.18112
0.06533
0.10258
0.11357
-0.04263
-0.20492
-0.11161
0.19389
-0.04477
-0.16288
0.14477
0.23416
0.11949
-0.06447
0.04450
0.24008
-0.22286
-0.00392
-0.13706
-0.20204
-0.06367
-0.22980
0.21377
0.30208
0.00913
0.16147
-0.00518
-0.24497
-0.10913
0.10684
0.18677
-0.29884
-0.06808
-0.36650
-0.02465
-0.17574
-0.06047
-0.26244
-0.09184
-0.27612
-0.20701
0.15646
0.37262
0.26933
0.10196
-0.06633
-0.07408
0.04100
0.04596
-0.08777
-0.02011
0.08356
-0.10435
0.09967
0.03590
-0.05993
0.01081
0.03320
-0.03015
0.08961
-0.07637
0.11595
-0.01290
0.00876
0.04603
0.01248
0.00752
0.04270
0.01149
-0.12522
-0.02743
