0.01250
0.81028
-0.33455
0.81997
-0.83445
0.27875
-0.50335
-0.63114
-0.29680
-0.48789
0.30236
0.62179
-1.40829
0.46134
-1.09676
0.43346
0.45374
-0.00161
0.33798
-0.01178
-0.08115
0.69593
0.83046
0.67315
-0.44570
-0.69946
-0.41021
-1.61091
-0.40152
0.41337
0.39882
-0.32144
-0.35309
-0.09043
-0.77541
0.89388
0.25948
-0.06262
0.65355
-1.49604
-0.12323
0.57074
0.55548
0.87084
0.66200
-0.43166
0.18506
0.17820
0.11400
-0.54644
0.46790
0.57014
0.30344
-0.84424
0.39530
0.47990
-0.42341
0.80210
0.42358
-0.03968
0.72922
0.21907
0.61549
0.19348
0.47822
-0.52819
-0.76766
-2.30520
0.21069
0.09878
0.32247
0.09070
0.24870
0.15394
0.20474
0.16606
0.51348
0.03858
-0.25629
0.40792
-0.09386
0.09979
0.05975
-0.10380
0.08129
0.00226
-0.04501
0.08503
0.09183
-0.07627
0.00466
0.08721
-0.00571
-0.04208
-0.03939
-0.07927
-0.00082
-0.11869
0.05077
-0.04980
0.06906
-0.04918
0.05826
-0.03455
0.02183
-0.00148
0.09107
-0.01021
0.11226
-0.01585
-0.15022
-0.03091
-0.05342
-0.01954
-0.29882
0.05877
0.09241
-0.05106
-0.09729
-0.10537
-0.13952
-0.02513
-0.08884
-0.00676
0.05570
0.07212
-0.02469
-0.11172
-0.13870
0.06157
0.14311
-0.14582
0.18559
-0.22803
0.17992
-0.10085
-0.02757
-0.15313
-0.14820
-0.01717
-0.02608
0.05210
-0.03810
0.11353
0.02863
-0.01460
-0.15354
0.02784
-0.09883
0.01309
0.03566
-0.03762
0.06146
-0.07352
0.05291
0.12160
0.01189
0.27510
-0.03824
-0.09082
-0.24846
0.05924
0.10532
0.03798
0.01295
0.04432
-0.09565
-0.04711
-0.12149
-0.09726
-0.10806
0.06270
-0.04262
0.06735
0.01703
-0.10395
-0.03993
-0.03132
-0.35963
-0.04102
-0.04112
0.19504
-0.06276
-0.18851
0.00659
0.07324
-0.04357
0.25695
0.44162
0.01080
-0.17398
0.01876
0.12192
0.13836
-0.07294
0.14133
0.15712
0.00311
0.15805
-0.36401
-0.34310
-0.23712
0.03185
-0.22984
-0.04538
-0.09006
-0.08911
0.10891
0.18196
0.12499
-0.33153
0.15123
0.05653
-0.12441
0.17846
-0.19890
-0.17436
-0.02631
0.17091
0.01633
-0.01375
0.06647
0.19662
-0.14103
0.00661
0.17832
0.10280
-0.29194
0.02996
-0.13261
0.12145
0.02671
-0.05385
0.10732
-0.02011
-0.19574
0.20571
0.01575
0.24408
0.13524
-0.11840
-0.08253
-0.26602
-0.07169
0.01704
-0.13847
0.06788
-0.31577
0.11758
0.05020
-0.11770
0.12216
0.10354
0.04276
-0.02646
0.08073
0.19270
-0.12076
0.00518
0.25011
0.23152
0.01294
0.21080
-0.07342
0.14383
-0.16278
0.06759
0.15510
0.00995
-0.10626
0.03216
0.01202
0.17988
0.15639
0.01384
0.09753
-0.05810
0.00897
-0.00902
-0.09728
-0.02331
0.00679
0.13418
-0.05231
-0.15019
0.25485
0.06229
-0.03490
0.33072
0.16604
0.00336
-0.05878
0.13785
0.11310
-0.08235
-0.04266
0.11063
-0.05603
0.06146
0.13743
0.31156
-0.03085
0.15694
-0.13266
0.31488
0.07398
-0.07088
0.07872
0.08198
-0.14541
-0.09549
-0.21296
-0.01086
0.06036
0.06233
-0.01497
-0.01884
0.25296
-0.09468
-0.03252
-0.11208
0.17651
-0.04683
-0.05034
-0.07129
-0.11704
0.09982
-0.07876
-0.22677
-0.02414
-0.13377
0.03364
0.07167
0.21308
-0.18095
-0.22552
0.12593
0.06024
0.02106
-0.11637
-0.10716
-0.10205
-0.03095
0.07138
0.09659
0.15215
0.03435
-0.09744
0.03738
-0.03710
-0.06582
-0.13644
-0.07521
0.08090
0.03306
0.09499
0.04272
-0.08229
0.12607
0.04114
0.02488
-0.05475
-0.00841
0.01285
0.02425
0.07109
-0.13313
0.03887
0.07137
-0.05033
-0.00140
0.02340
-0.09769
-0.12794
-0.04103
-0.11919
-0.02207
0.15301
-0.04611
-0.13522
0.11350
-0.17569
0.06068
-0.01191
-0.06126
-0.01524
-0.18086
-0.15674
0.08958
-0.13807
0.18267
-0.14644
-0.18362
0.04145
-0.05809
-0.04070
-0.06336
0.19701
0.16637
-0.10801
0.07791
0.11284
-0.05469
-0.02510
-0.04008
0.14085
0.05811
-0.19108
0.16631
0.22468
0.04634
-0.03207
0.13714
-0.02515
-0.08028
0.08018
-0.02887
0.05425
0.02160
0.07343
0.11989
-0.03978
0.00161
0.05621
-0.01772
-0.02480
0.03512
0.09995
0.21757
0.17114
-0.03231
0.05829
-0.14606
0.20386
-0.04622
0.28054
-0.08161
0.00625
-0.02046
-0.52679
0.08555
0.11087
-0.03103
-0.11347
0.32237
0.12993
-0.01837
0.03100
-0.21958
-0.02255
0.07740
-0.32306
0.38616
-0.06986
0.10671
-0.04473
-0.26705
-0.10838
-0.15228
0.23050
0.14153
0.23756
0.10016
-0.25266
0.14978
0.19239
-0.21126
-0.05784
-0.04141
0.06025
0.16483
-0.09855
-0.11209
-0.00933
0.05846
0.19868
-0.04140
-0.07148
0.21907
-0.06951
-0.14486
0.13344
0.17518
-0.19258
0.06466
-0.07153
0.14664
0.21307
0.03336
-0.03524
-0.00288
-0.12408
0.12907
0.08761
0.15133
0.08563
0.08563
0.12841
-0.12299
0.06100
0.03734
0.04957
-0.09974
0.09221
0.10531
0.21643
0.10328
-0.00965
-0.05567
0.22916
-0.14596
0.08470
0.06381
0.03092
-0.26600
-0.13737
0.18552
-0.07564
-0.03403
-0.00511
-0.19796
0.09732
0.10618
0.07248
0.07048
0.21166
-0.03925
-0.06535
0.14804
0.18964
-0.09470
-0.05795
-0.13068
0.11665
0.11557
0.14191
0.07533
-0.01527
0.14650
-0.10118
-0.00608
0.19605
0.05322
0.02854
-0.14193
-0.06013
-0.23115
-0.10332
0.21972
-0.05792
-0.06174
-0.09161
-0.01071
0.18944
-0.02774
0.22846
0.39773
-0.15382
0.02077
-0.02512
0.09459
0.18305
-0.06123
0.03367
0.10440
-0.13255
0.00055
-0.18222
-0.08173
0.12523
0.06455
-0.00095
-0.02313
-0.21985
-0.01261
0.09637
-0.22818
0.15582
0.17338
-0.20133
-0.15012
0.01788
0.32339
0.08022
0.02339
0.15891
-0.02751
0.10433
0.25405
0.13407
-0.14952
0.02692
-0.08468
-0.07575
0.08798
0.08112
-0.05957
-0.00845
0.03546
-0.03765
-0.07969
0.05442
0.04288
-0.03298
0.00331
-0.08470
-0.03386
-0.08355
0.05028
0.10350
0.09712
0.07614
0.09090
-0.08188
-0.07446
0.07031
-0.05065
0.03035
0.05376
-0.10785
0.11826
0.12470
0.08148
-0.08225
-0.18394
0.12113
-0.01544
-0.10852
0.04185
-0.04078
0.00026
0.02346
0.10848
0.11996
-0.08164
-0.04096
-0.00608
0.11912
0.03829
0.06306
-0.34723
0.04895
-0.03246
-0.04751
0.06535
-0.05499
0.18731
-0.01199
-0.18368
0.17123
-0.08264
0.18912
-0.02316
-0.11348
0.19132
-0.06096
-0.17563
-0.07735
0.24160
-0.03925
0.11190
-0.08323
-0.08433
0.08303
0.22522
0.22858
0.04351
0.03953
-0.17638
-0.14639
-0.02978
0.27544
-0.04270
-0.08071
-0.05192
-0.09559
0.03885
0.07733
-0.03666
0.25054
-0.14455
0.09002
0.00587
0.12437
0.00971
0.25122
0.01492
-0.01892
-0.18882
0.13319
-0.07373
0.13510
-0.06972
-0.10212
-0.06825
-0.18552
0.17553
0.27835
-0.08389
-0.27042
-0.14917
-0.39413
-0.11421
0.41236
-0.53455
-0.17781
0.16474
-0.11914
-0.00443
-0.04237
0.19364
0.23588
-0.55306
-0.14186
-0.14033
0.66247
0.15901
0.35484
0.30705
-0.40112
0.12861
0.02195
-0.22963
-0.12935
0.00824
0.31011
-0.05742
0.33959
0.07110
-0.06417
0.19672
0.20526
0.16003
0.22073
0.28909
-0.21954
-0.00630
-0.05717
0.13813
-0.12085
-0.13567
-0.14835
-0.34171
0.22164
-0.03032
-0.03801
0.24640
-0.49061
-0.23719
0.14181
0.25404
0.24745
0.11243
0.04230
0.14869
-0.05909
0.03685
0.09129
-0.04897
-0.01820
0.05705
0.29578
0.07956
-0.14928
-0.04944
0.04736
-0.05217
-0.16220
0.08925
0.09093
-0.23810
-0.13965
0.27566
0.17192
0.14196
-0.12919
-0.10978
0.14313
0.04877
-0.05264
-0.09273
-0.06364
-0.08434
-0.06496
0.11321
0.01079
-0.04555
0.00179
0.08476
0.07827
0.08604
0.28297
0.04641
-0.03848
0.02202
-0.09410
0.00620
0.23287
0.00007
-0.08495
-0.09878
0.10622
-0.04242
-0.17374
0.11412
-0.14909
-0.33326
0.10995
-0.22357
-0.18122
0.14250
-0.25367
-0.47584
-0.18372
0.16569
-0.21094
-0.05550
0.13103
0.19096
-0.11737
0.04044
0.21230
-0.03980
-0.02538
0.20297
0.05780
0.23050
0.00788
-0.05993
-0.20986
-0.04638
0.05061
-0.09137
-0.01470
0.11320
-0.03956
0.07445
-0.15244
-0.13626
0.00977
-0.31565
0.04915
-0.13454
-0.03617
0.03816
-0.01571
-0.04992
0.03361
0.08132
0.01712
0.07249
-0.15722
0.05487
0.10336
-0.03536
0.04375
-0.06225
0.04795
0.12313
-0.09834
-0.16118
-0.05900
-0.06066
0.13490
0.09027
-0.13803
-0.12216
-0.11994
0.07736
-0.05842
-0.00234
-0.11843
-0.04998
-0.13345
0.10504
-0.06732
-0.10045
-0.02394
-0.04773
-0.04618
-0.14052
-0.17878
0.01384
0.13429
-0.07282
-0.06909
-0.09837
0.13600
-0.01680
0.11097
-0.03405
0.06578
-0.03125
-0.43418
0.03975
-0.07432
0.01239
-0.11393
0.21328
-0.11951
0.19535
-0.02991
0.00753
0.05063
0.17994
0.04009
0.20900
-0.16208
-0.05260
-0.01517
0.04614
-0.19955
0.07909
-0.03085
-0.04264
-0.04737
0.02516
0.04789
-0.11662
-0.01545
-0.17586
0.12360
-0.00681
-0.02240
0.09420
-0.15841
0.05629
0.05448
0.09172
0.02372
0.03084
0.07745
0.11372
-0.12416
-0.01264
0.03975
0.04225
0.07075
0.02834
-0.24474
0.03341
-0.17858
-0.02013
0.02670
0.04703
-0.35543
0.19619
0.09678
-0.03392
0.29366
-0.08284
0.25934
-0.12281
0.07318
0.36988
0.15230
0.19515
-0.47015
0.07868
-0.08764
-0.03080
-0.05742
0.26148
-0.25083
0.28760
-0.57939
0.20972
0.09189
0.06369
-0.25266
0.31758
-0.28418
0.05808
-0.03413
0.06370
-0.35658
0.12275
0.05404
-0.18157
0.05914
-0.00310
-0.23925
0.03588
-0.04720
-0.02998
-0.26828
-0.09820
0.09289
0.15013
-0.10529
0.17228
0.04285
0.38996
-0.02223
0.07171
0.01163
0.03888
0.00801
0.07073
-0.03284
-0.00069
0.23369
0.12489
0.01498
-0.04914
-0.08852
-0.23367
0.04389
-0.01443
-0.00870
0.02341
-0.02683
-0.12565
0.14278
0.08658
0.33916
0.10061
0.08584
0.18186
0.02974
-0.02030
0.05854
-0.00104
0.06425
0.28344
-0.09965
-0.00467
-0.11754
0.20804
-0.05303
-0.13984
0.07599
-0.02113
-0.08867
0.11524
-0.07914
-0.07541
-0.08881
-0.03206
0.02545
0.13008
0.00853
-0.10544
0.24291
-0.03369
-0.11994
0.13216
0.06487
0.12835
-0.20587
-0.14861
0.15258
0.08110
-0.17835
-0.06770
-0.03262
0.38533
-0.16735
0.30567
0.12886
0.03916
0.17564
-0.19475
-0.10732
-0.17298
0.06496
-0.00466
0.19132
-0.16511
0.19583
0.01556
0.14347
0.16009
-0.11963
-0.11137
0.11446
-0.09787
0.00993
-0.16777
-0.24900
-0.06238
0.15110
0.06175
0.16564
-0.27192
-0.03990
0.09121
-0.17393
-0.08811
-0.03606
-0.03780
0.00975
0.12077
0.00228
0.23239
-0.17161
0.08981
0.03543
0.01928
-0.27799
0.13832
-0.33118
-0.08892
0.08799
-0.05474
-0.10827
0.12967
-0.01793
-0.04698
-0.08047
0.02400
-0.01240
0.00369
0.11083
0.04793
0.02327
-0.17985
0.15812
-0.04494
0.01306
0.02503
0.00780
-0.29768
-0.11978
0.17388
-0.11301
-0.06948
0.03792
-0.11845
0.05816
0.05234
-0.11642
0.09784
-0.00962
0.16567
-0.09443
-0.05444
-0.08083
0.11633
-0.03326
0.07671
-0.19719
-0.09453
-0.15667
-0.10828
0.16471
0.16804
-0.05281
0.07868
-0.25659
0.00949
-0.02715
-0.15138
-0.12632
0.09414
0.07978
-0.01096
-0.24196
-0.07579
0.07550
-0.06219
-0.01184
0.18377
-0.19799
0.11528
0.20463
0.01333
-0.07702
0.01518
0.14210
0.07387
0.29756
-0.11215
0.04665
-0.03775
-0.01883
-0.07090
-0.05605
0.04317
0.36521
-0.15529
0.10702
-0.13483
-0.16949
0.05843
-0.01006
-0.28681
-0.03988
-0.15544
0.12189
0.00116
0.02695
0.09544
0.12025
-0.09537
-0.20185
-0.17182
0.21665
-0.03830
0.10218
-0.08497
0.00243
-0.05475
0.30481
-0.10808
0.08562
0.03983
-0.26885
-0.18204
0.14152
-0.15387
0.23269
-0.25066
-0.08201
0.01118
-0.10423
-0.08554
-0.02556
-0.30651
0.16113
0.00214
-0.09850
0.14253
0.10295
0.41358
-0.02997
0.25475
-0.11522
0.03124
0.30029
-0.03880
0.00878
-0.21064
0.03879
-0.16431
-0.18845
0.05104
-0.17527
0.04691
-0.00334
-0.15867
-0.14220
-0.12667
-0.16763
0.14117
0.10407
0.07910
-0.09821
0.09590
-0.08170
0.08404
-0.08812
-0.01104
-0.07819
0.07798
-0.15417
-0.06970
-0.10398
-0.14365
-0.24183
-0.05257
0.05011
0.13409
-0.02542
0.07137
-0.08216
0.17397
0.02590
0.02908
0.14505
0.04465
0.16087
0.00755
0.04019
0.08646
0.01246
0.09392
0.04744
-0.06012
-0.13742
-0.10674
0.11290
0.14750
-0.22200
0.11894
-0.12568
-0.24967
0.07414
-0.02423
-0.18779
0.12876
0.00569
0.09100
-0.10067
0.02625
-0.07077
0.02527
0.13120
-0.01271
-0.06301
0.07515
-0.10162
-0.10153
0.06401
0.14218
-0.15473
-0.22067
-0.08953
0.20664
0.05179
0.08082
0.02979
0.29262
0.12575
0.19012
-0.11465
-0.15086
0.12336
0.01435
-0.07296
0.17309
0.08585
0.02267
0.05524
-0.17723
0.17759
-0.03371
0.15545
-0.08746
0.19462
0.00293
0.17073
-0.06985
-0.07831
-0.01356
-0.15248
-0.07170
0.11338
0.14053
0.04359
-0.07628
0.34853
-0.04239
-0.05208
0.15415
0.07853
-0.15276
0.17166
-0.10764
0.06046
-0.04174
0.07433
-0.09667
0.06999
0.03050
-0.24784
-0.05592
0.04317
-0.01825
-0.00341
0.11781
0.04040
0.01116
-0.18353
0.07153
-0.04738
-0.05650
-0.13466
0.04417
0.02947
-0.09854
0.03608
0.03000
-0.08291
-0.09004
0.00311
-0.09608
0.08828
-0.11835
0.02466
0.11226
0.06073
-0.07664
-0.06506
-0.05157
-0.06571
0.04928
-0.09552
-0.08471
-0.01060
0.15872
0.11423
-0.00908
-0.07495
0.15793
-0.13116
0.11744
-0.09941
0.13497
0.01790
0.06023
0.16604
-0.10625
-0.21056
0.03148
-0.15432
0.12782
-0.13305
-0.25460
-0.04145
-0.00007
0.09129
-0.05330
0.06194
0.00713
-0.08245
0.01758
-0.15107
0.17345
-0.06066
-0.21732
0.15340
0.04412
-0.07779
-0.14205
0.19042
-0.09016
0.01822
0.09294
0.05438
-0.03892
-0.04086
0.01750
0.07527
-0.00679
-0.05580
0.03179
0.27947
0.03840
-0.04712
-0.11757
0.11242
0.14328
0.04027
-0.06521
0.00509
-0.19408
0.07488
-0.02453
-0.12811
0.13323
-0.30485
-0.23432
-0.10644
0.00789
-0.20482
-0.17696
-0.00274
0.03697
-0.23397
0.10779
-0.13509
-0.07999
-0.09053
-0.04204
0.08292
-0.31682
-0.21757
0.20895
0.35317
0.37102
-0.26474
-0.23952
-0.07236
0.47051
0.13608
0.11481
0.09021
-0.01902
0.16276
-0.15519
0.15039
0.12436
-0.43203
-0.17632
0.29496
-0.14978
-0.06744
-0.18551
-0.02764
-0.02385
0.18449
-0.07493
0.08357
0.05690
-0.02671
0.13855
-0.04208
-0.03069
0.08687
0.10789
-0.09496
-0.07959
0.01187
0.15787
0.08870
-0.04063
-0.06144
0.07269
0.14632
-0.09138
-0.20613
-0.02796
0.05412
-0.08901
0.07345
-0.01300
-0.09221
0.36525
0.20787
0.12855
-0.04789
0.00611
-0.18198
-0.11642
0.14127
0.06004
-0.06901
-0.07436
-0.09408
0.05345
0.03350
-0.00741
0.25473
0.00448
-0.19926
0.06433
0.01070
-0.07980
0.00053
0.04092
0.07821
-0.14294
-0.02992
0.10088
-0.04941
-0.04269
-0.16068
-0.15040
0.19260
-0.05662
0.09532
-0.17468
0.16640
-0.09609
0.14069
0.03425
0.03998
0.13660
0.03618
0.14074
0.18451
-0.14346
0.18354
-0.04266
-0.07006
-0.17304
0.00514
0.07294
-0.14776
-0.09558
-0.03373
-0.31168
-0.00635
-0.19000
-0.07703
0.10532
-0.03571
0.09235
0.44839
0.35256
-0.06159
0.19451
0.10402
0.05567
0.05508
0.12854
0.01093
-0.04037
0.10117
0.06639
0.00391
-0.18084
0.05639
-0.14821
-0.16923
-0.07782
0.47386
0.07556
-0.15264
0.24251
0.01222
0.13439
-0.11856
0.00473
0.11304
0.07225
0.05075
0.07223
-0.12861
-0.00298
-0.06331
0.00690
-0.06527
0.15454
-0.11502
0.02353
-0.12892
-0.08321
0.03175
0.09571
0.04619
0.04105
-0.04970
-0.02831
0.15035
0.03945
-0.04043
-0.17702
-0.02020
-0.08149
0.03941
-0.09200
-0.10050
-0.03124
0.04210
-0.09965
-0.10829
-0.00884
0.15696
-0.07711
-0.08225
-0.05583
0.08301
-0.01059
-0.06407
0.05509
0.00805
-0.03653
0.00164
0.27061
-0.41187
-0.05407
-0.12641
-0.03258
-0.11795
0.13857
0.19321
0.03326
-0.12398
-0.10680
-0.08918
0.11938
0.27474
0.07756
0.09728
-0.03660
0.23470
-0.09662
0.07551
0.15493
0.17109
-0.15277
-0.01664
-0.02805
-0.05581
-0.09293
0.01387
-0.23427
0.01855
0.02637
-0.02452
0.11977
-0.19329
-0.03049
0.12162
0.07425
0.10969
0.04952
-0.12592
-0.16661
-0.06320
-0.06148
-0.02429
0.04862
0.03762
0.11961
0.07973
-0.13152
0.20787
0.02414
0.00497
0.08081
0.21765
0.04183
0.03773
0.04499
0.09370
0.27452
-0.25172
-0.18282
0.18525
0.02125
-0.02452
-0.00521
-0.36254
-0.00973
0.06114
-0.05829
0.08132
0.10874
-0.16298
-0.17417
-0.34937
-0.18516
-0.30998
0.34185
0.35563
0.22808
-0.21933
-0.32728
0.47130
-0.21716
0.13474
0.58247
0.37664
-0.21297
0.12438
-0.11424
0.21856
0.16806
-0.51135
-0.30102
0.23297
-0.12972
-0.18607
0.12483
-0.27589
-0.06777
-0.25924
-0.09182
0.11166
0.08415
0.12607
-0.07186
-0.13563
-0.15718
-0.19390
-0.00078
-0.15558
-0.28348
-0.04446
-0.10809
-0.20716
-0.01874
-0.24421
0.03328
0.23728
0.08344
0.02317
-0.08675
0.12687
0.06421
-0.16648
0.06461
-0.22310
0.09868
0.00268
-0.02623
-0.25785
-0.10639
-0.09227
-0.07693
0.18943
0.05939
-0.17359
-0.00899
-0.08094
-0.11524
-0.13706
-0.01662
0.09996
0.11284
-0.09726
-0.03416
0.03849
0.13292
0.24615
0.05674
-0.17229
0.13590
0.15555
-0.07053
-0.18001
-0.12952
-0.01008
0.00739
0.06992
0.11881
0.10883
0.17477
-0.10777
-0.09229
-0.21190
-0.11888
-0.07692
-0.22919
0.00972
0.00044
-0.08086
0.09175
-0.02528
-0.00505
-0.16764
0.01896
0.13341
0.25777
-0.13284
0.19595
0.05049
-0.03549
-0.04203
0.09983
0.10710
-0.04603
0.03353
-0.23021
-0.01323
-0.05527
-0.05683
0.01151
-0.09012
0.07675
-0.32464
-0.07207
-0.17295
0.09939
0.30814
0.09254
0.23170
-0.19358
-0.21916
-0.01801
-0.18258
-0.02394
0.04372
0.17171
-0.05740
-0.11833
0.05629
-0.10814
0.17859
-0.02082
0.15429
-0.11054
0.09341
0.04201
0.18661
0.24106
-0.09908
0.02217
0.13920
0.07953
0.06051
0.02101
-0.11782
-0.02552
0.28141
0.05689
-0.03954
-0.01536
0.42298
0.19046
-0.11352
-0.14194
-0.05257
0.06151
0.03164
-0.00627
-0.14703
0.04891
-0.14890
-0.00766
0.00311
0.03840
0.13682
0.05657
-0.04353
0.01034
0.07205
0.12239
0.07309
0.14045
-0.00947
-0.09683
-0.08694
0.22384
-0.23853
-0.08582
0.05710
-0.06840
0.01788
0.11015
0.19489
-0.13141
-0.16016
-0.13051
-0.15630
0.04215
0.22059
-0.12316
0.04785
0.08380
0.03026
0.00294
-0.11979
0.17884
-0.04614
-0.06056
-0.12880
-0.03696
0.21249
-0.08400
-0.08169
0.18135
-0.02171
-0.01339
-0.01152
-0.06275
-0.21607
0.11657
-0.03475
-0.01563
0.02186
-0.12675
-0.06911
0.18420
-0.14189
0.13900
0.15921
-0.15660
-0.02312
0.02355
0.01198
-0.19599
0.24568
-0.00999
-0.04373
-0.15550
0.12464
0.13481
-0.01032
-0.05907
0.32610
0.16048
-0.09138
-0.05067
-0.00626
0.08064
-0.10667
0.20075
-0.30210
-0.03737
0.05724
0.01746
0.45881
-0.10582
-0.01915
0.05524
-0.40536
0.21239
-0.34547
-0.01720
0.19421
-0.14405
-0.03771
0.12741
0.37219
-0.24264
0.11820
0.05337
-0.01223
0.15003
0.15909
-0.18080
0.10414
-0.10183
-0.30726
-0.41260
0.27182
-0.08339
-0.06764
0.14110
-0.04728
0.05389
-0.04568
0.07974
0.11701
0.03737
0.09694
0.09638
-0.00978
-0.12923
-0.09605
0.04124
0.10701
-0.04569
-0.06896
-0.32352
0.06162
0.22601
-0.09194
0.09471
0.24273
-0.07830
0.05128
0.03791
0.03210
0.12774
-0.24428
0.17483
0.04231
-0.07535
-0.00370
0.17905
-0.19245
-0.05045
0.26771
-0.01455
0.19848
0.05441
-0.12166
0.09015
0.03325
-0.02228
-0.08172
0.09295
-0.03768
0.22600
0.04197
-0.14584
0.02319
-0.10050
0.14147
0.21733
-0.05736
0.22648
0.11543
-0.00003
-0.03063
0.05928
0.01089
0.02294
-0.03292
0.04915
-0.06508
-0.18367
0.16267
0.12037
0.10109
-0.10878
-0.10259
0.03325
-0.43465
-0.06186
0.10662
0.06324
0.01887
-0.04614
0.19765
0.20726
-0.03672
-0.07653
0.05776
0.13424
0.02531
0.17093
0.20949
0.04446
0.00328
0.07773
-0.21797
0.11699
0.17491
-0.10255
0.07328
-0.08635
-0.19880
-0.05203
-0.00007
0.04029
-0.05077
0.07055
0.04242
0.02833
0.06019
0.14995
-0.05043
0.15684
0.16380
0.00270
-0.08579
-0.18487
-0.09094
-0.13381
0.03594
-0.13046
-0.05361
-0.08622
-0.12683
0.05267
-0.01912
0.09807
0.25043
-0.01823
-0.14225
0.21564
-0.26997
0.05498
0.10366
-0.08412
0.01448
-0.12193
0.08158
0.04475
0.17353
-0.09005
0.23464
-0.09169
0.06763
-0.16681
-0.09993
-0.09446
0.08681
-0.10142
0.03053
-0.06431
-0.02797
0.03274
0.16465
-0.13791
0.00064
-0.07445
-0.02618
-0.08422
-0.01441
0.05521
0.05889
0.00634
-0.10651
-0.00217
-0.07820
0.18652
-0.10680
-0.05213
0.02157
0.03463
0.00827
-0.10123
0.09946
0.05822
-0.03385
0.06537
-0.27112
-0.04314
0.11842
0.08127
0.12750
0.18693
-0.03545
0.16389
-0.05179
0.06328
-0.14415
0.15444
-0.06803
0.04901
-0.08104
0.07412
0.04438
-0.13919
-0.09557
0.06561
0.03262
-0.10950
0.15531
0.01261
-0.16609
-0.11705
-0.04521
-0.16788
-0.06061
-0.16321
0.23087
-0.02840
0.04179
-0.08429
-0.00407
-0.26422
0.01772
-0.11774
-0.05312
-0.03697
0.29539
0.01327
-0.01208
-0.03446
0.05773
-0.13051
-0.12890
-0.07321
-0.00027
0.14982
0.11190
-0.19111
-0.31380
0.26846
0.19050
0.04074
-0.37595
0.04778
0.20652
-0.30135
0.22592
0.19147
0.21367
0.30919
-0.12624
0.08520
0.22980
-0.29154
0.16774
0.24034
-0.35508
-0.19925
0.33177
-0.12643
-0.19056
0.28951
-0.16481
-0.38957
0.13184
-0.41816
-0.16650
-0.31301
0.29534
0.19262
0.10524
0.06727
-0.11851
-0.09921
0.02699
0.08924
-0.13544
-0.06780
0.28867
-0.01987
-0.05556
0.00343
0.32514
0.03675
-0.02866
0.10034
0.11254
-0.28747
0.05590
0.33839
-0.01612
-0.13496
0.22160
-0.00224
0.13335
-0.13799
-0.32716
-0.09817
0.01380
0.12427
-0.04552
0.01544
-0.09752
-0.04418
-0.11561
0.09761
0.34340
0.01644
0.23916
0.11435
-0.09048
0.05401
-0.02238
-0.15795
0.03169
0.01383
0.04624
0.33844
-0.00885
-0.04206
0.03254
-0.03010
-0.01033
-0.19891
0.02801
0.11503
0.11772
0.04593
0.16056
0.11008
-0.03331
-0.10933
0.15151
0.15124
0.05788
-0.23001
0.11938
-0.04902
-0.11375
0.00729
-0.27068
-0.02115
-0.21441
-0.25035
0.10333
-0.12324
0.42808
-0.13537
-0.26562
0.38099
0.04025
-0.03918
0.19624
-0.02767
-0.05768
-0.09921
-0.02268
0.03706
0.17019
-0.23624
0.06559
-0.11955
-0.01598
0.11693
0.17792
-0.17876
0.07308
-0.11942
0.28981
-0.10082
0.04862
0.14492
0.16404
0.01391
0.17464
-0.25977
0.09420
-0.06845
-0.09250
0.00051
0.13231
-0.37829
-0.08031
-0.29693
-0.16432
-0.13865
0.35891
-0.10877
-0.08048
-0.06628
0.10917
-0.09601
-0.36272
0.16042
-0.01605
0.15229
0.13329
0.00403
0.03080
0.06697
0.00418
-0.01763
0.01684
-0.00213
0.10247
0.03604
0.00101
0.00872
0.02049
-0.04358
0.14184
-0.00828
-0.03025
0.09524
-0.01257
-0.10494
-0.04660
0.12173
0.07608
-0.14754
-0.06385
0.08353
-0.02696
0.00028
-0.05432
-0.04479
0.02403
0.03343
-0.04013
0.20353
0.17712
0.29258
-0.04583
0.21285
0.06349
0.23840
0.18284
-0.11866
0.19295
0.26142
0.12172
-0.26945
0.13230
-0.13230
-0.01399
-0.02887
0.16273
-0.22526
-0.01634
-0.03316
0.28984
0.28076
0.16258
-0.23644
0.02970
0.13236
-0.07331
0.20457
-0.31311
-0.28935
0.05060
0.34417
-0.02782
-0.01409
-0.28789
-0.13398
0.08223
0.10296
0.22684
-0.11206
0.00179
-0.02701
-0.34098
-0.07864
-0.08334
-0.15054
0.17630
0.23185
-0.08635
0.06044
-0.15124
0.02582
0.15566
-0.19775
0.08788
0.14494
-0.02487
-0.13039
-0.19251
-0.02704
0.08878
-0.04262
0.15731
-0.28645
0.18800
-0.06074
-0.04730
0.11119
0.08074
0.30319
-0.14629
-0.14476
0.14498
0.20297
0.18391
0.14880
-0.23379
0.29745
-0.18748
-0.29792
-0.23824
0.25107
-0.22560
0.12739
-0.03844
0.27935
-0.06938
0.00705
-0.07420
0.03443
0.06663
0.18021
-0.10986
-0.06991
-0.24695
0.25222
0.06031
0.23560
-0.19199
0.31609
0.27491
0.06053
-0.15548
0.10644
0.12398
-0.16356
0.05964
-0.10809
0.10957
-0.05375
0.28843
0.17801
-0.13810
-0.16210
-0.25310
-0.16009
0.25676
0.20477
0.07897
-0.17925
-0.04760
0.03721
0.04484
0.04120
-0.18640
-0.08714
0.17786
-0.16024
0.04122
-0.18081
-0.14018
0.15325
0.22887
-0.14458
0.06630
-0.17242
-0.39765
-0.02330
-0.00425
0.33868
0.39926
0.27368
-0.22673
-0.25910
0.03409
-0.18803
-0.12860
-0.09303
-0.24419
-0.21784
-0.21177
-0.10935
0.22659
0.24203
0.09338
-0.18194
0.35136
0.13418
0.24001
0.01025
0.34646
-0.29687
0.21573
0.15900
-0.07726
0.15957
0.18825
-0.19742
0.24872
0.24407
0.10422
-0.09687
0.20573
-0.10219
-0.27675
0.20203
-0.00002
-0.03512
-0.05514
0.15911
-0.10135
0.16406
0.23367
0.04032
0.00136
0.05241
0.20901
-0.14343
-0.24053
0.13400
-0.16691
0.36236
-0.00390
0.01140
0.51659
-0.01400
-0.24243
-0.20385
-0.01069
0.30732
-0.19513
0.31214
-0.17192
0.11461
-0.26873
-0.08994
-0.18917
0.16911
0.08565
0.40963
-0.33911
0.26208
-0.07184
0.12908
-0.04008
0.04441
-0.24148
-0.34075
0.21228
-0.14760
0.00928
-0.04348
0.07326
0.32193
-0.23322
0.22161
-0.12385
0.00525
-0.02431
-0.23084
-0.27388
-0.07455
0.07647
-0.15814
-0.04752
-0.01407
0.16475
-0.21783
0.21687
-0.12472
0.17905
-0.19966
-0.18125
-0.09807
0.12771
-0.17202
0.11928
0.07614
-0.08042
-0.23335
-0.19441
0.13351
0.15545
0.07121
0.12971
0.04699
-0.09751
-0.12712
-0.21856
0.07314
0.24092
-0.05243
0.04306
0.05360
0.21447
-0.00696
0.03572
-0.09120
-0.11674
-0.20791
0.18133
-0.12005
0.13141
-0.10242
0.23164
0.02437
-0.08519
0.01642
0.03122
-0.00949
-0.01088
-0.14490
0.07536
-0.14566
0.07071
-0.17403
0.06637
-0.08673
-0.21282
0.07557
-0.17623
-0.12569
0.20326
-0.19107
-0.13515
-0.14062
-0.24899
-0.20839
0.01014
-0.21837
-0.17194
0.00334
0.22635
-0.16443
0.18040
-0.02080
0.04655
0.19157
-0.08484
-0.18422
-0.12365
0.01257
-0.07047
-0.24408
0.01261
-0.00856
-0.19356
-0.05145
0.16552
-0.08882
-0.25799
0.37382
0.02618
0.18353
-0.08966
0.22620
0.15178
-0.16728
-0.15824
-0.28533
0.18303
-0.28232
0.06657
-0.32220
0.11578
0.03016
-0.05452
0.10884
-0.02837
0.09318
-0.02430
0.41220
-0.02268
0.17153
0.01829
-0.10890
0.12599
-0.09198
0.36938
-0.23764
0.33317
0.18298
0.32243
-0.01618
0.08977
-0.13053
0.06277
0.20617
0.10574
-0.03365
-0.15015
-0.05354
0.12491
0.09673
0.19368
-0.10121
-0.31176
-0.31049
0.18677
0.23758
0.08844
-0.08787
0.15710
-0.11710
0.10025
0.02602
0.06783
-0.28440
-0.08004
0.04822
-0.26122
0.00331
-0.07941
0.23181
-0.05772
0.13814
0.11272
-0.13234
0.07241
-0.03684
-0.10488
0.05823
-0.16695
-0.17025
-0.11002
-0.02842
0.13764
0.21974
0.23126
0.15161
-0.09618
0.20197
-0.02507
0.05634
0.21086
0.05643
0.14231
0.12742
-0.23239
-0.23445
-0.24074
0.08992
-0.22425
-0.03286
0.20467
0.21158
-0.10022
0.09034
0.04948
0.05439
0.12534
-0.03558
0.16426
0.12737
-0.07106
0.21024
0.11772
0.17638
0.13502
0.22184
-0.08608
-0.04474
-0.06431
-0.12215
0.05019
-0.21350
-0.04305
0.20289
-0.13580
0.03970
0.04474
-0.11369
-0.15678
-0.24392
-0.05686
0.20129
0.06968
0.07831
-0.11783
0.20685
0.09269
0.17545
0.49891
0.01829
-0.11394
-0.05708
-0.05155
0.13011
-0.26201
0.25876
0.20351
0.03308
-0.09533
-0.16474
0.31801
-0.21692
-0.03703
0.12987
0.06851
0.01385
-0.14940
0.03034
0.18968
0.02536
-0.11720
-0.34511
0.41328
0.24801
0.31308
-0.11412
0.31655
0.00757
-0.14055
-0.29370
0.13833
0.04534
0.15186
-0.24135
0.14342
0.15304
-0.18327
0.52164
0.03822
-0.12247
-0.37340
-0.14337
-0.17678
-0.27271
-0.05005
0.01757
0.21109
0.26555
-0.24005
0.04980
-0.19928
-0.28462
0.33389
-0.31103
0.01063
-0.19359
-0.12983
0.02912
-0.12483
0.10822
0.13800
-0.04482
-0.20118
0.15106
-0.11188
0.02673
-0.21301
0.22738
0.07560
-0.01809
-0.20233
0.02008
0.06007
-0.27230
0.13182
-0.28884
0.16156
-0.03928
-0.08880
-0.12746
0.13569
0.40073
0.19321
-0.15228
-0.26643
-0.04525
0.24468
-0.18774
0.33171
0.23163
0.22118
-0.01459
0.02757
-0.21305
-0.17784
-0.27368
0.10416
-0.16537
0.07468
0.13103
0.27176
-0.24192
0.13846
-0.04522
0.32881
0.11042
-0.16394
0.17583
0.04882
0.01566
0.08376
0.11587
-0.24698
0.10666
-0.00888
0.00578
-0.16114
-0.37227
-0.00188
-0.15172
-0.14989
-0.12340
0.38772
0.03350
-0.33194
-0.39075
0.35520
-0.09910
-0.00235
-0.03803
0.06450
-0.30012
0.11693
-0.18930
0.07775
-0.29162
-0.07809
0.05836
0.22721
-0.28994
0.37243
-0.09694
-0.08928
-0.08273
0.00696
-0.20598
0.04766
0.39291
-0.06128
-0.10709
-0.00267
0.09143
-0.06110
-0.07374
0.07782
0.23596
0.18391
0.28218
0.11514
-0.17740
-0.07796
-0.24323
0.08294
0.17354
0.32778
-0.01977
-0.09286
-0.19588
0.28232
0.02544
0.04987
0.41656
0.12117
0.01326
-0.05653
0.02489
-0.19503
0.02165
-0.13956
0.39131
0.21513
0.03541
0.25877
0.27499
0.19576
-0.25120
0.20401
-0.16911
0.06925
-0.14999
0.34436
-0.10231
0.15322
-0.27262
0.21153
0.17049
0.15581
-0.27243
-0.11460
0.17451
-0.17140
-0.19959
-0.07612
0.28114
-0.00314
0.25367
-0.09333
0.08056
0.28177
0.06906
-0.24009
0.22943
0.31485
0.32676
0.16950
0.06445
0.01841
0.13806
0.14457
0.07034
-0.16462
0.10708
-0.03904
0.32077
0.11603
-0.23897
-0.23496
-0.30580
0.01524
0.34218
-0.21420
-0.15107
-0.19038
0.30836
0.18755
0.13972
0.14221
0.12954
0.18141
-0.25229
-0.16604
0.14165
0.24747
0.23107
-0.01324
0.05211
0.16173
0.07895
0.15027
0.30428
-0.29272
-0.12062
0.31539
0.30760
0.00103
0.29914
-0.10237
-0.00877
-0.13153
0.34872
0.09736
-0.13444
-0.43022
-0.04653
0.07646
-0.02763
-0.11559
0.37406
0.08028
0.06022
-0.02389
0.00691
-0.04061
-0.05872
-0.02906
-0.05937
0.03591
0.16909
0.19966
0.24323
0.09244
-0.07115
-0.10756
0.16844
-0.18566
-0.18333
-0.15460
0.19840
-0.06348
0.08132
0.06780
-0.07224
0.19047
0.42103
0.25011
0.12321
-0.00431
-0.06448
-0.33610
-0.25606
-0.05427
0.04297
0.13115
0.08750
-0.03667
-0.00043
0.12774
-0.30396
-0.34233
0.00646
0.18158
-0.08998
0.13360
0.07637
-0.04799
0.04921
0.10084
-0.16172
0.12247
-0.09808
-0.00777
0.48948
0.17235
0.18968
-0.08731
0.02685
-0.18352
-0.05017
-0.23762
-0.01088
-0.01453
0.30010
-0.26342
0.17637
0.07259
0.31425
0.17600
0.22828
-0.14675
-0.23865
0.10242
-0.20673
0.10788
0.28048
0.21680
-0.18815
-0.05238
0.00693
0.27176
-0.01457
0.21961
0.09996
0.18772
-0.15725
-0.10986
-0.02920
0.23279
0.29523
-0.08062
-0.14795
-0.12025
0.06318
0.17496
0.21593
-0.21883
-0.21203
-0.17133
0.30301
-0.01103
-0.22058
0.09904
0.09014
0.32004
0.20113
-0.21542
0.24613
-0.18404
-0.26746
-0.08340
0.45419
0.37240
0.11808
0.15961
0.49070
-0.22864
-0.13556
0.29612
-0.25759
-0.00452
0.45731
-0.58751
0.26725
0.20992
-0.16012
0.14419
0.09646
-0.02094
0.06735
0.15484
0.03043
-0.30868
-0.29973
0.04311
-0.07229
-0.18179
0.39749
-0.38329
-0.11713
-0.36258
-0.24033
-0.32709
0.30720
-0.27155
0.15122
0.14828
0.10527
0.20467
0.04780
0.05810
0.13905
-0.48837
0.06828
-0.19539
0.02457
0.17726
0.27349
0.33174
-0.15430
0.06942
0.08510
0.10802
0.09135
0.07171
-0.19338
-0.15056
-0.01781
0.08906
0.10249
0.33274
-0.11921
0.33518
0.08889
0.23124
-0.08124
-0.01050
0.09221
-0.08027
0.04339
-0.14190
-0.13688
-0.10419
0.25825
-0.26610
0.18995
0.15619
0.07769
-0.10316
0.10472
0.00661
-0.14264
-0.11515
-0.03926
-0.13290
0.15012
0.28003
-0.14071
0.25168
0.20398
-0.17422
-0.29688
-0.03958
-0.03862
-0.13249
-0.21469
-0.27602
0.03919
0.12707
-0.05430
0.24494
-0.22013
0.18252
-0.00188
0.11889
0.13867
-0.26820
0.30806
0.20282
-0.19621
-0.12841
-0.01665
-0.04658
0.08464
0.09788
0.03488
-0.10503
0.10451
0.13622
-0.14937
-0.18661
0.13755
-0.05007
0.02478
-0.26246
0.15328
0.32183
0.10120
-0.09990
-0.10239
-0.25524
-0.20143
-0.01570
-0.05609
0.10815
-0.06301
0.22802
-0.01447
-0.31815
0.09409
0.44882
-0.06022
-0.19486
-0.03839
0.25992
-0.07497
-0.17679
-0.31306
-0.12837
-0.22389
0.02600
-0.00862
0.00343
-0.22549
-0.22862
-0.06941
0.38247
0.05342
0.13908
-0.08209
0.10006
-0.26212
0.12186
-0.13701
-0.27513
-0.21802
0.09961
-0.18505
-0.10929
-0.22480
0.18792
-0.14793
0.18093
0.22461
0.44419
-0.06748
0.20444
-0.12730
-0.13808
0.25563
-0.03365
0.11302
-0.23891
-0.04389
-0.20988
0.16661
0.21868
0.26253
-0.06916
0.18401
-0.31617
0.27172
0.14768
0.09805
0.22949
0.18594
-0.09439
-0.20024
0.16087
-0.26738
0.23538
-0.27957
0.12902
0.10813
0.43325
0.16344
-0.07655
0.30672
-0.28659
0.19752
-0.18639
0.29918
0.59413
0.01908
-0.20454
-0.28332
0.17447
0.46832
-0.08920
-0.03909
0.01624
0.01694
-0.34068
0.03427
0.12181
0.38492
-0.00274
0.22826
-0.17701
0.02630
0.41672
-0.06407
-0.20259
0.22706
0.09587
0.37681
-0.07993
0.18801
-0.26365
-0.19703
-0.53606
0.03930
-0.07304
-0.16681
-0.21039
0.13091
0.08976
0.01829
-0.06274
-0.08364
-0.23306
0.23396
0.09362
-0.29202
0.26613
0.07635
0.03593
0.20044
0.19107
0.18100
0.16958
0.06584
0.10151
0.20356
-0.05172
-0.20579
0.10058
-0.21537
0.12614
0.21038
0.11298
0.08204
0.14905
0.11732
-0.19791
-0.12011
-0.18051
-0.13344
-0.19195
-0.02559
0.14327
0.19991
-0.04915
-0.00851
-0.17285
0.13900
0.19010
0.13459
-0.19527
0.20895
-0.27033
0.03745
-0.01806
0.18369
0.03716
0.18838
-0.01079
-0.28259
0.06913
-0.24290
-0.15697
-0.18454
0.06037
-0.26258
-0.08030
-0.19831
0.10564
-0.22384
0.29846
-0.11821
0.17388
0.20745
0.23433
-0.10762
0.17484
0.04232
-0.19582
0.08812
0.33612
0.08364
-0.16360
-0.37157
-0.21326
0.02897
-0.48289
-0.13670
-0.02873
0.44987
0.23333
0.02431
0.23275
0.06678
0.12268
0.27723
-0.02586
0.06592
-0.09457
0.56771
-0.21534
0.01218
-0.07383
0.27587
-0.10946
0.17303
-0.09892
0.19480
0.14197
-0.14597
-0.15037
-0.13797
0.16110
-0.35214
0.04397
-0.35065
0.28254
0.04786
0.12392
-0.11056
-0.28259
-0.09905
-0.11772
-0.05738
0.01137
-0.02777
-0.12900
-0.12219
-0.15880
0.05847
-0.04725
0.19844
0.14077
-0.03866
-0.16932
0.23042
0.09655
-0.14119
0.12751
-0.08420
-0.29764
0.23588
0.01480
0.18580
-0.23573
0.29456
-0.15434
-0.53257
-0.19003
-0.04932
0.01206
-0.38023
-0.14076
0.44217
0.16853
0.29858
0.27261
-0.05246
0.08490
0.06241
-0.22842
-0.18709
-0.07702
-0.00696
-0.15055
-0.13186
0.28969
-0.20901
0.16177
0.07731
-0.13790
-0.16956
-0.13314
-0.33727
0.01221
0.09430
-0.18766
0.22439
-0.16667
0.26832
0.04342
0.05572
0.16334
-0.07448
-0.13609
0.14901
0.01101
0.04896
0.18485
0.43452
0.16626
-0.19981
-0.15052
0.39640
0.19743
0.09550
-0.18432
-0.21825
-0.00407
-0.08700
-0.02394
-0.03069
-0.20152
-0.10931
-0.27998
-0.17702
0.00157
0.09408
-0.02438
0.08391
0.30943
0.46047
0.31943
-0.25858
0.20269
-0.10455
-0.22094
0.32240
-0.36920
0.28031
-0.10906
0.02814
0.28300
-0.16331
0.13981
0.47636
0.06896
0.09792
0.52917
0.01722
-0.16626
0.08899
0.29528
0.33023
-0.09673
0.17798
0.12147
0.24396
0.03145
-0.07848
0.00132
0.27447
0.23046
-0.05381
0.04138
-0.18378
-0.00748
-0.21904
0.25042
-0.19178
-0.14530
0.20343
0.11151
-0.19368
-0.07284
0.18804
0.17923
0.02906
0.14495
0.32057
-0.10214
0.05175
-0.04554
-0.10970
-0.14656
-0.08979
-0.03262
0.01716
0.44889
-0.05819
-0.04636
0.07544
0.17358
-0.04317
-0.14625
0.21633
-0.04335
0.07795
-0.04216
0.13468
-0.07183
-0.27108
0.19241
0.06797
-0.04652
-0.08854
0.41463
-0.19656
0.06521
-0.20881
-0.35416
-0.31801
0.30132
0.00366
0.04517
-0.05214
-0.16399
0.02271
-0.17250
0.28391
-0.02397
-0.13398
-0.10190
-0.17461
0.00613
0.39643
-0.26358
0.35031
0.05962
-0.16619
0.27757
-0.00155
0.32871
-0.08426
0.14121
-0.04057
-0.32919
-0.02903
-0.18159
-0.02686
0.05517
-0.13232
-0.06630
0.02474
-0.01758
-0.01042
0.27214
0.10402
0.08266
-0.02323
-0.02995
-0.01475
-0.17922
-0.09477
-0.24355
0.14047
-0.25533
-0.12533
-0.09092
-0.21916
-0.22655
0.13299
0.14017
0.09319
0.12544
0.31464
0.42282
0.07621
-0.06850
-0.14902
0.34346
-0.13388
-0.09896
0.04116
0.22888
-0.04983
0.19866
-0.19571
0.20400
-0.13132
0.05495
-0.12508
0.05724
-0.00495
-0.07933
0.29404
-0.29299
-0.08993
0.25692
-0.32334
0.09097
-0.22880
-0.11487
0.27613
-0.29742
-0.03301
-0.11216
0.20172
-0.06832
0.09611
-0.19507
-0.23735
-0.08554
0.04701
0.04085
0.13565
0.21981
0.29926
0.11907
0.17579
-0.25393
-0.22843
0.09818
0.02763
-0.20563
-0.08412
-0.30701
0.39812
-0.30790
0.24397
-0.14430
0.09977
0.01462
-0.34398
0.11712
0.26941
0.22657
-0.29940
0.12211
0.06220
0.41770
-0.23907
0.02528
-0.16012
-0.19794
-0.12948
0.00764
0.25781
0.16298
-0.19926
-0.03370
-0.29573
0.00005
0.31606
-0.00383
-0.24362
-0.03424
0.30932
0.11491
-0.17614
0.28028
-0.07851
0.11546
-0.07166
-0.10292
-0.06869
0.21665
-0.03303
-0.16941
-0.03464
-0.18092
0.11359
-0.06704
0.12321
0.07844
-0.07411
-0.09745
-0.18316
0.20200
-0.09051
0.31447
0.21396
-0.13481
-0.06305
-0.24959
0.20070
-0.18275
-0.10282
0.00893
0.07346
0.24297
-0.13996
0.03615
-0.18198
0.31346
0.15730
-0.33685
-0.20481
-0.04069
0.16591
0.23729
0.13563
0.08265
0.04395
-0.14058
0.19763
-0.23162
0.31910
-0.12629
0.19144
-0.23715
-0.18531
-0.14197
-0.13424
-0.00489
0.23881
0.26339
-0.17864
-0.21017
0.10022
-0.20869
0.25906
-0.09469
-0.00507
0.32866
0.19515
0.30981
-0.23207
0.24388
0.12348
-0.17326
0.18643
0.08407
-0.26766
-0.32994
0.13817
0.09348
0.27554
-0.01569
0.45491
0.14106
0.24970
-0.01982
0.26367
-0.14247
-0.36792
0.00620
0.10996
0.26660
-0.23424
-0.23221
0.16393
0.10716
-0.12535
0.02878
-0.26996
-0.06184
-0.27111
-0.04139
0.28331
0.24850
0.02308
0.11848
0.01447
-0.15915
0.04178
-0.12307
-0.06164
0.17343
0.13333
-0.21027
-0.23967
0.24335
0.29367
0.07270
-0.01305
-0.02488
0.11609
-0.20975
-0.21067
0.21178
-0.05729
-0.05299
0.18956
-0.24453
-0.03759
-0.28585
-0.07507
-0.11805
0.11413
-0.03026
0.19301
0.12498
-0.08617
0.09136
0.02303
-0.17795
0.17476
0.10740
-0.03002
-0.16858
0.04878
-0.19156
0.03926
-0.11539
-0.10346
-0.13700
0.06224
0.10161
-0.04810
0.22280
-0.22055
0.04924
0.15197
-0.09956
0.03450
0.08820
-0.20361
-0.35278
0.13589
0.05528
0.18620
0.01441
-0.00497
-0.04257
-0.02907
-0.18450
-0.28524
-0.21589
-0.00462
-0.22654
-0.02731
-0.24172
0.18626
0.26625
-0.12531
0.32086
0.11531
0.20918
0.19136
-0.19855
0.25074
0.17052
0.04769
-0.05717
0.28385
-0.05022
0.24192
-0.08027
-0.23216
0.04053
0.10615
-0.19206
0.25034
0.02001
-0.20531
0.12411
-0.32215
-0.00708
-0.13764
0.09863
-0.10514
-0.00021
-0.14687
-0.20794
0.19530
-0.17869
0.09618
-0.00853
-0.23708
-0.27322
0.21388
-0.27488
-0.20379
0.11541
0.08257
-0.07745
0.10320
-0.09860
0.05174
0.07224
0.22668
-0.19010
-0.03399
-0.20505
0.02345
-0.17739
-0.08168
0.25527
-0.04276
-0.29769
0.14079
-0.26577
0.32748
-0.03570
-0.21418
0.46496
-0.43601
0.18345
-0.01237
0.22002
0.35613
-0.15687
-0.03285
-0.17446
0.17877
0.17465
-0.13576
0.20291
-0.33510
-0.27705
0.42540
-0.21909
-0.24547
0.15882
0.46231
-0.04564
-0.18133
-0.13161
0.20153
0.16849
0.23279
-0.05054
-0.01700
0.17570
0.26443
-0.14743
-0.07312
0.15199
0.18538
0.20481
-0.23089
-0.16905
-0.13104
0.68866
0.27395
0.26616
-0.34496
0.10053
-0.07841
-0.36955
-0.04265
-0.11943
-0.14023
0.12770
-0.19725
0.04410
0.06889
0.41078
-0.02621
-0.33952
0.12040
0.02098
0.20854
0.34307
0.06487
-0.38728
0.22424
-0.13511
0.01995
0.25931
-0.35093
0.28090
-0.43994
0.12017
0.10821
-0.21058
-0.04958
-0.06534
-0.16055
-0.27702
-0.18147
0.35467
0.37467
-0.03402
-0.19445
0.19292
0.03283
0.08765
0.14643
0.28040
-0.13530
0.23004
0.36974
0.04192
0.01240
0.01583
0.29100
-0.06105
0.24492
-0.27557
-0.09176
-0.08298
-0.18604
0.19663
0.05911
-0.22183
0.10965
0.33727
-0.21002
0.11631
-0.08561
-0.03720
0.14473
0.00495
-0.22826
-0.11415
-0.02561
-0.01415
0.07322
-0.16461
0.12243
0.20437
0.35348
-0.00409
-0.10737
-0.13363
0.13475
-0.08969
0.00319
-0.22757
0.24248
0.06584
0.22098
-0.28882
0.37353
-0.12075
0.21455
-0.05422
0.07032
-0.15558
0.40884
0.15361
0.28112
0.18763
0.22684
-0.25031
-0.22419
0.00002
0.23438
-0.07941
0.02570
0.21683
0.25406
-0.24135
-0.08467
-0.05592
0.07357
-0.17284
-0.03295
-0.03113
0.28310
0.24574
0.06580
-0.29423
-0.22742
0.06420
-0.28290
0.12189
0.25971
-0.17546
-0.16354
-0.04729
0.17598
0.29109
0.46103
-0.28116
-0.28453
0.07790
0.07296
0.12015
-0.18189
0.12320
-0.01555
-0.43648
0.48366
-0.08549
0.04971
0.22106
0.28404
0.22232
0.37971
0.45527
-0.03395
0.17588
-0.16252
-0.00561
0.00276
-0.13261
0.07137
0.18459
-0.24541
-0.27770
-0.23631
0.16925
0.09114
0.00111
0.09650
0.21128
-0.19161
0.17262
-0.22275
-0.19276
0.29668
-0.15182
-0.31043
0.30949
0.29660
0.10012
0.12793
-0.25011
0.35030
0.09492
-0.09816
-0.27807
-0.29901
0.09071
-0.16156
-0.21510
-0.15521
-0.08744
-0.06868
0.20361
0.19244
-0.22273
0.04207
-0.12669
-0.22920
-0.07996
0.06575
0.01953
0.22437
-0.03338
0.02071
0.07538
-0.16612
-0.01196
0.19388
0.30454
-0.19557
-0.06079
-0.16568
-0.13501
0.32627
0.23193
-0.27131
0.13085
-0.19226
-0.14478
0.24758
-0.10358
0.01702
0.23571
0.13916
0.19869
0.08709
0.45665
0.13992
0.11227
0.28556
-0.28209
0.21020
0.01543
0.10038
0.05433
0.18099
0.09589
-0.10559
-0.02569
-0.04020
-0.22753
-0.34519
0.01691
-0.05045
-0.24557
0.35775
-0.27127
0.27509
0.08367
-0.15904
-0.17691
-0.08317
-0.02662
-0.03856
0.20364
-0.00691
0.19980
0.17100
-0.07998
-0.14973
-0.25942
-0.21852
-0.27027
0.09713
0.04287
-0.01249
0.09129
0.31638
-0.08104
0.06848
-0.08605
-0.08165
0.15754
-0.12160
0.07416
-0.23614
0.33859
-0.04532
-0.02081
0.17176
0.09552
-0.04080
0.12092
0.03214
-0.00468
0.03204
-0.15919
0.15015
-0.04446
0.04693
0.02447
-0.02220
-0.00011
0.02737
-0.01013
-0.08850
0.07874
0.08604
0.02190
-0.03821
-0.00560
0.06021
0.00151
0.17414
-0.02291
-0.00020
0.02783
-0.00775
0.03036
0.15709
-0.03112
0.19786
-0.01956
0.01142
0.04337
0.00829
-0.00187
0.00000
-0.02099
0.03227
0.03330
0.06032
0.00268
0.00000
-0.00102
0.00749
0.01587
0.01982
-0.04969
-0.00553
-0.00740
-0.00467
-0.00023
-0.07821
-0.00036
0.02979
0.12198
-0.04287
0.10286
-0.00883
0.09500
-0.21256
-0.29672
0.39000
0.29432
0.27346
0.05064
0.09908
-0.12879
-0.12072
-0.20504
-0.00484
-0.02698
-0.34086
-0.38351
0.35913
0.11510
0.20879
0.00133
-0.14360
-0.10572
0.18538
-0.17648
-0.08707
-0.32078
-0.04676
-0.07880
-0.24497
0.04340
-0.07314
-0.01351
0.24188
-0.10301
-0.03799
0.28626
-0.30704
-0.41891
0.05012
-0.26733
0.28803
-0.01790
-0.17640
-0.15476
0.10822
0.27185
0.15198
-0.22019
0.12684
0.11479
0.11375
0.04667
0.17023
-0.18368
0.12270
0.30651
-0.19899
-0.40090
0.41658
0.35675
-0.36404
0.02620
0.12368
-0.10328
0.14207
-0.14427
-0.43007
0.03026
-0.22176
0.11344
-0.33062
0.23505
0.09926
-0.21155
-0.49812
0.30482
0.06362
0.17766
0.07058
0.49197
-0.17574
-0.00732
0.10071
-0.02757
0.29573
0.38654
-0.11134
0.21146
0.23214
0.15472
-0.31208
-0.13370
-0.45937
-0.37465
-0.20545
0.49670
-0.09280
0.03681
0.14214
0.29805
-0.18648
0.02593
-0.40384
0.01155
0.24189
0.22428
-0.20503
-0.16071
-0.13823
0.20228
-0.08472
-0.12149
0.01453
-0.06716
0.29888
-0.02581
0.09388
0.36867
0.15941
0.16482
-0.28166
-0.09386
-0.09820
-0.27629
0.17965
0.10195
0.12285
0.06117
-0.11762
-0.20911
-0.03009
0.37616
0.54691
0.57066
0.23446
-0.04866
0.13550
-0.09741
-0.00032
0.08717
0.20625
-0.08609
-0.08184
0.17962
-0.11014
-0.20922
-0.40085
-0.17698
-0.21402
0.30535
-0.04601
-0.07026
-0.43817
-0.36811
0.26726
-0.25480
0.06295
-0.12678
0.11460
0.24940
-0.38174
-0.22466
-0.01273
0.05168
-0.25553
-0.36364
0.10340
-0.09238
0.17163
0.22343
-0.18326
-0.06778
-0.18951
0.08051
0.08282
-0.37302
0.11275
0.06799
-0.26207
0.40110
-0.34161
0.39672
0.07256
0.41709
-0.11025
0.25536
-0.07599
0.03862
0.19663
-0.10503
0.03111
0.15889
-0.04248
-0.04412
0.16308
0.07213
-0.10304
-0.18770
0.22640
-0.13392
0.03423
0.25286
-0.01388
-0.20659
-0.21878
0.16099
0.02341
-0.22700
-0.14913
-0.18274
0.12520
-0.03639
-0.02308
0.43872
-0.03985
0.02920
-0.05234
0.22412
-0.15443
0.19046
-0.29178
-0.04697
-0.16277
0.34393
0.29961
-0.01339
0.35560
0.12907
0.08511
0.01330
0.52533
0.10021
0.06725
-0.45293
-0.38880
-0.26243
-0.36305
0.29525
-0.07116
0.41715
-0.10563
-0.10641
0.08143
0.33276
-0.24863
-0.30822
0.25704
0.22333
0.06727
0.03346
0.08959
-0.48489
0.08222
-0.05663
0.25633
0.29903
0.30871
0.33426
-0.52579
0.35592
0.26742
-0.18884
0.28374
-0.25333
0.39336
0.21395
-0.10932
0.21288
-0.02856
-0.32922
0.06918
0.33794
-0.30266
-0.01515
0.00944
-0.30830
-0.16100
0.26292
-0.09530
0.25512
0.18034
0.30438
0.28125
0.03451
0.23966
-0.38777
-0.45203
0.10948
-0.27446
0.09391
0.31445
-0.22846
-0.27196
-0.28843
-0.29154
0.12295
0.10652
-0.03898
-0.03229
-0.04580
-0.03099
0.10764
0.16871
0.14404
0.31237
0.20847
-0.03247
-0.11880
-0.12283
0.15696
-0.11572
0.34103
0.24255
-0.08280
0.39239
-0.06652
-0.22501
-0.07885
0.05912
-0.07023
-0.09591
0.05681
0.53422
0.44501
0.01766
0.02847
-0.03970
0.08856
-0.12913
-0.06947
-0.26922
-0.04489
0.23465
0.18828
-0.16506
-0.22034
-0.30522
-0.21839
-0.13139
-0.12327
0.16095
-0.08111
0.14767
-0.09374
-0.13024
0.02352
0.76426
-0.24837
-0.37469
-0.32620
-0.00961
-0.12691
0.31924
0.12598
0.31752
-0.25284
0.18909
-0.33246
0.38944
-0.59209
0.00388
0.36122
-0.02179
0.08628
-0.56024
-0.38941
-0.17125
-0.27218
-0.16819
0.18441
-0.07650
-0.23683
0.00276
-0.33345
0.29612
0.21455
-0.15817
0.32642
-0.05979
-0.11953
-0.15694
-0.21264
-0.24674
-0.06022
0.01561
0.11091
-0.09949
-0.16672
-0.26022
0.35682
0.08181
-0.26462
0.21775
0.00712
0.23306
-0.00071
-0.02646
-0.07358
-0.09738
0.15331
-0.11567
-0.08821
0.25572
0.24529
-0.19416
-0.17612
-0.19092
0.21784
-0.07845
-0.16242
-0.25477
-0.16118
0.21993
-0.16336
-0.12095
-0.16323
-0.15158
0.21350
-0.27169
-0.01186
-0.09952
0.17936
0.12806
-0.19516
0.14540
0.03909
-0.24483
-0.24787
-0.06165
-0.49480
-0.15437
0.14113
0.05207
0.31960
0.06052
0.28600
0.13939
0.13139
-0.18075
0.39612
0.21155
-0.36689
-0.09199
-0.22655
0.24058
0.12885
0.14354
0.10883
-0.07065
-0.23332
0.10273
0.06787
-0.02499
-0.15814
0.14559
-0.12887
0.35367
0.10958
-0.11803
0.08428
-0.26351
0.26773
-0.15674
0.08298
0.11084
-0.05089
-0.00784
-0.21335
-0.12734
-0.34043
-0.26230
-0.31630
0.05970
0.30364
-0.18688
0.01435
0.05175
-0.24748
0.20285
0.39920
-0.15852
-0.10442
-0.53652
0.29693
0.16860
0.17380
-0.02839
0.21960
-0.15983
0.19840
0.16298
0.24200
-0.32436
0.05013
0.24189
0.07331
0.05069
0.17594
-0.07076
-0.33554
-0.16601
0.28407
-0.07125
-0.32954
-0.29398
-0.10316
0.20007
-0.23035
0.10419
-0.27825
0.08167
0.13197
0.11589
-0.01294
0.29389
0.06301
-0.25419
-0.03463
0.49078
0.09564
-0.18794
-0.21405
0.08678
-0.06479
0.27350
0.02811
-0.13522
0.02269
-0.29898
-0.14268
0.17379
0.37594
0.13631
-0.21525
0.16209
0.11080
0.02469
-0.19398
-0.27956
-0.16420
0.04304
0.13511
0.15857
-0.12662
-0.15386
0.01158
-0.14835
0.38067
-0.30328
-0.07755
0.29174
-0.12458
0.09780
-0.00152
0.03889
-0.10497
-0.17079
-0.15253
0.10090
0.06482
0.04932
-0.48363
0.40784
-0.41088
-0.21359
0.00938
0.33831
0.03695
-0.00630
-0.25648
0.06317
-0.00481
0.12513
0.15664
-0.07000
0.08806
-0.06305
0.38528
-0.01936
0.09203
0.11027
0.07855
-0.24750
-0.08525
-0.20039
-0.22126
-0.03540
0.29528
-0.07244
0.40860
0.06336
-0.10359
-0.06120
0.25878
-0.22509
-0.03700
-0.31718
0.20897
-0.24531
0.32238
-0.16118
-0.15549
0.14732
0.10572
-0.17609
0.08169
0.20803
-0.29519
-0.16310
-0.10581
-0.01897
0.21422
0.10541
0.02193
-0.31587
-0.02133
0.01485
0.17217
-0.02708
-0.11629
-0.12956
-0.17181
0.22345
0.19097
0.19530
0.22062
-0.07474
-0.39149
0.09847
0.08409
0.23663
0.42296
-0.15489
-0.17038
0.03985
0.18184
0.39024
0.12898
-0.12479
0.30345
0.00372
0.07573
-0.02475
0.18279
-0.24768
0.11565
0.35222
0.03355
0.28381
0.14035
-0.34354
-0.23207
0.16594
-0.08899
-0.15038
0.19382
-0.12583
0.19396
0.13474
0.12840
0.02274
0.16426
0.06609
-0.18215
-0.04866
0.09761
-0.06621
-0.07516
-0.19808
-0.11805
0.23929
-0.02072
0.25158
-0.04598
-0.23194
-0.06425
-0.13896
0.19349
-0.11177
0.18897
0.10646
-0.07863
-0.26965
-0.12449
0.35706
-0.22746
0.06396
0.19161
-0.09768
-0.10906
0.28509
-0.15115
-0.10752
-0.25846
-0.02188
0.08311
0.37023
0.19088
-0.58567
-0.29429
0.21652
-0.02845
-0.04762
0.22879
-0.14238
-0.09744
-0.23836
0.01433
-0.19181
-0.06163
-0.25043
-0.11569
-0.14144
-0.04678
-0.18138
0.14119
-0.15744
0.25715
-0.24294
0.22213
0.04277
0.26278
-0.11229
-0.05411
-0.05219
-0.17520
0.06647
0.16857
0.06877
0.13338
-0.02847
0.01220
-0.18426
-0.17953
0.02244
-0.01522
-0.27026
0.12345
0.13027
-0.15419
0.26321
-0.12418
-0.15301
-0.06160
-0.19875
-0.06368
-0.07834
-0.00369
-0.27751
0.18282
-0.33830
0.49729
0.32559
0.38261
0.45346
-0.06498
0.32642
0.10678
0.13577
-0.04941
0.18474
0.19762
0.26319
-0.01442
-0.07185
-0.05059
0.06072
0.51294
0.02266
0.07769
0.09877
0.15165
0.04658
-0.10988
-0.44908
-0.29625
-0.29515
-0.39207
-0.34627
-0.35885
0.08125
-0.19293
0.25990
-0.16217
0.29494
0.17990
-0.21947
-0.01661
-0.17618
0.02375
-0.03296
0.28825
-0.10963
0.08326
-0.20692
0.17238
0.13516
-0.17953
-0.02461
0.04911
0.01787
-0.09107
-0.19969
0.13669
-0.12146
0.19924
-0.00971
-0.24225
0.32533
0.10095
0.25656
0.13018
0.06038
-0.10510
0.04265
-0.11703
-0.08053
0.10332
0.03339
0.33469
0.21048
0.42069
0.22903
0.25536
-0.39546
-0.08648
-0.41802
-0.15125
0.11344
0.06075
-0.15034
0.05738
-0.42159
-0.07248
-0.35794
-0.22777
0.24492
-0.22230
0.46534
0.29122
-0.03762
0.16406
-0.22656
-0.17451
0.17370
0.00139
0.04747
-0.54603
-0.14530
0.15549
0.17301
-0.25852
-0.13350
-0.28383
0.15118
0.23720
-0.04558
0.08187
-0.25142
0.27026
0.09032
0.12208
0.12139
-0.01928
0.15063
-0.07288
-0.12869
-0.05494
0.07574
-0.27537
0.16067
0.40929
-0.07324
0.12094
0.04963
0.09012
-0.35278
-0.03236
-0.08606
-0.30948
-0.36095
0.15157
0.08463
-0.21794
-0.18624
-0.36794
-0.00655
0.10040
0.29038
-0.26883
0.06833
0.23191
0.12959
0.11254
0.15576
0.07644
0.02632
-0.01796
-0.09837
-0.42184
-0.22265
0.09719
-0.08709
0.08333
0.40374
0.01034
0.06651
-0.20171
-0.38808
0.13659
0.27581
0.48341
0.24231
-0.10144
-0.13138
0.20612
-0.07157
0.11721
0.02296
0.16035
-0.16967
0.11761
-0.25330
-0.00021
0.16094
0.07863
0.12125
-0.26152
0.26251
-0.23440
-0.03358
0.17003
-0.00506
-0.37597
0.13202
-0.02054
0.21852
-0.08540
-0.02431
-0.03265
-0.19504
0.04631
-0.29513
-0.20271
0.14763
0.11515
0.10255
0.01586
-0.19601
-0.31613
0.37251
0.10642
0.08034
0.08978
0.06345
-0.29467
-0.08223
0.20294
-0.08986
0.09938
0.09215
0.09418
0.34304
0.07036
0.13094
-0.14802
-0.20245
-0.17385
0.00594
0.11449
-0.18910
-0.13120
-0.01663
0.27572
0.00623
-0.02483
-0.24786
0.13370
0.10100
0.21860
0.27690
-0.02270
-0.00074
0.11019
0.11627
-0.25722
0.07562
0.29574
-0.30459
0.04223
0.08488
-0.23921
0.13771
0.11323
-0.26542
-0.07816
-0.19246
0.01864
0.03419
-0.11682
-0.28546
0.13163
0.04548
0.09654
0.13974
0.23171
0.02483
0.13060
0.05491
0.01869
0.04041
-0.23567
0.22151
0.38857
0.14046
0.06467
-0.07245
0.22617
-0.12610
-0.08553
0.22458
0.01206
0.16081
0.22032
-0.20209
0.06427
-0.37893
-0.29754
0.18475
-0.15787
-0.16424
0.13213
0.06820
0.03779
0.44540
-0.08750
0.20278
-0.13649
-0.03669
0.17282
0.04062
-0.22856
0.10512
0.14172
-0.22343
-0.10765
-0.13961
-0.21030
-0.20155
0.00774
-0.11124
-0.02121
0.09276
0.04422
-0.15260
-0.05071
0.05121
0.23187
0.17982
0.01996
-0.20745
0.04056
0.05410
-0.11679
0.22559
0.20640
0.09920
0.10650
-0.03734
0.19446
0.22390
-0.06300
-0.07813
0.13505
-0.15113
-0.01736
0.03236
-0.01964
0.07241
0.00018
0.20395
0.16155
-0.04953
0.17110
-0.08949
0.16472
0.18339
-0.28613
-0.17840
-0.23018
-0.07334
-0.12396
-0.13214
-0.06180
0.36023
-0.05606
-0.22442
-0.13898
0.10359
-0.12158
0.24138
-0.07589
0.18342
-0.16989
0.20465
-0.04350
-0.08399
-0.11875
0.12122
-0.23983
0.05191
0.01715
0.27225
-0.06697
-0.28749
-0.31899
-0.03128
-0.06172
0.12886
-0.26217
-0.32035
0.04535
0.32214
-0.04296
-0.00335
-0.04355
0.18544
0.04594
-0.35570
-0.00130
0.24586
0.13319
0.30497
0.19606
0.15041
0.04744
0.30532
0.08883
-0.32755
-0.36342
0.25938
-0.24534
0.40124
-0.25802
0.28689
0.03058
0.27991
0.24049
0.25100
0.00136
0.02255
0.26438
0.23983
-0.32991
0.35731
0.32075
-0.12296
0.22195
-0.54337
-0.33154
0.39574
0.01936
0.38547
0.26089
-0.05828
0.42337
-0.29645
-0.04213
-0.49043
0.04492
-0.07610
0.13672
-0.12901
0.04007
0.23934
0.09101
-0.16282
-0.02553
0.18994
0.14892
-0.08060
-0.13889
-0.09538
0.03770
0.10242
0.14240
0.06192
-0.07825
-0.01790
0.12831
0.18864
-0.06535
-0.12863
0.03244
0.21599
-0.19555
0.04386
0.12704
0.15430
0.16833
0.25298
0.24194
-0.18947
0.17420
0.10059
-0.14448
-0.08335
0.01866
0.19187
-0.03870
-0.07266
0.19225
0.20725
-0.08934
-0.06480
-0.23732
0.25648
-0.02770
-0.15848
-0.11419
-0.00511
-0.02640
-0.19682
-0.09389
-0.14404
-0.27379
-0.31084
0.01876
0.12552
0.19368
-0.52877
0.42415
-0.19748
0.13188
0.50032
-0.04375
0.41687
0.16146
-0.03864
-0.10054
0.00026
-0.28318
0.00305
-0.08596
0.22957
0.15527
-0.05467
0.15517
0.43527
-0.27381
0.22176
-0.27514
-0.03789
-0.28641
-0.14081
-0.31722
-0.28815
0.14670
0.30042
0.06748
0.03925
0.18107
0.18684
0.15333
-0.09620
-0.28236
-0.13138
0.22153
0.17902
0.29102
0.07267
-0.17597
-0.07370
0.27525
-0.01305
-0.23205
0.05734
0.13591
-0.23920
0.13274
-0.11189
-0.09520
-0.44139
0.37511
-0.05068
-0.29663
0.35044
-0.11255
0.23210
0.06777
-0.07166
0.11135
0.00709
0.31558
-0.51318
0.05651
0.41732
0.06701
-0.06556
0.03450
-0.18335
-0.10180
-0.25702
0.45168
0.03240
-0.14355
-0.26371
-0.25289
0.06304
0.08398
-0.21283
-0.18117
-0.16237
-0.34184
0.08924
0.30560
0.10345
0.14215
0.40754
0.04782
-0.20292
-0.12667
0.15607
0.13447
0.51152
-0.32129
-0.15482
-0.00995
0.20047
-0.14082
0.07916
0.02638
0.15657
0.12174
-0.14732
-0.05346
-0.07930
-0.07473
-0.22006
0.25051
0.22884
-0.12124
0.08849
0.06793
0.03517
0.04752
-0.20944
-0.23526
-0.10765
0.18046
-0.18633
0.07526
-0.07393
-0.14547
0.27848
-0.16909
-0.10313
-0.10432
-0.23277
-0.09573
0.12017
-0.05133
-0.06660
0.21236
0.23906
0.04240
0.21201
0.15898
0.02152
-0.24575
0.20263
-0.03289
0.24446
0.25447
0.24297
-0.16232
-0.18016
0.02162
-0.07664
-0.17899
0.11801
0.29017
-0.16166
-0.03555
0.32330
-0.12156
-0.24503
-0.00898
-0.10761
0.32583
-0.08408
0.04976
-0.14502
0.14591
0.00996
-0.14168
-0.07911
-0.14848
-0.28794
0.04664
-0.27311
-0.04145
0.11864
-0.29288
-0.30987
0.33612
-0.23793
0.12878
-0.27992
0.35553
0.02459
0.20618
0.24222
-0.10010
-0.09691
0.26321
-0.22114
0.19221
-0.19284
-0.28102
0.03399
-0.03267
0.09011
-0.18103
0.16804
0.16091
-0.10375
-0.20899
0.14035
0.03628
-0.38257
-0.17470
0.04703
-0.01788
-0.21485
-0.19758
0.11528
0.15406
-0.02099
0.09888
0.19925
-0.11455
0.02664
-0.21513
0.04066
-0.10240
-0.12741
0.20576
0.21454
-0.20916
-0.04822
0.24027
0.20033
0.14751
-0.12685
0.10697
-0.08139
0.07972
0.22233
-0.07168
-0.17744
0.25489
-0.24437
0.04640
0.03212
0.24939
-0.00023
-0.01100
-0.05412
-0.10519
0.00008
0.00370
0.23337
0.23420
-0.01541
-0.14733
-0.19905
-0.16122
-0.22866
-0.07904
0.07015
-0.18483
0.19321
0.15019
0.24604
0.07370
-0.23348
-0.20812
0.19067
-0.17583
0.14319
-0.20848
0.10537
-0.00009
-0.15856
0.22860
0.21921
-0.09558
0.23742
0.23366
-0.18645
0.04335
-0.18487
-0.07300
-0.25329
-0.03849
0.12449
0.03600
0.02214
0.21172
-0.20861
-0.14345
0.22905
-0.07725
-0.19272
-0.07255
-0.19845
0.26348
0.23858
-0.25401
-0.05449
0.10197
0.28047
0.08382
-0.01663
-0.21572
-0.07153
0.03254
-0.05957
-0.12014
-0.14723
0.05539
0.32854
0.16068
-0.11625
0.22521
0.45497
0.26297
-0.32032
-0.12542
0.35493
0.44952
-0.02738
0.17547
-0.33827
0.17037
0.19551
-0.01304
0.04461
0.19317
-0.37841
-0.05722
0.02695
0.28137
0.09791
-0.26858
-0.06641
-0.34167
-0.00929
-0.38561
-0.02603
-0.33196
-0.30911
0.12013
-0.29189
0.12873
-0.35430
-0.09454
-0.31430
0.14235
0.09600
-0.18001
-0.26190
-0.39958
0.20062
0.29329
0.28867
-0.03858
0.18551
-0.26275
0.13240
0.23081
0.14645
0.39691
0.14356
0.20176
0.10644
0.18254
-0.06702
-0.24635
0.16926
-0.03223
-0.03421
0.20173
-0.18539
0.03820
0.22049
0.15313
0.31066
-0.21514
-0.11343
-0.32100
0.00496
-0.07735
-0.23486
0.04148
-0.04925
0.12344
-0.19220
0.06607
-0.18806
-0.01532
0.43362
-0.07395
0.05674
-0.04639
0.06140
0.24281
0.00665
-0.31735
0.04135
0.33347
0.00440
0.14025
-0.12579
-0.01649
0.43616
0.33729
0.24367
0.12761
-0.23053
-0.03440
-0.22489
-0.01865
0.36327
-0.02221
0.36441
0.18692
-0.00206
-0.17586
-0.33576
0.34440
0.16235
0.20705
-0.10790
-0.10264
0.08700
0.06816
0.15574
0.10502
-0.27362
0.01772
0.18341
-0.33101
-0.12672
0.28825
0.20646
0.29980
0.17517
0.16851
-0.38854
0.03831
0.07304
-0.29808
0.29563
0.34296
0.08877
0.09343
0.01163
-0.01035
0.15230
0.11584
0.11715
-0.13694
-0.03016
0.01592
0.08519
-0.08376
0.02970
-0.16486
-0.14146
0.00464
-0.02681
-0.02610
0.03876
-0.09242
-0.01264
-0.05070
0.05498
-0.07064
-0.02868
0.06721
