-0.18763
0.19024
-0.13618
-0.01937
-0.22221
0.08991
-0.17359
-0.25333
-0.24727
-0.20779
0.19940
0.19101
-0.23072
0.09101
-0.23119
0.01124
0.20093
0.03767
0.03181
-0.09855
-0.06071
0.22539
0.21139
0.10215
-0.10777
-0.14082
-0.10251
-0.21710
-0.26491
0.19703
0.06167
-0.10411
-0.22998
-0.07240
-0.17439
0.09522
0.07169
-0.02482
0.08351
-0.20545
-0.15035
0.21639
0.23247
0.16873
0.19027
-0.22898
0.21886
0.13185
0.02542
-0.21712
-0.08827
0.06954
0.09093
-0.19458
0.23759
0.05202
-0.25515
0.17980
0.20754
0.08809
0.17641
0.08165
0.02486
-0.02189
0.20545
-0.08533
-0.11243
-0.26472
0.00283
-0.00195
-0.01909
0.13283
0.00000
0.00000
0.00000
0.00000
0.00000
0.00000
0.00000
0.00000
-0.11794
0.09832
0.03679
-0.12792
0.08025
0.02767
-0.04164
0.11294
0.07518
-0.07343
0.00092
0.11570
0.01600
-0.00242
-0.04486
-0.10700
0.02057
-0.09507
0.04067
-0.04595
0.10449
-0.06334
0.01813
-0.02161
0.05999
-0.01240
0.11448
-0.01951
0.10253
-0.04179
-0.12589
0.00807
0.04032
-0.04456
-0.11496
0.07120
0.09507
-0.06888
-0.10913
0.05687
-0.12631
0.04675
-0.06464
0.01976
-0.08413
0.08493
-0.02179
-0.07569
-0.08215
0.06621
0.06759
-0.11957
0.12470
-0.05117
0.09088
-0.08634
0.01030
-0.06192
-0.11308
-0.00584
-0.09708
-0.03751
-0.02465
0.12108
-0.06068
-0.10495
-0.05350
-0.00967
-0.09402
-0.02765
0.04012
0.08176
0.03991
-0.11670
0.09188
0.11947
-0.02144
0.10659
0.07388
-0.11448
-0.11173
0.02165
0.07589
0.08274
0.11106
0.00645
-0.12718
0.04629
0.04186
-0.02832
-0.04647
0.03580
-0.07417
0.03490
0.11157
-0.06585
-0.04872
-0.06522
0.12007
0.01088
-0.02959
0.04000
-0.04927
-0.08750
0.01772
0.07707
0.09816
0.10551
0.10746
-0.04871
-0.11918
0.07156
0.00876
0.09523
0.08599
0.04155
0.11241
-0.05175
0.06456
-0.11832
0.02761
-0.08645
0.08008
-0.12221
-0.01062
-0.01306
-0.04301
-0.06504
0.05046
-0.01473
-0.07685
0.12597
0.05901
-0.12361
0.11178
-0.11409
-0.07975
0.03979
0.09118
-0.05989
-0.06203
-0.12030
0.06553
0.02448
-0.12388
0.09919
0.01643
-0.11759
0.02655
-0.07450
0.05950
0.04292
-0.02233
-0.00760
0.00721
-0.10564
0.04480
0.03997
0.12114
0.10670
-0.12412
-0.08819
-0.06242
-0.10939
0.02242
-0.11745
0.08080
-0.06064
0.12290
-0.07719
-0.10170
0.12034
0.06578
0.10071
0.00392
0.05150
0.02691
-0.07621
0.01989
0.11767
0.06113
0.03892
0.11553
-0.02561
0.09592
-0.11807
0.03996
0.11985
0.02977
-0.06928
0.01788
-0.04721
0.05640
0.02845
0.08812
0.10234
-0.05185
-0.01002
-0.04377
-0.11406
-0.04816
0.04470
0.06778
-0.05818
-0.09722
0.06132
0.04341
-0.00446
0.00776
0.03600
0.09197
0.11219
0.08302
0.06216
-0.00446
-0.04945
-0.00171
-0.09449
0.07038
0.03690
0.11958
0.03296
0.03751
-0.10772
0.12227
-0.08107
0.00755
-0.09822
0.08495
-0.12884
-0.11177
-0.09847
0.01929
0.07122
0.01208
0.03571
0.03269
-0.05352
0.00678
0.04275
-0.04529
0.11247
-0.07517
0.03256
-0.01850
-0.04417
0.01266
-0.04394
-0.05835
-0.00234
-0.09750
-0.08603
-0.06677
0.11112
-0.12301
-0.07446
0.11952
0.04832
0.01698
-0.08548
-0.10621
-0.08342
-0.04325
0.11527
0.10377
0.12404
0.03719
-0.12062
0.08064
-0.03496
-0.10455
-0.12457
-0.04096
0.07710
0.05704
0.08366
0.03251
-0.09833
0.11058
0.05605
0.01298
-0.06665
0.00353
0.04930
0.04212
0.05139
-0.09008
0.05957
0.03982
-0.07533
0.03976
-0.00553
-0.09717
-0.08146
-0.05058
-0.01499
-0.05317
0.12008
-0.04546
-0.10827
0.06636
-0.12199
0.10364
-0.00089
0.07458
0.00000
-0.11486
-0.05734
-0.02408
-0.06848
0.11582
-0.09625
-0.07661
0.06620
-0.04218
-0.00528
-0.05542
0.10756
0.11571
-0.02964
0.10527
0.02861
-0.04609
-0.08215
-0.03756
0.11271
0.01922
-0.02515
0.12889
0.10598
0.08308
-0.04168
0.02454
0.04298
-0.10024
0.05895
0.03052
0.00213
-0.03431
0.11222
0.11568
-0.06019
-0.11373
0.08767
0.00359
-0.05620
0.06602
0.03419
0.07407
0.06806
0.01902
0.06579
-0.10189
-0.07662
-0.02020
0.10560
-0.08291
0.00675
-0.07738
-0.09253
0.08599
0.09704
-0.02974
-0.08468
0.11227
0.01225
0.05945
0.12277
-0.12079
-0.02761
0.01090
-0.11550
0.05554
-0.06214
-0.05734
0.10497
-0.06106
-0.11163
-0.07039
0.06873
-0.02384
0.04785
0.12729
-0.05627
0.06871
0.06710
-0.06678
0.00628
-0.04196
0.04071
0.12148
-0.05428
-0.08481
0.04935
-0.08335
0.08875
-0.05718
-0.04217
0.12046
0.04152
-0.06121
0.10929
0.10537
-0.01974
0.02727
0.05943
0.06598
0.08585
0.05616
-0.11805
-0.09958
-0.02479
0.03044
0.10933
0.07763
-0.00149
0.02277
0.07995
-0.08294
0.06707
0.05277
0.03487
-0.07089
0.11132
0.11024
0.11272
0.10182
0.05957
-0.07696
0.05479
-0.02581
0.05980
0.04889
0.06281
-0.10702
-0.03793
0.08522
-0.10538
0.00002
0.03732
-0.10474
0.08148
0.09467
0.05239
0.12642
0.04862
-0.05071
0.08885
0.05966
0.09983
-0.10303
-0.08246
-0.12294
0.11954
0.08299
0.10587
0.02336
-0.03270
0.07304
-0.08860
0.12113
0.10926
0.09890
0.04499
-0.04071
-0.09839
-0.11294
0.00524
0.09326
-0.05989
0.03155
-0.08634
-0.02695
0.10799
-0.09787
0.12468
0.12581
-0.08130
0.00511
-0.01226
0.03712
0.06023
0.03185
-0.01877
0.10629
-0.09553
-0.00989
0.05989
-0.06698
0.00539
0.04307
-0.04208
-0.03014
-0.06484
-0.10013
0.08196
-0.09286
0.10330
0.10435
-0.05401
-0.10153
0.03961
0.08324
0.02294
0.10364
0.11706
0.00246
0.05140
0.11976
0.04846
-0.05265
0.09586
-0.06231
-0.07245
0.06680
0.12896
-0.05961
-0.10714
0.04269
-0.06701
-0.07574
0.01564
0.02039
-0.04842
-0.00120
-0.00221
-0.07765
-0.03329
0.01227
0.12307
0.02052
0.05816
0.10075
-0.12206
-0.01642
0.01542
-0.06065
0.01533
0.02174
0.00116
0.12240
0.10394
0.02472
-0.12172
-0.10356
0.06629
0.03474
-0.08598
0.04079
0.03263
-0.01774
0.12187
0.00298
0.01608
-0.08801
0.00131
-0.01545
0.10207
0.05135
-0.08091
-0.09014
0.05694
-0.02741
0.07609
-0.10272
-0.01221
0.12234
-0.05434
-0.02246
0.12722
-0.05162
0.01940
-0.00367
-0.12776
0.06257
0.06523
-0.11071
-0.11429
0.11413
-0.06033
0.10891
-0.06391
-0.09695
0.05551
0.05710
0.09374
0.03135
0.09785
-0.10640
-0.00034
0.00844
0.06990
0.02722
-0.04433
-0.04530
-0.09753
-0.02067
0.06317
-0.08389
0.09698
0.01139
0.11621
0.01523
-0.11533
-0.00937
0.12570
-0.07402
-0.00302
-0.00550
0.03528
-0.03803
-0.03163
-0.06964
0.07698
-0.07850
-0.09050
-0.05870
-0.03316
-0.09349
-0.06856
0.02080
-0.04430
0.05513
0.09720
-0.12402
-0.00944
0.10271
0.06225
-0.03664
0.03361
0.02792
0.00359
-0.07877
-0.05355
-0.00921
0.06959
0.08050
0.12480
0.10876
-0.04217
0.05812
0.00027
-0.05784
-0.10073
0.01069
0.01596
-0.04984
0.08896
0.06301
0.12470
0.08942
-0.05409
0.02447
0.01642
0.11807
-0.02949
-0.08694
-0.03503
0.06641
0.05505
-0.03390
-0.06903
-0.09186
0.05540
0.07314
-0.05461
0.07350
-0.07277
0.06640
0.08925
0.11018
0.10146
0.11593
0.02002
0.07884
-0.02407
0.04272
0.11361
-0.06829
0.10932
0.10976
0.09910
0.08741
-0.08038
-0.06039
0.00529
0.00492
-0.09501
0.12875
0.06181
-0.05613
-0.01259
-0.03016
0.08818
0.10049
-0.02361
-0.09295
0.04316
0.08882
0.10670
0.02604
-0.12724
-0.07455
0.08003
-0.00906
-0.06202
-0.04649
0.05826
0.09255
-0.01836
0.11975
0.02716
-0.06752
0.07384
-0.05296
-0.11060
0.00333
-0.02992
-0.09199
0.01648
-0.09550
0.04625
0.00200
-0.05837
0.05961
-0.07530
-0.03366
-0.02301
-0.05757
-0.05318
0.06345
-0.00185
-0.12280
-0.11929
0.10798
-0.10331
0.01834
0.04996
0.05585
-0.02569
0.03031
0.08923
-0.05063
0.00249
0.06694
-0.01491
0.10350
0.05213
0.00156
-0.06140
-0.07621
-0.01815
0.00059
-0.00154
0.04072
-0.00027
0.05161
-0.12892
-0.06918
-0.03638
-0.11000
0.07688
-0.12094
-0.10608
-0.07443
-0.01688
0.01375
0.01736
0.01661
0.02505
0.03832
-0.10259
0.05319
0.11491
-0.02766
0.04543
-0.04846
-0.00019
0.11595
-0.05735
-0.09189
-0.11292
-0.03821
0.11993
0.11779
-0.12900
0.03097
-0.11382
0.07431
-0.01092
-0.01904
-0.09414
-0.05667
-0.12311
0.10640
-0.02692
-0.08338
0.01324
-0.00132
0.01976
-0.09982
-0.09152
-0.12008
0.12660
-0.07422
-0.11856
-0.08364
0.09005
-0.01160
-0.02694
-0.05759
0.09952
-0.08829
-0.10607
-0.00156
-0.11716
-0.01019
-0.07127
0.05722
-0.11829
0.05220
0.06751
-0.02792
-0.01358
0.07616
0.07958
0.09903
-0.02734
-0.03542
0.01713
0.04731
-0.11538
0.07380
0.12255
-0.01466
-0.05828
0.02002
-0.00875
-0.08349
-0.01677
-0.05972
0.03207
-0.11925
-0.11645
0.05492
0.07008
0.01993
0.09842
0.04154
0.03162
-0.03317
-0.07001
0.11560
-0.02294
-0.06575
0.05485
0.04462
0.07508
-0.02952
-0.07781
-0.04785
-0.01032
0.04299
0.01913
0.06588
-0.06124
0.07955
0.06893
-0.04126
0.10427
-0.06981
0.06804
-0.09004
-0.11615
0.08565
0.06633
0.11948
-0.03585
0.10661
-0.06718
0.00703
-0.06928
-0.04424
-0.12101
0.00625
-0.12256
0.10780
0.00386
-0.05723
-0.11682
-0.01171
-0.05487
0.07607
0.03504
-0.00735
-0.08587
0.08645
0.10365
-0.11815
-0.11410
0.00744
-0.12255
-0.00079
-0.05942
-0.00560
-0.11168
-0.10264
0.07485
0.06875
-0.08745
0.12369
0.09085
0.08719
-0.01692
0.11002
-0.11611
-0.08127
0.01414
0.09523
0.03953
0.05281
0.12388
0.11369
0.09648
0.06212
-0.08492
-0.06126
-0.06421
0.02292
-0.06030
-0.03295
0.08563
-0.12051
0.05418
0.08867
0.11870
0.08030
-0.04236
0.09363
0.08460
-0.05312
0.01774
0.04367
0.09292
0.07544
-0.10088
0.05666
-0.00817
0.08186
-0.02919
-0.06656
0.00958
-0.08435
-0.04723
0.00069
-0.12159
-0.06498
-0.05800
-0.12317
0.03337
0.09998
0.02850
-0.06435
-0.05960
-0.01361
-0.05798
0.07312
0.03714
0.02700
0.01962
-0.10650
0.04756
-0.04739
-0.10263
-0.11646
-0.01541
0.04130
-0.12319
0.10677
0.05052
0.01145
0.08988
-0.06989
0.09253
-0.09690
-0.05706
-0.05052
0.09957
-0.05982
0.08073
0.08000
0.02004
0.07321
0.05535
-0.01596
0.11849
-0.09960
0.03554
-0.11601
-0.07486
0.10372
0.10558
-0.04149
0.07622
-0.11094
0.05200
0.02257
-0.09411
-0.09512
-0.03066
0.02639
-0.08384
0.03784
0.04237
0.10495
-0.07009
0.01788
0.01304
-0.05006
0.01228
0.07947
-0.06845
-0.04934
0.00874
-0.08608
-0.08834
0.09608
0.08898
-0.04662
-0.10374
0.02285
0.00394
0.00301
0.08385
0.02972
0.07457
-0.04438
0.06841
-0.02936
0.01230
0.01831
-0.00155
-0.12188
-0.08127
0.03776
-0.12601
-0.11871
0.03149
-0.04773
0.07266
0.05331
-0.07795
0.08727
0.04828
0.09964
-0.02630
0.02309
0.01597
0.07443
0.02569
0.07629
-0.11250
-0.08803
-0.10711
-0.09284
0.06561
0.10833
-0.06070
0.07981
-0.06018
-0.00866
-0.04740
-0.12885
-0.06473
0.04576
0.06936
-0.08095
-0.08134
-0.06331
0.05079
-0.05579
0.06753
0.00698
-0.12817
0.11826
0.08128
0.02434
0.02527
0.09362
0.08962
0.12700
0.12658
-0.10178
0.05835
-0.02791
0.10626
-0.02397
-0.07996
-0.04669
0.12813
-0.00558
0.07064
-0.09003
-0.06766
-0.01187
-0.07221
-0.09697
-0.09995
-0.09878
0.07674
-0.00900
0.06497
0.09946
0.09970
-0.10634
-0.09275
-0.11773
0.08297
-0.04269
0.08335
-0.03154
-0.03522
0.09197
0.11121
-0.09450
0.06756
0.05350
-0.08689
-0.04657
0.11001
-0.07937
-0.03564
-0.10207
-0.12156
-0.09553
0.12619
-0.09929
0.01677
-0.09326
0.08345
0.02645
-0.06237
0.10141
0.10233
0.07537
0.10190
0.05268
0.05609
-0.03390
0.08960
-0.11976
0.06552
-0.11188
0.08324
-0.12841
-0.12205
0.05643
-0.09508
0.05458
-0.01563
-0.11051
-0.10713
-0.07528
-0.09140
0.10632
0.06179
0.08445
0.08124
0.00366
-0.10285
0.06201
-0.08058
-0.09967
-0.04970
0.12390
-0.01588
-0.05890
-0.07350
-0.11305
-0.11834
0.08528
0.12363
0.07265
0.05058
0.05932
-0.05010
0.12290
0.01577
0.03079
0.06131
0.05035
0.08703
-0.04835
0.04438
-0.01458
0.01327
0.02104
0.09629
-0.03161
-0.12688
-0.11136
0.10695
0.04684
-0.08306
-0.01506
-0.04774
-0.06403
0.11598
-0.12507
-0.10735
-0.00573
-0.04756
0.10390
-0.10068
0.01715
0.05460
0.04307
0.08428
-0.01000
-0.05382
0.08217
-0.11899
-0.11232
-0.04362
0.12196
-0.08634
-0.10683
-0.05107
0.12731
-0.01006
0.11310
0.04748
0.10741
0.07681
0.02326
-0.03722
0.01480
0.02659
0.09912
0.10106
0.05212
-0.00348
0.07346
0.02843
-0.11752
0.05386
0.04507
0.10211
-0.11691
0.11226
0.09976
0.10822
-0.05471
0.01615
-0.02140
-0.01302
-0.03994
0.11431
0.10604
-0.03250
0.05597
0.09481
-0.06935
0.05591
0.01776
-0.01677
0.01080
0.04978
-0.04716
0.05382
-0.02652
-0.02900
0.08422
-0.02138
-0.00050
-0.05918
0.06023
-0.04357
0.09308
-0.08098
0.06910
0.05997
-0.06169
-0.12209
0.07144
-0.06571
-0.05765
-0.11632
0.04399
-0.02769
-0.10111
0.09134
0.10451
-0.07968
-0.09039
0.01161
-0.07750
0.10326
-0.02672
0.05923
-0.02275
-0.02660
-0.10255
-0.10514
-0.04804
-0.03922
0.09128
-0.04803
-0.06871
0.05277
0.11700
0.12131
0.05881
-0.04113
0.07233
-0.06818
0.12659
-0.08958
0.12299
0.00755
0.00027
0.08843
-0.03617
-0.12712
0.04852
-0.12130
0.10736
-0.08259
-0.10072
0.00953
-0.09282
0.09655
-0.10393
0.06651
0.05893
-0.11777
0.05392
-0.09549
0.10982
0.04158
-0.10569
-0.01287
-0.08762
0.04873
-0.08970
0.10555
-0.10242
-0.01443
0.10348
0.04813
-0.04448
0.03844
0.04253
0.01078
0.03197
-0.03647
0.00571
0.09369
-0.05232
0.07255
-0.06605
0.11790
-0.00379
0.06993
-0.07198
0.01097
-0.10453
0.05397
-0.00682
-0.10488
0.09494
-0.11917
-0.08501
-0.08893
-0.03406
-0.12503
-0.06434
-0.07011
0.06896
-0.03194
0.12690
-0.08300
-0.10583
0.08324
-0.02085
-0.07070
-0.11266
-0.10079
0.07079
0.06331
0.08000
-0.09386
-0.11470
-0.06300
0.00423
-0.00683
0.01407
0.00224
0.01112
0.09897
0.02281
0.11906
-0.06110
-0.09497
0.04177
0.10817
-0.03478
-0.03287
-0.12469
-0.04037
-0.05256
0.10138
-0.07223
0.00638
0.03276
-0.03414
0.02936
-0.05883
-0.00093
0.07984
0.10384
-0.08130
-0.07293
0.08830
0.12341
0.11773
-0.00058
-0.01668
-0.03215
0.11058
0.09392
-0.10650
0.03021
0.03197
-0.08521
0.07490
-0.00496
0.07355
0.11748
0.10117
0.03663
-0.11060
0.06118
-0.06331
-0.10493
0.11044
0.03857
-0.10577
-0.07567
-0.07609
0.04135
0.00749
0.12851
0.08929
0.01911
-0.10833
0.04409
0.02508
0.03094
0.07741
0.02128
0.06319
-0.02446
-0.02558
0.03525
-0.04216
-0.05785
-0.12084
-0.05388
0.09593
-0.07669
0.12331
-0.11166
0.05560
-0.00779
-0.00980
0.04415
-0.05184
0.11621
0.03890
0.00805
0.12488
-0.09202
0.06360
-0.11115
-0.06163
-0.10545
-0.05837
0.00501
-0.12316
-0.07953
-0.00859
-0.07603
0.00857
-0.07163
0.06313
0.07620
-0.11400
0.01436
0.12679
0.11827
-0.00132
0.06786
-0.00092
-0.00219
0.01954
0.01913
-0.01814
-0.03868
0.09773
0.06637
0.11154
-0.08586
-0.09409
-0.07336
-0.07500
-0.08473
0.12783
-0.04312
-0.02729
0.07216
-0.01037
0.12866
-0.03498
-0.09977
0.00374
0.07983
-0.03522
0.12841
-0.07446
0.11157
0.05310
0.07098
0.11316
0.10722
-0.10650
0.01442
-0.09110
-0.09188
0.10593
0.09331
0.03126
0.06394
-0.05968
-0.03361
-0.00459
0.05308
0.00177
-0.12545
0.00956
-0.06665
0.01949
-0.10283
-0.09748
0.05799
0.04865
-0.11332
-0.08719
0.00421
0.03715
-0.10462
-0.04894
-0.06069
0.08283
-0.09278
-0.02008
-0.00627
0.00008
-0.00195
0.05434
0.08599
-0.06718
-0.05532
-0.03202
-0.02947
-0.05889
0.04848
-0.05860
0.08307
0.08602
-0.10843
0.08716
0.05602
0.10935
0.07157
0.11880
0.00603
0.04980
-0.08260
-0.00783
-0.05433
0.01836
-0.12115
-0.09735
-0.03165
-0.02100
-0.00950
0.09881
-0.08626
-0.04488
-0.02807
-0.00880
0.02353
-0.03577
-0.03323
0.03245
0.06586
0.10661
-0.01972
-0.10607
-0.11193
0.00118
-0.03409
0.12826
-0.00844
-0.05417
-0.03890
0.09609
-0.07778
0.06824
0.04481
-0.10417
-0.05469
0.09918
0.01106
0.02084
0.01708
-0.02588
0.08377
-0.08793
-0.12784
0.10710
-0.02352
-0.10539
-0.00775
0.01034
-0.00962
0.02644
-0.07903
0.10079
-0.04056
-0.11299
0.02436
-0.11554
-0.03417
0.06401
0.09023
0.10285
0.09377
-0.12710
0.00661
-0.03078
-0.06200
-0.04508
0.01771
0.08646
-0.08057
0.00321
-0.04006
0.00482
0.12642
-0.09420
-0.05814
0.10103
-0.11172
-0.11256
0.03579
-0.06492
-0.07749
-0.11787
-0.08509
0.05917
0.12224
-0.09677
-0.07338
-0.07940
-0.11111
-0.12574
0.01810
-0.11048
-0.06557
-0.03783
-0.03412
-0.11772
-0.07175
-0.12711
0.02120
-0.00412
0.06450
0.10136
-0.02153
0.07751
0.01510
-0.02883
-0.00101
-0.11663
0.01681
0.04713
-0.11138
0.00146
-0.09336
-0.09844
-0.10590
0.07341
-0.02731
-0.11883
0.10753
0.08449
-0.12584
-0.03931
-0.03788
0.05377
0.05539
-0.07602
-0.04842
0.08181
0.08429
0.10834
0.04403
0.04900
0.10018
0.06153
-0.11609
-0.00686
0.06210
-0.02267
-0.03750
0.04988
0.10188
0.06567
0.07633
0.01315
-0.08918
0.00828
-0.07518
-0.07597
-0.09378
0.10486
-0.04557
-0.10994
0.05607
0.00064
-0.00941
-0.09674
0.10292
0.08004
0.11184
-0.05215
0.05580
-0.00387
-0.08267
0.06251
0.01286
0.11249
0.01601
-0.07317
-0.12285
-0.02346
0.04264
0.03840
0.02134
-0.05384
-0.02771
-0.05719
-0.08417
-0.10605
0.08740
0.07251
0.04404
0.10182
-0.12190
-0.08511
-0.03393
-0.03376
-0.06866
0.04170
0.03808
-0.05044
-0.04329
-0.07807
-0.09617
0.07895
-0.06850
0.10258
-0.10002
0.06829
0.04044
0.01907
0.10451
0.04571
-0.04433
0.05033
0.03880
0.05981
0.02667
-0.04756
-0.02721
0.12421
0.04187
-0.01192
-0.07521
0.11005
0.10755
-0.03037
-0.12090
0.01419
0.10044
0.02286
0.04088
-0.12784
0.08399
-0.09244
-0.01209
0.02912
0.07672
0.09773
0.09040
-0.01722
0.01137
0.02242
0.04759
0.11226
0.03337
0.04700
-0.09749
-0.07511
0.03864
-0.10079
-0.09250
0.12216
-0.07084
-0.12712
0.09423
0.10520
-0.08739
-0.01598
-0.09118
0.01061
0.05521
0.04062
-0.07678
0.06128
0.06898
0.01993
-0.08207
-0.07063
0.04984
-0.09114
-0.09996
-0.12229
-0.02590
0.07916
-0.04456
-0.00383
0.12709
0.02692
-0.05819
0.05922
0.02275
-0.07020
0.10384
-0.02634
-0.03582
-0.10222
-0.09469
-0.06965
0.06435
0.00320
0.07797
0.04587
-0.11963
-0.06342
0.06135
0.02497
-0.12551
0.11961
0.06094
-0.01467
-0.08717
0.07832
0.02682
-0.02898
-0.03764
0.12781
0.07512
0.02699
-0.04470
0.06701
0.10163
0.01296
0.04126
0.05779
-0.06418
0.05490
0.01709
0.05188
-0.11563
-0.03931
0.06250
-0.08762
0.09558
-0.12169
-0.01640
0.03208
-0.11487
-0.01642
-0.05126
0.03310
-0.03730
0.07591
0.10927
0.00855
0.03465
0.03600
-0.06203
-0.04264
-0.05957
-0.05718
-0.10907
0.08632
-0.10878
0.00004
0.07679
0.00046
0.04816
-0.07999
0.05231
0.02467
-0.04837
0.07093
0.12470
0.03520
0.04316
-0.10104
0.01402
-0.01895
0.01473
-0.04015
-0.11563
0.10741
0.00583
-0.06371
0.12100
0.09538
-0.03171
0.02097
0.00776
0.07268
-0.01085
-0.06900
0.03710
-0.03364
-0.11505
-0.03792
0.04616
-0.07485
-0.04843
0.10504
-0.00720
0.12003
0.06167
-0.03524
0.12089
0.01361
-0.00192
-0.04432
0.05018
-0.10823
0.06338
0.02336
-0.10922
-0.00886
-0.05095
0.12607
0.10052
-0.00688
0.08254
0.07921
-0.02489
-0.04646
-0.04412
0.10875
0.10039
-0.09416
0.10770
-0.04748
-0.07415
0.05755
0.12686
0.09265
-0.12420
-0.05581
0.02747
-0.11244
-0.03219
-0.01924
0.12201
0.06834
-0.09004
0.12503
0.08425
-0.07344
-0.06613
-0.05989
0.02686
0.06204
0.10986
0.09583
-0.02711
-0.10907
-0.06158
-0.03862
0.02743
0.07674
-0.12522
-0.02151
-0.06007
-0.08336
0.06108
-0.01319
0.03207
-0.05539
0.05065
-0.04014
0.04854
0.00410
0.01500
-0.05920
0.06969
0.07484
0.04256
-0.03708
-0.00805
-0.08927
-0.01260
0.12195
-0.11929
-0.02356
0.01269
-0.12022
-0.05373
0.07887
0.06412
0.03389
-0.02641
-0.05284
0.06320
-0.11598
0.01311
0.09314
-0.08429
0.10688
-0.12300
0.08582
0.04036
0.10278
-0.09196
0.10207
-0.10855
0.11569
-0.11076
-0.08523
-0.10499
0.08386
-0.04024
0.05527
0.07554
0.11862
-0.01700
0.07566
-0.10778
-0.06997
0.01823
0.04570
-0.11187
0.02012
0.01115
0.05291
0.04470
-0.02433
0.09488
-0.00879
0.07817
-0.09772
-0.05393
0.04268
-0.00496
0.05773
-0.10296
-0.01713
0.08353
-0.00581
0.04723
-0.02368
-0.05115
-0.08897
0.06181
0.09649
0.06336
-0.00473
0.04485
-0.05242
0.01000
-0.08514
0.09111
-0.04495
0.02741
-0.05041
0.08915
0.05565
-0.08972
-0.10159
0.05478
0.06373
-0.07682
-0.04100
0.01164
-0.09472
-0.11913
-0.09580
-0.12342
-0.06785
-0.10706
0.00119
-0.05802
-0.01596
-0.08783
-0.06422
-0.09142
0.00392
0.01936
-0.00773
-0.01496
0.09593
-0.01831
0.06138
-0.05235
0.07456
-0.04014
-0.03711
-0.08249
-0.03176
0.08929
0.01757
-0.07383
-0.05592
0.04974
0.08222
0.04610
-0.11794
0.09145
0.10833
-0.10533
0.10579
0.11824
0.01122
0.00064
-0.00236
0.11503
-0.05195
-0.05080
0.08870
0.02032
-0.07000
-0.08299
0.11472
-0.05352
-0.10377
0.10418
0.04206
-0.09773
0.03392
-0.08975
-0.03174
-0.11831
0.11494
0.08289
0.09245
0.04953
-0.01988
-0.09332
0.06331
0.04911
-0.12292
-0.03260
0.12271
0.08598
-0.08533
0.10786
0.01110
0.04703
0.10184
0.02149
0.07444
-0.10882
0.06503
0.10532
-0.02484
-0.02488
0.05064
0.04539
0.12837
-0.11124
-0.11647
-0.02214
0.10374
-0.02891
-0.06154
-0.04451
-0.11405
-0.06878
-0.01189
0.10343
0.11325
0.00938
0.11795
0.11597
-0.06226
-0.02639
0.05730
-0.07409
-0.04486
0.04741
0.02618
0.02245
0.02472
0.02922
0.11829
0.00830
0.07856
-0.12423
0.08689
0.07012
0.12544
-0.04146
0.02669
0.02896
0.06641
-0.02502
0.12731
0.08289
0.00440
-0.11508
0.04635
-0.03597
-0.04310
-0.00890
0.02735
0.01307
-0.12091
-0.12667
-0.12321
-0.01765
0.09687
-0.11665
-0.12022
0.05937
-0.05072
-0.05991
-0.05633
-0.02388
-0.02337
-0.04142
-0.01427
-0.05804
0.02729
-0.08675
0.10263
-0.03728
-0.04719
0.01059
0.01300
-0.12858
0.01573
-0.05568
0.10996
-0.10127
-0.00924
0.10782
0.00883
-0.02589
0.05608
-0.09508
-0.09068
-0.02148
-0.10786
0.06912
0.09247
-0.07646
-0.00072
-0.05618
-0.03322
-0.10892
0.11771
-0.06226
-0.09860
-0.12277
0.11453
0.00327
-0.12824
-0.07560
-0.03910
0.09151
0.10929
0.00000
0.00000
0.00000
0.00000
0.00000
0.00000
0.00000
0.00000
0.00000
0.00000
0.00000
0.00000
0.00000
0.00000
0.00000
0.00000
0.00000
0.00000
0.00000
0.00000
0.00000
0.00000
0.00000
0.00000
0.00000
0.00000
0.00000
0.00000
0.00000
0.00000
0.00000
0.00000
0.23799
0.12382
0.17378
-0.20294
0.21096
0.15029
0.12378
0.18350
-0.06247
0.18076
0.17471
0.09781
-0.24122
0.08241
-0.10267
-0.01394
-0.17171
0.18126
-0.20911
-0.06210
-0.07566
0.22128
0.21665
0.15585
-0.22430
0.02824
0.07504
-0.05824
0.15348
-0.16187
-0.23304
0.09008
0.22069
0.02990
-0.12746
-0.22200
-0.18470
0.09154
0.08641
0.15738
-0.11206
0.02987
0.02048
-0.22911
-0.07603
-0.08659
-0.15054
0.18506
0.22736
-0.05499
0.10224
-0.13410
0.03442
0.15495
-0.17502
0.08792
0.17231
-0.02527
-0.14299
-0.10957
-0.09930
0.05793
-0.00556
0.08715
-0.20532
0.20927
-0.10894
-0.20083
0.05911
0.20798
0.14294
-0.14619
-0.04072
0.17626
0.12238
0.20347
0.07932
-0.16210
0.13366
-0.18749
-0.18262
-0.15169
0.24713
-0.23601
0.02379
-0.02992
0.22961
-0.09236
-0.02655
-0.07623
-0.00213
0.01813
0.17561
-0.02967
-0.05757
-0.23334
0.19481
0.15914
0.14426
-0.15901
0.23687
0.20922
-0.02430
-0.16756
0.10644
0.13709
-0.10878
0.14417
-0.07560
0.10724
-0.05375
0.18089
0.10377
-0.09702
0.01059
-0.24382
-0.18410
0.21019
0.18009
0.07897
-0.17367
-0.04961
0.05081
0.09590
-0.01588
-0.22414
-0.10627
0.17703
-0.10399
0.14620
-0.13159
0.03892
0.12939
0.07710
-0.04702
0.06771
-0.21079
-0.19640
0.03504
0.04604
0.24553
0.19744
0.23070
-0.22672
-0.19447
-0.02608
-0.13805
-0.13002
-0.05718
-0.18693
-0.09020
-0.21749
-0.13954
0.22528
0.20774
0.12175
-0.14274
0.21032
0.08284
0.12228
0.06951
0.21461
-0.24256
0.20498
0.17855
-0.14484
0.15893
0.20693
-0.19742
0.22381
0.11641
-0.00769
-0.11564
0.20165
-0.10219
-0.24471
0.09952
0.01324
-0.10322
-0.03962
0.13321
-0.09298
0.18895
0.23371
0.05399
0.00060
0.00441
0.17139
-0.07307
-0.19176
0.04980
-0.11003
0.14006
0.06224
0.01735
0.23477
-0.00428
-0.15806
-0.09491
-0.01099
0.20237
-0.08623
0.11770
-0.15110
0.11333
-0.00152
-0.06016
-0.18917
0.14470
0.16068
0.18731
-0.21289
0.13359
-0.05107
0.16120
-0.01480
-0.06378
-0.24147
-0.16041
0.23723
-0.13920
-0.05061
-0.07711
0.06182
0.14943
-0.18813
0.06833
-0.05321
0.02459
-0.06899
-0.21574
-0.20554
-0.07455
0.06334
0.00292
-0.02996
-0.09664
0.15523
-0.21783
0.20190
-0.02964
0.13754
-0.18405
-0.17316
-0.07480
0.12103
-0.07321
0.11931
0.11418
-0.08193
-0.19890
-0.08212
0.21160
0.01268
0.07475
0.05510
0.04773
-0.09927
-0.12896
-0.21817
0.07493
0.24227
-0.05301
0.04322
0.05331
0.21266
-0.00581
0.03355
-0.09232
-0.11814
-0.20909
0.18132
-0.12030
0.13128
-0.10365
0.23073
0.02372
-0.08505
0.01645
0.03109
-0.01198
-0.01087
-0.14627
0.07330
-0.14553
0.07122
-0.17402
0.06750
-0.08599
-0.21099
0.07550
-0.17533
-0.12452
0.20236
-0.19093
-0.13534
-0.14062
-0.24900
-0.21029
0.00897
-0.21962
-0.17194
0.00334
0.22362
-0.16631
0.17961
-0.02037
0.04665
0.19164
-0.08434
-0.18266
-0.12365
0.01269
-0.07035
-0.24406
0.01080
-0.00794
-0.19373
-0.05072
0.16617
-0.07967
-0.17907
0.23557
-0.01261
0.17351
-0.09131
0.05080
0.15191
-0.08712
-0.09257
-0.21667
0.16522
-0.21445
0.12000
-0.24966
0.11579
-0.08981
-0.10250
0.05436
-0.05160
0.10809
0.08463
0.22446
-0.02761
0.13645
0.01759
-0.01239
0.03521
-0.16894
0.24053
-0.18329
0.19196
0.14596
0.22006
-0.02793
0.16641
-0.17373
-0.01024
0.21294
0.20049
-0.03365
-0.13522
0.00503
0.15392
0.02125
0.19060
-0.10121
-0.24729
-0.24387
0.06797
0.14484
0.10519
-0.10854
0.17606
-0.03654
0.10025
0.04028
0.06686
-0.24678
-0.06291
0.02450
-0.24774
0.02636
-0.13264
0.22728
-0.05363
0.08098
0.07352
-0.12163
0.06083
-0.04836
-0.10487
0.07235
-0.15076
-0.18308
-0.08919
-0.02815
0.15986
0.23068
0.23126
0.16162
-0.08565
0.21292
-0.04454
0.03137
0.20194
0.03120
0.13438
0.08352
-0.23279
-0.23461
-0.24049
0.08744
-0.23133
-0.02004
0.20527
0.17836
-0.08857
0.07689
0.05978
0.07730
0.11815
-0.03742
0.16187
0.12737
-0.07086
0.21973
0.15357
0.15228
0.13459
0.22184
-0.07458
-0.02478
-0.06375
-0.08518
0.05222
-0.20683
-0.03915
0.17487
-0.13580
0.04046
0.04470
-0.10031
-0.20731
-0.21247
-0.07107
0.21263
0.08578
0.11030
0.10343
0.21886
0.08334
0.14446
0.16717
-0.00790
-0.11450
-0.19419
0.14564
0.00033
-0.07688
0.04648
0.02357
0.01836
-0.09528
-0.14725
0.21230
-0.15196
-0.01857
0.06195
0.11472
-0.00578
-0.15534
0.00570
0.18655
-0.04758
-0.06688
-0.17080
0.18466
0.21354
0.04567
-0.21455
0.14792
-0.08213
-0.04229
-0.11610
0.10622
0.09597
0.16881
-0.24135
0.11900
0.08876
-0.06627
0.24732
0.02399
-0.12247
-0.19427
-0.24357
-0.22031
-0.23295
0.00375
-0.06333
0.12122
0.17470
-0.24003
0.12167
-0.19998
-0.18813
0.19373
-0.04472
0.06998
-0.10453
-0.15735
-0.04261
-0.05340
0.15760
0.11712
-0.10911
-0.21270
0.15726
-0.11182
0.14248
-0.19852
0.15058
0.13674
-0.04169
-0.16540
-0.00927
0.06010
-0.22145
0.13029
-0.24498
0.13163
-0.10326
-0.15269
-0.07865
0.12294
0.24248
0.19118
-0.13556
-0.19959
-0.06439
0.15164
-0.17757
0.22412
0.05786
0.17400
-0.05211
0.08704
-0.19737
-0.19407
-0.23121
0.16274
-0.16537
0.07369
0.22020
0.20848
-0.17306
0.13114
-0.04522
0.23982
0.13422
-0.17946
0.23389
0.06284
-0.00072
0.07059
0.12451
-0.24698
0.13546
-0.00927
0.02522
-0.21334
-0.24016
-0.12029
-0.16939
-0.12049
-0.07875
0.24516
-0.11988
-0.23137
-0.21064
0.16582
-0.03666
-0.00215
0.01159
0.15382
-0.24576
-0.01077
-0.04340
0.00658
-0.14952
-0.07805
-0.00919
0.13358
-0.05722
0.09699
-0.08273
-0.14922
0.02895
-0.08565
-0.18799
0.03939
0.18882
-0.07682
-0.24276
-0.03144
0.07147
0.02308
-0.17180
0.06551
0.18865
0.04533
0.21723
0.06604
-0.20730
-0.08422
-0.24323
0.07236
0.06532
0.06654
0.01078
-0.09724
-0.19588
0.20343
0.01299
-0.03984
0.20149
0.19022
0.04115
0.01188
0.08903
-0.19496
0.05454
-0.14108
0.23731
0.09542
-0.07056
0.21180
0.16343
0.05055
-0.17930
0.21569
-0.21387
0.01421
-0.03822
0.14729
-0.10660
0.15299
-0.21244
0.19073
0.10071
0.04602
-0.22196
0.05402
0.16328
-0.17140
-0.23068
-0.23323
0.24992
-0.00703
0.18871
-0.13085
-0.01290
0.22831
0.06877
-0.24008
0.14385
0.21678
0.24325
0.15187
-0.01853
-0.08216
0.21424
0.14322
-0.01060
-0.11415
0.08303
0.00586
0.24335
0.16875
-0.23897
-0.22000
-0.18427
-0.00967
0.24516
-0.21932
-0.15107
-0.09465
0.19448
0.08487
0.12770
0.16806
0.10501
0.16285
-0.18080
-0.16604
0.17443
0.24704
0.23051
0.03523
0.10702
0.08207
0.05556
0.02142
0.17662
-0.18940
-0.13453
0.16647
0.23157
-0.07457
0.24936
-0.10237
0.05165
-0.05916
0.20894
0.10555
-0.19021
-0.21745
-0.15207
0.07646
-0.09018
-0.07307
0.19309
0.16107
-0.05046
-0.09364
0.02447
-0.06094
-0.11130
-0.02932
-0.11552
0.02349
0.13460
0.15510
0.19133
0.04371
-0.04299
-0.17178
0.18114
-0.08836
-0.24569
-0.11467
0.19003
-0.01835
0.08132
0.06440
0.03419
0.20286
0.24936
0.23906
0.12321
0.07980
-0.00605
-0.24789
-0.21725
-0.03809
0.06210
0.05594
0.08178
-0.03667
0.03424
0.12554
-0.22455
-0.16608
0.01514
0.02251
-0.04474
-0.08114
0.02000
-0.05764
-0.00752
0.09881
-0.00679
0.05714
0.12147
-0.00697
0.08833
0.11724
0.20437
0.02173
0.09789
-0.05386
-0.00059
-0.23762
-0.08183
-0.05326
0.10697
-0.16498
0.11697
0.11644
0.22707
0.16594
0.08604
-0.15022
-0.19018
-0.06168
-0.11021
0.03533
0.19570
0.17052
-0.16468
-0.02185
-0.05093
0.19452
0.13611
0.12053
0.08136
0.16686
-0.15725
-0.12210
0.01531
0.18722
0.21984
-0.08557
-0.14795
-0.13255
0.11332
0.04533
0.04777
-0.17873
-0.17168
-0.19487
0.24936
-0.01098
-0.18341
0.09850
0.10090
0.16664
0.24534
-0.17180
0.12236
-0.14663
0.02509
-0.17736
0.09967
0.02568
0.13527
0.13628
0.17703
-0.22910
-0.12070
0.23533
-0.12929
-0.15333
0.21556
-0.20393
0.14535
0.20997
-0.11908
0.19638
0.07041
0.08439
-0.00387
0.22970
-0.02080
-0.20603
-0.19541
0.04268
-0.06436
-0.20119
0.17895
-0.21908
-0.11831
-0.24356
-0.13494
-0.22055
0.21216
-0.23450
0.03805
0.16113
0.00927
0.16246
0.04780
0.02010
0.13677
-0.23999
-0.09041
-0.19648
0.02457
0.00317
0.03107
0.14999
-0.03802
0.12214
0.03888
-0.01260
0.23476
0.07170
-0.17185
-0.15404
0.00463
0.08019
-0.13606
0.13892
-0.05395
0.22422
0.12535
0.24193
-0.02970
-0.03428
0.08019
-0.08795
0.02850
-0.14217
-0.14924
-0.17236
0.23066
-0.20661
0.18887
0.04357
0.07262
-0.10313
0.03036
-0.06060
-0.13941
-0.23826
-0.03952
-0.15190
0.05755
0.23170
-0.08405
0.24685
0.05619
-0.18317
-0.21836
-0.03426
-0.00721
-0.09986
-0.17991
-0.23025
0.00314
0.10614
-0.07985
0.23778
-0.22585
0.14879
-0.00188
0.12042
0.05742
-0.21109
0.21343
0.20065
-0.19621
-0.06213
-0.04519
-0.02587
0.11298
0.11840
0.02933
-0.04252
0.00822
0.13625
-0.14372
-0.18663
0.15083
-0.05491
-0.00451
-0.21420
0.16605
0.24385
0.17178
-0.16273
-0.09122
-0.10563
-0.21527
0.05032
-0.06767
0.10881
-0.23621
-0.01250
0.10755
-0.24247
0.14651
0.24661
-0.06467
-0.19484
-0.03870
0.19985
-0.06317
-0.13711
-0.23756
-0.06951
-0.14615
0.07125
-0.05125
-0.00210
-0.09936
-0.17419
-0.08646
0.22846
0.03484
-0.00666
-0.20125
0.00689
-0.17928
0.06309
-0.15305
-0.24456
-0.19896
0.12058
-0.18505
-0.12078
-0.23722
0.15507
-0.07919
0.17560
0.22461
0.21414
-0.05035
0.11847
-0.14149
-0.09628
0.23641
0.01351
0.16473
-0.23890
-0.02669
-0.20995
0.14671
0.02719
0.22927
-0.07544
0.13345
-0.21933
0.16533
0.09736
0.18750
0.07566
0.13311
-0.11181
-0.19977
0.15971
-0.23054
0.16668
-0.23765
0.01787
0.10587
0.14950
0.10794
-0.07649
0.22041
-0.11427
0.21734
-0.16470
0.21637
0.24970
0.08990
-0.21477
-0.01003
0.17170
0.18771
0.05216
0.07866
0.08141
0.01882
-0.24997
-0.02160
0.12796
0.24071
0.03969
0.18044
-0.07476
-0.00847
0.22476
-0.06407
-0.21669
0.10244
0.07547
0.20539
-0.09063
0.18801
-0.24949
-0.22094
-0.15158
0.06216
-0.05525
-0.13572
-0.14548
0.08522
0.08976
0.08231
-0.06349
-0.04048
-0.00248
0.15201
-0.00051
-0.19260
0.02814
0.13769
0.01504
0.11666
0.15100
0.21455
0.13388
0.06434
0.10154
0.21809
-0.02079
-0.23536
0.09118
-0.16215
0.18460
0.23254
0.11299
0.06696
0.11276
0.06405
-0.15816
-0.17114
-0.16363
-0.20207
-0.20394
0.02677
0.14234
0.14469
-0.12400
0.02774
-0.17712
0.13557
0.13151
0.15623
-0.18344
0.15282
-0.23658
0.02706
0.03303
0.18077
0.01469
0.18838
-0.02246
-0.19567
0.02522
-0.20248
-0.15814
-0.18454
0.10774
-0.21696
-0.08242
-0.23162
0.10749
-0.21657
0.23272
-0.09675
0.17389
0.21015
0.23279
-0.10466
0.16003
0.06418
-0.18180
0.04383
0.22422
0.04199
-0.07614
-0.23818
-0.12350
0.10961
-0.24327
-0.02705
-0.02785
0.18485
0.12390
0.06494
0.24588
0.08984
0.07741
0.16200
-0.02586
0.01232
-0.05277
0.19212
-0.06440
-0.03412
-0.03804
0.20034
-0.10591
-0.02576
-0.10284
0.20498
0.02796
-0.07501
-0.09858
-0.20570
0.09806
-0.20976
0.13373
-0.19008
0.24238
0.05396
-0.02142
-0.17080
-0.24903
-0.09905
-0.09230
-0.01605
-0.00159
-0.17289
-0.13065
-0.12219
-0.18957
0.04544
-0.02244
0.12052
0.15879
-0.04538
-0.19594
0.18671
0.09657
-0.13317
0.12752
-0.05618
-0.15073
0.13442
0.03546
0.11677
-0.12654
0.11371
-0.12250
-0.23773
-0.14515
-0.11008
0.04770
-0.17022
-0.14050
0.22610
0.16288
0.21896
0.22623
-0.11118
0.01155
-0.02024
-0.22841
-0.09747
-0.10109
-0.05456
-0.07041
-0.20399
0.19242
0.00629
0.20383
0.03291
-0.13950
-0.18128
-0.07212
-0.17966
-0.02885
0.04045
-0.22736
0.13852
-0.11325
0.23017
0.04399
0.19148
0.04499
-0.08568
-0.13103
0.14901
0.02034
-0.01815
0.13574
0.23837
0.15817
-0.19981
-0.15683
0.24785
0.14953
0.08594
-0.17071
-0.24325
0.02951
-0.05145
-0.02393
0.02083
-0.20152
-0.08058
-0.18019
-0.11774
0.00082
0.14694
-0.00499
0.16887
0.22239
0.17211
0.16921
-0.10191
0.05773
-0.10295
-0.21907
0.18562
-0.20695
0.06667
-0.10877
0.05762
0.17981
0.03311
0.13988
0.16128
-0.00542
0.14873
0.23801
0.03778
-0.14950
0.16457
0.18737
0.20164
-0.10290
0.06440
0.03867
0.17163
-0.01278
-0.11953
0.05166
0.11270
0.16310
-0.24662
0.09177
-0.16134
-0.11028
-0.18412
0.13819
-0.19178
-0.16925
0.18931
0.01734
-0.22065
-0.08303
0.18804
0.15172
0.03976
0.10699
0.10197
-0.02380
0.08813
0.03236
-0.01661
-0.14652
-0.01599
-0.03388
-0.05968
0.12709
-0.03358
-0.12989
0.11555
0.03993
0.07185
-0.17594
0.06603
-0.16514
0.09846
0.06404
-0.00839
-0.07208
-0.22915
0.23003
0.11441
-0.04616
-0.03764
0.18719
-0.17649
0.06525
-0.17026
-0.23885
-0.20200
0.23445
-0.06368
0.00965
-0.12892
-0.08077
0.08357
-0.17514
0.24661
0.03991
-0.10283
-0.03449
-0.04795
-0.00201
0.11210
-0.15670
0.18679
0.15495
-0.11045
0.20448
-0.02737
0.22276
-0.08426
0.15935
-0.00510
-0.22758
-0.06190
-0.18580
-0.02686
0.09457
-0.09264
-0.04530
0.02084
-0.00152
0.01511
0.19022
0.01392
0.08266
-0.00571
-0.03096
-0.01814
-0.20758
-0.11136
-0.14815
0.15625
-0.19178
0.03570
-0.12043
-0.17108
0.02653
0.11241
0.11084
-0.01432
0.12660
0.21284
0.16316
0.10257
-0.03878
-0.06899
0.09790
-0.22731
-0.09894
0.01120
0.08880
-0.05171
0.16192
-0.15604
0.18987
-0.04813
0.07805
0.00449
0.05063
-0.09339
-0.08632
0.24368
-0.22556
-0.14769
0.09699
-0.20504
0.02843
-0.16247
-0.18458
0.14737
-0.22855
-0.10506
-0.06416
0.20172
-0.03922
0.05553
-0.20828
-0.14775
-0.08835
0.04701
0.03543
0.04362
0.24840
0.22593
0.15597
0.17258
-0.18016
-0.17844
0.09825
0.04501
-0.20535
-0.14770
-0.18239
0.16491
-0.23784
0.07785
-0.14032
0.01415
-0.07032
-0.16586
0.08549
0.24213
0.19793
-0.19084
0.12265
-0.05135
0.23478
-0.22752
0.07710
-0.07840
-0.17266
-0.13996
0.00769
0.09863
0.01937
-0.20138
-0.02297
-0.23528
0.00437
0.22752
-0.03896
-0.18815
-0.03834
0.23549
0.10507
-0.10390
0.16969
-0.06175
0.12288
-0.16059
-0.10802
-0.12023
0.14936
-0.09724
-0.13248
-0.01012
-0.13483
0.11359
-0.03996
0.09732
0.02010
-0.14242
-0.10332
-0.18316
0.16427
-0.12005
0.20265
0.19055
-0.09964
-0.07052
-0.15344
0.16968
-0.18270
-0.06920
0.00896
0.06221
0.23512
-0.13267
0.04656
-0.21025
0.10589
0.10234
-0.10725
-0.18032
-0.05360
0.12047
0.05782
0.17948
0.08279
-0.02760
0.03088
0.11544
-0.15801
0.07045
0.04243
0.14802
-0.23715
-0.06488
-0.16931
-0.22264
0.08843
0.09001
0.23617
-0.13589
-0.16968
-0.01089
-0.20973
0.24810
-0.05542
0.04791
0.09438
0.03250
0.13502
-0.15325
0.24485
0.13945
-0.12998
0.23747
-0.01342
-0.23420
-0.21702
0.13817
0.09706
0.21055
0.02678
0.17889
0.13192
0.24970
-0.07592
0.16463
-0.18770
-0.22962
0.03893
0.04730
0.12746
-0.22171
-0.23220
0.21167
0.10637
-0.04971
-0.07504
-0.11524
-0.20694
-0.19936
-0.03484
0.21823
0.21525
0.14506
0.07421
-0.05142
-0.06808
0.06075
-0.12308
-0.10728
0.04420
0.03229
-0.11915
-0.24006
0.22104
0.19362
0.07271
-0.02880
-0.11440
0.11475
-0.18378
-0.21722
0.17812
-0.01009
-0.00703
0.17803
-0.24636
0.02756
-0.22943
-0.03922
-0.04328
0.17365
-0.08806
0.08849
0.13419
-0.13589
0.14822
0.06045
-0.14171
0.15354
0.11762
-0.03002
-0.16487
0.07010
-0.09476
0.03340
-0.11972
-0.10346
-0.12852
0.01311
-0.02005
0.07602
0.23017
-0.22807
0.08922
0.11608
-0.09955
0.04475
0.08766
-0.20021
-0.23444
0.13473
0.05641
0.13127
0.03045
-0.00759
0.03003
-0.02896
-0.15596
-0.24166
-0.15671
-0.03698
-0.22652
-0.06173
-0.15311
0.14656
0.22769
-0.16853
0.16853
0.09411
0.20919
0.12915
-0.21259
0.20457
0.12056
0.04241
-0.00498
0.23362
-0.06251
0.15076
-0.08047
-0.23279
0.02823
0.09257
-0.18494
0.18199
-0.02814
-0.18894
0.09619
-0.23465
-0.00966
-0.14111
0.01573
-0.12703
-0.00029
-0.14687
-0.21667
0.17658
-0.09241
0.02170
-0.01146
-0.23708
-0.22888
0.17569
-0.24276
-0.16065
0.12381
0.05848
-0.04547
0.10769
-0.09860
0.05482
0.07135
0.21471
-0.13814
-0.04689
-0.19900
0.02970
-0.12011
-0.11009
0.10054
-0.10295
-0.20338
0.10381
-0.07378
0.22478
-0.03419
-0.22518
0.06487
-0.17046
0.11778
0.01973
0.14271
0.14517
-0.15684
0.01360
-0.17756
0.20993
0.21354
-0.04137
0.11745
-0.16577
-0.21302
0.18770
-0.22111
-0.02863
0.18218
0.23205
-0.01817
-0.12559
-0.14766
-0.07273
0.18778
0.24266
-0.06407
-0.01537
0.16325
0.14082
-0.12899
-0.07312
0.12965
0.14987
0.14815
-0.08968
-0.17724
-0.13104
0.24099
0.09037
0.01277
-0.24938
0.19310
-0.13147
-0.20337
0.14246
-0.11941
-0.09934
0.12697
-0.22151
-0.06482
0.01164
0.23982
-0.10126
-0.11618
-0.02456
0.00471
0.14112
0.24412
0.10776
-0.19666
0.06902
-0.13506
0.04006
0.06008
-0.22321
0.18882
-0.22278
0.18274
0.07515
-0.21058
-0.05510
-0.09446
-0.21094
-0.23995
-0.20325
0.24880
0.22853
0.02526
-0.23338
0.18956
0.20452
0.00951
0.03670
0.18990
-0.07796
0.09575
0.10608
0.09773
-0.10857
-0.03492
0.14481
-0.11413
0.13054
-0.17601
-0.09176
-0.04055
-0.08922
0.13239
0.04308
-0.22612
0.10965
0.15406
-0.17043
-0.06647
-0.07010
0.02611
0.13447
0.11949
-0.12484
-0.11410
0.01418
-0.01546
0.08651
-0.01841
-0.03419
0.11738
0.20047
-0.02024
-0.08383
-0.10532
0.09444
-0.21297
0.01146
-0.14963
0.13648
0.06817
0.10914
-0.11739
0.19296
-0.21270
0.21482
-0.06656
0.10485
-0.15557
0.24837
0.17832
0.17491
-0.04526
0.16933
-0.10602
-0.21516
-0.07636
0.15595
-0.08218
-0.09288
0.19202
0.11839
-0.10370
-0.11529
0.03209
0.04012
-0.10287
-0.06643
-0.01713
0.07996
0.07773
0.05447
-0.23773
-0.22742
0.05439
-0.18851
0.03719
0.07174
-0.17685
-0.16354
-0.01215
0.21795
0.23339
0.13198
-0.23319
-0.23865
0.08578
0.14124
0.12025
-0.14013
0.12151
-0.05149
-0.24786
0.22412
-0.13859
0.08603
-0.02155
0.18751
0.13754
0.11726
0.23569
0.03718
0.18590
-0.22172
-0.00523
-0.02508
-0.03576
0.04159
0.11531
-0.20403
-0.05395
-0.16698
0.16924
0.01350
0.12938
0.15295
0.13049
-0.22930
0.19635
-0.17119
-0.20530
0.21407
-0.15290
-0.17525
0.23732
0.17146
0.06386
0.13084
-0.08596
0.13239
0.10575
-0.22667
-0.24466
-0.19225
-0.02407
-0.19558
-0.24571
-0.15521
-0.08358
-0.05622
0.22455
0.14267
-0.22487
0.04207
-0.21629
-0.15922
-0.15865
0.05350
0.04940
0.24132
0.00099
0.05284
0.07544
-0.14971
-0.01313
0.21508
0.09266
-0.10795
-0.13190
-0.05937
-0.16988
0.23616
0.24466
-0.24952
0.00833
-0.21224
-0.10827
0.20227
-0.10336
-0.08519
0.21988
0.04402
0.20244
0.16481
0.23003
0.17491
0.11231
0.24474
-0.20516
0.24858
-0.06394
0.04343
0.01294
0.16475
0.11505
0.00395
-0.02867
-0.12458
-0.14839
-0.24467
0.00868
-0.00410
-0.21621
0.13695
-0.20524
0.13636
0.14503
-0.11931
-0.18711
-0.07841
-0.08567
-0.03856
0.20232
-0.00646
0.21824
-0.03868
-0.08478
-0.14973
-0.13638
-0.07095
-0.19282
0.01942
0.06799
0.01182
0.10767
0.22217
-0.08101
0.10756
-0.08726
0.00125
0.20131
-0.10937
0.10527
-0.09371
0.20476
0.00000
0.00000
0.00000
0.00000
0.00000
0.00000
0.00000
0.00000
0.00000
0.00000
0.00000
0.00000
0.00000
0.00000
0.00000
0.00000
0.00000
0.00000
0.00000
0.00000
0.00000
0.00000
0.00000
0.00000
0.00000
0.00000
0.00000
0.00000
0.00000
0.00000
0.00000
0.00000
0.00000
0.00000
0.00000
0.00000
0.00000
0.00000
0.00000
0.00000
0.00000
0.00000
0.00000
0.00000
0.00000
0.00000
0.00000
0.00000
0.00000
0.00000
0.00000
0.00000
0.00000
0.00000
0.00000
0.00000
0.00000
0.00000
0.00000
0.00000
0.00000
0.00000
0.00000
0.00000
-0.15722
-0.23139
0.22471
0.10815
0.02266
-0.07245
-0.19010
-0.05132
-0.06052
-0.19806
0.11756
-0.03743
-0.17417
-0.09304
0.23924
0.07465
0.06966
0.02678
-0.21710
-0.10892
0.07893
-0.22397
0.21596
-0.03050
0.04394
-0.07802
-0.21893
0.00665
-0.03782
0.00487
0.16623
-0.24149
-0.08932
0.23075
-0.12573
-0.23190
-0.00838
-0.13298
0.13224
0.17796
-0.04604
-0.19015
0.07250
0.19444
-0.00036
-0.04088
0.13530
0.05906
-0.12230
-0.01269
0.21962
-0.10546
0.13263
0.14685
-0.10677
-0.18908
0.17625
0.08119
-0.17362
0.02130
0.19007
-0.08740
0.07775
0.01881
-0.23618
0.20315
-0.04680
-0.22419
-0.23866
0.23096
-0.05365
-0.15407
-0.23085
0.20536
0.04035
0.15674
0.01975
0.21768
-0.07374
-0.08204
-0.07674
-0.11297
0.03639
0.21383
-0.02337
0.18624
0.21053
0.08956
-0.15675
-0.11681
-0.23534
-0.10619
-0.10934
0.22281
-0.04576
-0.08098
0.16517
0.24575
-0.11060
0.08441
-0.13000
0.23384
0.10802
0.03238
-0.12632
-0.09854
-0.13328
0.21205
-0.11343
-0.03130
0.03032
-0.01706
0.15145
-0.08997
0.12354
0.21667
0.19579
0.21284
-0.21690
-0.02546
-0.06073
-0.23440
0.17019
-0.01042
0.15567
0.13285
-0.06737
-0.24396
-0.12932
0.23136
0.22342
0.24670
0.24610
-0.05141
0.08224
-0.23025
-0.00011
0.09090
0.25281
-0.11789
-0.04221
0.17322
-0.14654
-0.05837
-0.25816
-0.13339
-0.10757
0.10911
-0.15948
-0.00750
-0.20725
-0.22008
0.23069
-0.12496
0.16946
-0.09301
0.14659
0.20754
-0.23017
-0.19994
0.00211
-0.02140
-0.05130
-0.20596
-0.02805
-0.16136
-0.04768
0.14829
-0.13620
0.07275
-0.09171
0.07644
0.16922
-0.22361
0.19387
-0.03408
-0.16899
0.25462
-0.20306
0.19902
-0.07323
0.20403
-0.10995
0.25567
-0.07644
0.03812
0.19691
-0.10475
0.03138
0.15924
-0.04228
-0.04390
0.16336
0.07252
-0.10415
-0.18912
0.22568
-0.13378
0.03386
0.25303
-0.01351
-0.20630
-0.21846
0.16135
0.02235
-0.22659
-0.14877
-0.18238
0.15967
-0.02919
-0.01719
0.24522
0.07473
0.12657
-0.03063
0.20671
-0.07531
0.13411
-0.18924
0.09527
-0.07794
0.17161
0.22856
-0.11765
0.23345
0.02883
0.15694
0.01198
0.21548
0.14519
-0.11907
-0.20238
-0.25517
-0.11863
-0.25764
0.19143
0.00767
0.23200
-0.15673
0.08073
0.00927
0.23568
-0.16347
-0.23192
0.23947
0.14803
-0.02631
0.24566
0.00403
-0.14797
0.05984
0.10244
0.15635
0.25086
0.10576
0.24888
-0.15200
0.10447
0.19361
-0.23822
0.13656
-0.22828
0.22468
0.14155
-0.09957
0.17208
-0.15544
-0.12033
-0.06537
0.17024
-0.11245
0.01164
0.18629
-0.20048
-0.12439
0.13301
-0.18208
0.16029
0.20802
0.16445
0.17009
0.05792
0.24325
-0.08568
-0.22425
0.16378
-0.23757
0.21215
0.23662
-0.23938
-0.24373
-0.21281
-0.24334
0.16633
0.12668
-0.00817
-0.05738
-0.05169
-0.02283
0.12386
0.07631
0.13560
0.22290
0.19274
0.03983
-0.07795
-0.11789
0.15970
-0.07068
0.19258
0.17635
-0.13414
0.22132
-0.20474
-0.14324
-0.13520
0.15242
-0.03411
-0.09456
0.09882
0.21823
0.18177
0.10644
-0.00306
0.00831
0.13324
-0.07117
0.01739
-0.22009
-0.05985
0.05530
0.22824
-0.12000
-0.11403
-0.23676
-0.05215
-0.11981
-0.02013
-0.01731
-0.21930
0.13773
-0.23077
-0.17316
0.01948
0.24693
-0.15344
-0.23036
0.01867
-0.05870
-0.10822
0.13993
0.18778
0.15033
-0.03968
0.16282
-0.15166
0.19959
-0.24162
-0.07817
0.20530
-0.04108
0.11139
-0.24561
-0.24154
-0.17015
-0.19458
-0.21020
0.14574
0.04380
-0.23892
0.04767
-0.24802
0.06498
0.05912
-0.19102
0.19061
0.00881
-0.01409
-0.13809
-0.07701
-0.21176
-0.04172
-0.03689
0.03474
-0.06233
-0.09287
-0.16249
0.24691
0.02435
-0.25067
0.21775
0.00712
0.23306
-0.00070
-0.02646
-0.07358
-0.09738
0.15331
-0.11567
-0.08825
0.25573
0.24530
-0.19415
-0.17612
-0.19091
0.21784
-0.07845
-0.16241
-0.25478
-0.16118
0.21993
-0.16336
-0.12095
-0.16322
-0.15158
0.21349
-0.16346
-0.04978
-0.06758
0.12804
0.17171
-0.23027
0.08447
0.10388
-0.11610
-0.12928
0.03834
-0.22049
-0.15598
0.14077
0.00074
0.19425
-0.22697
0.21072
0.01110
0.16899
-0.13301
0.21206
-0.01877
-0.14037
-0.07760
-0.15369
0.13997
-0.01409
0.21066
0.09070
0.00848
-0.24192
0.18504
0.02673
-0.07076
-0.14081
0.12974
-0.06593
0.25050
0.03889
-0.03683
0.02221
-0.18939
0.24880
-0.11894
0.13809
0.11301
-0.10081
-0.18301
-0.03646
-0.09796
-0.25291
-0.01613
-0.20454
-0.02754
0.21476
-0.14689
0.01686
0.22547
-0.14926
0.08890
0.21521
0.03306
0.01495
-0.21253
0.25407
0.19560
0.10437
-0.20431
0.11653
-0.14121
0.07726
0.08365
0.06868
-0.22318
0.06018
0.04921
0.04097
-0.04943
0.10484
-0.01259
-0.19792
-0.23451
0.23779
0.02027
-0.24350
-0.18864
-0.04305
-0.00482
-0.13838
0.05980
-0.23956
0.17011
0.20735
0.11745
-0.07734
0.20732
0.11950
-0.10333
-0.14396
0.18688
0.10564
-0.17972
-0.17496
0.08922
-0.18556
0.16787
0.04864
-0.13187
0.10154
-0.21931
-0.12440
0.02581
0.20521
0.24333
-0.12409
0.18862
0.15467
0.07435
-0.15117
-0.23618
-0.17356
-0.01236
0.03343
0.18069
-0.04337
-0.11443
0.12496
-0.16333
0.24146
-0.22928
0.02106
0.22372
-0.17883
-0.10095
0.02996
0.00486
-0.03258
-0.18338
-0.08870
0.11652
-0.06495
0.16269
-0.20605
0.24914
-0.25583
-0.23836
0.18213
0.15791
-0.04476
0.00117
-0.23377
0.25026
-0.11503
0.00376
0.03928
-0.00725
0.07066
-0.12194
0.15830
-0.08669
0.09920
0.00812
0.10391
-0.10849
0.02496
-0.05405
-0.03352
0.08481
0.23898
-0.13508
0.21912
0.01026
-0.19412
-0.02535
0.15358
-0.14721
-0.00376
-0.17990
0.21720
-0.16125
0.17704
-0.15999
-0.17164
0.13464
0.06153
-0.16068
0.08255
0.18860
-0.23455
-0.16263
-0.10369
-0.01241
0.21614
0.03246
-0.00479
-0.21703
0.01252
0.07855
0.11056
-0.03585
-0.11218
-0.15868
-0.12378
0.16922
0.19303
0.19881
0.22317
-0.08517
-0.23489
0.10418
0.13307
0.20054
0.24618
-0.15286
-0.14246
0.04579
0.16334
0.20121
0.04123
0.03426
0.22713
0.14662
-0.03462
-0.07128
0.18125
-0.10730
0.18310
0.17162
0.00987
0.19355
0.21238
-0.23272
-0.12403
0.16624
-0.08965
-0.15017
0.19405
-0.12569
0.19403
0.13314
0.12849
0.02274
0.16426
0.06611
-0.18214
-0.05115
0.09801
-0.06612
-0.07514
-0.19775
-0.11784
0.23993
-0.02071
0.25158
-0.04597
-0.22999
-0.06424
-0.13895
0.19350
-0.17909
-0.01206
-0.00855
-0.07066
-0.25174
0.01075
0.17701
-0.12086
0.17081
0.21280
-0.05464
-0.00484
0.17071
-0.06318
-0.19059
-0.18721
-0.01131
0.08200
0.17223
0.15072
-0.24793
-0.19690
0.18312
-0.06310
-0.01829
0.11969
-0.05616
0.03501
-0.22551
0.10530
-0.12027
-0.10152
-0.19115
-0.14772
-0.09295
-0.03634
-0.24142
0.18733
-0.05460
0.13330
-0.15448
-0.00697
-0.04997
0.17017
-0.00288
-0.02469
-0.00843
-0.18725
-0.08672
0.15546
-0.00533
0.12382
0.08042
0.11183
-0.01975
0.05382
0.09425
-0.05506
-0.01781
0.18979
0.17640
-0.17104
0.08378
-0.05161
-0.21424
-0.06984
-0.04591
-0.06398
0.01924
0.02223
-0.23436
0.07484
-0.18428
0.20102
0.16728
0.16500
0.05717
-0.17184
0.16160
0.05849
-0.07183
-0.24474
0.06055
0.02166
0.05776
0.06992
-0.10291
0.05483
-0.12505
0.20925
0.03374
0.10060
0.10629
0.05709
0.06930
-0.01497
-0.19420
-0.20576
-0.17931
-0.15813
-0.13608
-0.15803
0.22540
-0.05546
0.15841
-0.17503
0.21606
0.12689
-0.20488
0.00467
-0.22790
0.01959
-0.12427
0.23523
-0.06342
0.05449
-0.18964
0.18508
0.09327
-0.09109
-0.01526
0.01286
0.07335
-0.00363
-0.15116
0.16372
-0.12005
0.22000
0.00643
-0.15552
0.11652
0.00634
0.22440
-0.10870
0.13758
-0.17592
-0.04908
-0.03218
-0.10960
0.15967
-0.07467
0.25803
0.17595
0.16607
0.25658
0.12066
-0.22000
-0.03849
-0.09666
-0.06659
0.12656
0.22017
-0.21753
0.17951
-0.22523
0.00291
-0.16859
-0.07433
0.09270
0.01884
0.23813
0.13682
-0.07072
0.10918
-0.09802
-0.11239
0.15636
0.05035
0.06460
-0.19200
-0.01489
-0.18661
0.15236
-0.23947
-0.11114
-0.23901
0.02287
0.13164
0.01912
0.06249
-0.25739
0.05529
-0.15268
0.18952
0.05938
-0.06560
0.14086
-0.21510
-0.16290
0.09285
0.11512
-0.16200
-0.11569
0.19407
-0.14249
-0.00788
0.09106
0.08664
-0.22271
0.05557
0.00366
-0.20967
-0.23294
0.23798
0.02083
-0.20074
-0.12225
-0.18600
0.19327
0.03129
0.09640
-0.16360
-0.10795
0.21900
0.16870
0.13013
0.11886
-0.06165
0.02990
-0.01584
0.01752
-0.06252
-0.23829
0.17551
-0.14429
0.18420
0.24129
-0.10950
0.17826
-0.14557
-0.12118
0.09655
0.08571
0.23930
0.24062
-0.05640
-0.01818
0.10716
-0.05161
0.18223
-0.18333
0.18702
-0.15900
0.14114
-0.24832
0.03614
0.13158
-0.07890
0.02171
-0.14744
0.16924
-0.18175
0.02014
0.19883
-0.10660
-0.20103
0.06747
0.01415
0.25164
-0.07009
-0.02029
-0.08307
-0.13543
0.01313
-0.12379
-0.09459
0.24715
0.11036
0.07267
-0.03187
-0.13153
-0.19389
0.19452
0.11105
-0.09910
0.23938
0.04656
-0.24249
-0.03824
0.17674
-0.13876
0.15519
-0.03672
-0.01117
0.24275
0.08476
0.13624
-0.16103
-0.08897
-0.12301
0.03151
0.09015
-0.09100
-0.21743
-0.07259
0.17690
-0.00494
0.06474
-0.11626
0.16762
0.12783
0.24454
0.20987
-0.12940
-0.03490
0.07447
0.13894
-0.16399
0.06959
0.14000
-0.21976
-0.06473
0.12592
-0.25503
0.15451
0.11366
-0.21681
0.00390
-0.18295
0.03286
-0.02376
-0.06212
-0.25198
0.10992
0.04619
0.09626
0.14648
0.25505
0.02774
0.08499
0.10086
0.00044
0.04084
-0.20481
0.22400
0.22633
0.13485
-0.02216
-0.11766
0.03907
-0.10291
-0.07490
0.15052
-0.01168
0.00767
0.21432
-0.14161
0.17612
-0.25758
-0.21869
0.16907
-0.14087
-0.08616
0.19154
0.11267
0.08219
0.14319
0.02570
0.21105
-0.13120
-0.03939
0.14757
0.10867
-0.23802
0.10512
0.14172
-0.22343
-0.10765
-0.13961
-0.21030
-0.20155
0.00774
-0.11124
-0.02121
0.09276
0.04422
-0.15260
-0.05071
0.05121
0.23187
0.17982
0.01996
-0.20745
0.04056
0.05410
-0.11679
0.22559
0.20640
0.09920
0.10650
-0.04552
0.18683
0.24299
-0.06444
-0.08191
0.14670
-0.15577
-0.01543
-0.01439
-0.04452
0.05686
-0.01006
0.20528
0.16358
-0.04285
0.17659
-0.08681
0.17397
0.17863
-0.22119
-0.17754
-0.22553
-0.07488
-0.12441
-0.12770
-0.06699
0.18156
-0.04947
-0.25477
-0.16333
0.01530
-0.23694
0.14786
0.02033
0.11348
-0.16472
0.07134
-0.13895
-0.00935
0.01060
0.08972
-0.10289
0.08699
0.05456
0.08870
-0.05232
-0.13353
-0.23064
0.03593
-0.00985
0.19189
-0.17833
-0.17933
0.12472
0.22466
-0.18912
-0.06791
-0.14661
0.20157
0.09841
-0.19615
0.15270
0.02783
0.06789
0.24602
0.13673
0.14183
-0.07523
0.13144
0.19247
-0.07376
-0.24901
0.16520
-0.18058
0.25808
-0.09693
0.23949
0.13308
0.16200
0.08979
-0.08239
-0.20324
-0.05453
0.22961
0.14033
-0.13588
0.16461
0.21955
0.04205
0.11952
-0.25465
-0.01992
0.24138
0.00962
0.23837
0.17320
-0.05652
0.21393
-0.10181
0.19467
-0.09820
0.22904
0.02651
0.08781
-0.12915
0.04009
0.23354
0.09104
-0.16193
-0.02448
0.19123
0.14892
-0.08052
-0.13894
-0.09519
0.03954
0.10242
0.14240
0.06226
-0.07824
-0.01789
0.12832
0.18889
-0.06534
-0.12863
0.03244
0.21599
-0.19555
0.04386
0.12703
0.15430
0.16833
0.25298
0.24194
-0.18947
0.17420
0.10059
-0.14448
-0.08335
0.01866
0.19187
-0.03870
-0.07266
0.19225
0.20725
-0.08934
-0.06480
-0.23732
0.25648
-0.02770
-0.15848
-0.11419
-0.00511
-0.02640
-0.19682
-0.09389
0.01700
-0.14275
-0.09109
0.06323
0.07004
0.10720
-0.23761
0.24143
-0.04481
0.15324
0.11508
-0.05434
0.07256
0.21085
0.19478
-0.05890
0.16472
-0.06335
0.16952
-0.04777
0.03729
-0.04096
-0.20695
0.05545
0.17147
-0.23955
0.14332
-0.12836
-0.01132
-0.25682
0.04212
-0.24674
-0.13355
0.18224
0.15924
-0.06616
-0.04130
0.11535
0.15225
0.12467
-0.06882
-0.15753
-0.13573
0.18424
0.25598
0.13885
-0.01659
-0.19985
-0.16953
0.24149
-0.02552
-0.09590
0.02643
0.02657
0.02011
0.06882
0.14368
-0.02650
-0.24148
0.17508
0.01308
-0.19668
0.21762
-0.02036
0.03748
-0.06308
0.02806
0.01089
-0.01172
0.23238
-0.23970
0.04641
0.13717
-0.06599
-0.22979
0.08458
-0.15288
0.05751
-0.16836
0.22353
0.13989
-0.20027
-0.14571
-0.05274
0.01190
0.07329
-0.03483
-0.03036
-0.07119
-0.10866
-0.11447
0.24122
0.09582
0.01963
0.23970
-0.05875
-0.22721
-0.09079
0.16231
0.03850
0.07654
-0.19638
-0.00353
0.07882
0.20129
-0.14465
0.07998
0.02700
0.15843
0.12336
-0.14530
-0.05236
-0.07849
-0.07402
-0.23134
0.25169
0.22983
-0.12035
0.08981
0.06861
0.03607
0.04814
-0.20730
-0.23450
-0.10701
0.18104
-0.18611
0.07430
-0.07948
-0.14513
0.24159
-0.16705
-0.10037
-0.10523
-0.24709
-0.09388
0.13632
-0.01497
-0.06586
0.21363
0.22073
0.04303
0.17019
0.15702
0.02474
-0.23797
0.20769
-0.02767
0.24820
0.25562
0.24628
-0.15166
-0.18661
0.03798
-0.07450
-0.17875
0.06878
0.24470
-0.21481
-0.00923
0.25781
-0.15665
-0.19422
0.02484
-0.16256
0.24065
-0.03498
0.06290
-0.11517
0.19613
0.05664
-0.18529
-0.04848
-0.12851
-0.18767
0.02935
-0.24534
0.00746
0.15725
-0.21019
-0.24581
0.07273
-0.23677
0.03007
-0.18747
0.22247
-0.06527
0.19115
0.09409
-0.05902
-0.21355
0.19612
-0.22118
0.20757
-0.03520
-0.21105
0.06246
0.06950
-0.10848
-0.17621
0.06475
0.25357
-0.13188
-0.20389
0.24723
0.09332
-0.24824
-0.08526
0.04702
-0.01788
-0.21485
-0.19758
0.11529
0.15406
-0.02099
0.09888
0.19925
-0.11455
0.02664
-0.21513
0.04067
-0.10240
-0.12741
0.20576
0.21454
-0.20916
-0.04822
0.24027
0.20033
0.14751
-0.12686
0.10698
-0.08138
0.07971
0.22271
-0.07097
-0.19670
0.25559
-0.24320
0.04797
0.03145
0.25028
0.00019
-0.01039
-0.05367
-0.10365
0.00077
0.00468
0.23460
0.23450
-0.01466
-0.14643
-0.19781
-0.16069
-0.22797
-0.07832
0.07104
-0.18398
0.19418
0.15094
0.24610
0.07378
-0.23340
-0.20809
0.19075
-0.17565
0.14327
-0.20845
0.10554
-0.00053
-0.15864
0.22869
0.21910
-0.09584
0.23752
0.23386
-0.18639
0.04316
-0.18478
-0.07259
-0.25321
-0.03853
0.12417
0.03512
0.02261
0.21177
-0.20018
-0.15226
0.24984
0.01767
-0.17713
-0.09910
-0.16520
0.16678
0.24244
-0.24605
-0.04514
0.10835
0.11743
0.02578
0.08629
-0.15539
-0.09498
-0.01884
-0.04937
-0.12970
-0.00431
0.18770
0.07853
0.18782
-0.11294
0.23310
0.20042
-0.00667
-0.19031
-0.18559
0.24065
0.22401
-0.09260
0.01839
-0.25203
0.20549
0.15813
0.03152
0.12167
0.14685
-0.18483
-0.03415
0.02906
0.09123
0.04542
-0.02739
0.10017
-0.12072
-0.12407
-0.24649
0.10848
-0.23851
-0.19476
0.03643
-0.19890
-0.05953
-0.17462
0.01411
-0.20154
0.14750
0.16478
-0.15499
-0.13453
-0.24667
0.12008
0.09365
0.21460
0.01450
0.17319
-0.22802
0.22140
0.22724
-0.02854
0.18061
0.01059
0.22250
0.03725
0.23285
0.07960
-0.19592
0.15757
0.01783
-0.11405
0.18315
-0.03345
-0.00217
0.20192
0.18397
0.16435
-0.23656
-0.09646
-0.16272
-0.00904
0.02775
-0.25353
0.03833
-0.05743
0.02926
-0.16362
0.06007
-0.12121
-0.08767
0.21845
-0.11116
0.09053
-0.13926
0.21885
0.17441
0.08044
-0.22384
0.08301
0.24626
0.07513
0.23250
-0.10074
0.09397
0.24365
0.18885
0.20583
0.12552
-0.21596
-0.03441
-0.09178
0.08057
0.13929
-0.10392
0.11332
0.18014
0.16683
-0.09737
-0.20086
0.25372
0.11879
0.23288
-0.06957
-0.04371
0.16131
0.08735
0.17804
0.09212
-0.09596
0.15861
0.14752
-0.07873
-0.07798
0.14118
0.09815
0.15812
-0.00578
-0.03771
-0.20978
0.00094
0.11444
-0.19897
0.17940
0.15118
0.00000
0.00000
0.00000
0.00000
0.00000
0.00000
0.00000
0.00000
0.00000
0.00000
0.00000
0.00000
0.00000
0.00000
0.00000
0.00000
0.00000
0.00000
0.00000
0.00000
0.00000
0.00000
0.00000
0.00000
0.00000
0.00000
