-0.22257
-0.14288
-0.14162
-0.00768
-0.22111
0.12266
-0.21965
0.12773
-0.15190
-0.15551
-0.18332
0.02128
0.22411
-0.09477
-0.09986
-0.09187
0.19615
-0.00778
0.04693
0.20756
-0.09434
0.15717
0.12927
0.05268
0.08372
0.23777
-0.21498
-0.18626
0.06144
0.22599
0.11723
0.04296
-0.01302
0.18400
0.01413
0.07398
-0.09192
0.12622
0.15656
0.17026
0.18012
-0.21791
0.21584
0.22243
0.12993
0.08096
-0.00088
0.03937
0.17877
0.24036
0.23124
-0.05949
0.15130
0.04401
-0.19462
0.04913
-0.13093
0.02883
0.22840
0.22925
-0.11684
-0.10250
-0.20303
-0.16923
-0.25021
-0.07757
0.26655
-0.09485
0.14530
0.02803
-0.17694
0.21637
0.00000
0.00000
0.00000
0.00000
0.00000
0.00000
0.00000
0.00000
0.12692
-0.07546
0.12433
0.10964
0.03727
0.02924
-0.02400
-0.04738
-0.11700
-0.12124
0.01275
0.06704
-0.09940
-0.05511
0.04606
-0.02407
0.06205
0.03780
-0.05979
0.07947
-0.05024
-0.12693
-0.06682
-0.04374
-0.02784
0.06054
-0.11506
0.06776
-0.04096
0.10633
-0.03920
-0.01004
0.06719
-0.03511
-0.10671
0.00785
-0.09794
-0.01353
0.00179
-0.02022
0.12892
0.10107
-0.06587
0.07738
-0.00599
0.01468
-0.09926
0.03800
-0.05659
-0.08915
0.05127
-0.10151
0.10664
0.08872
0.01301
-0.03326
-0.01921
0.10125
-0.09880
-0.04869
-0.07919
-0.05368
0.12908
-0.11297
-0.05052
0.02721
-0.06680
-0.11517
-0.02394
0.02037
0.06149
-0.06727
0.03335
-0.00951
-0.10001
0.05441
0.11094
-0.08899
-0.08541
-0.04151
0.02746
0.07633
0.06017
-0.10771
0.04867
0.01677
0.03241
0.06058
0.00478
-0.06707
0.00366
-0.05756
0.12712
-0.06203
-0.11928
0.05368
0.04058
-0.06748
-0.07145
-0.07659
-0.10118
0.08080
0.11729
-0.10748
0.12162
-0.07151
0.01602
0.03558
0.01898
-0.09026
0.09990
0.02828
-0.03976
-0.10318
0.05019
-0.04868
-0.04640
0.07912
0.07673
-0.01874
-0.10077
-0.05954
0.09784
0.01290
0.03382
0.09064
-0.10924
-0.11149
-0.02439
0.00812
-0.09117
-0.11098
0.03811
0.12043
0.04828
-0.11588
-0.10701
-0.10341
0.11121
-0.04132
0.01267
0.01164
-0.11081
0.04993
0.02924
-0.05608
0.01469
-0.04433
-0.03955
-0.08332
-0.04342
0.05015
0.02351
-0.01189
-0.09908
0.07759
0.03923
-0.10568
0.07641
-0.06899
-0.11774
-0.02050
-0.02191
0.09157
-0.01031
0.11640
-0.09111
-0.06913
-0.12797
-0.02437
0.11378
-0.07454
-0.12877
0.04431
0.09760
-0.07007
0.05545
-0.04609
-0.01501
-0.09216
0.01614
-0.05719
0.01242
-0.10083
0.07180
-0.12504
0.01996
0.06559
0.06898
0.02263
-0.07012
-0.03849
0.06781
0.09229
0.00580
0.01456
-0.01975
0.07341
-0.09912
-0.01375
-0.09334
-0.04625
-0.01636
-0.03938
0.09885
-0.01665
-0.12721
-0.12629
-0.07843
-0.05944
-0.09921
-0.00129
0.04825
-0.09898
-0.10118
0.12400
-0.01762
-0.09772
0.11385
0.12498
0.05699
-0.10247
-0.11430
-0.05717
-0.05358
0.05911
-0.00496
0.00383
0.12090
0.08379
0.05907
0.09195
0.03989
-0.03131
0.07867
0.12827
-0.05084
0.08215
0.09089
0.03867
-0.02970
-0.07254
-0.09162
0.11921
-0.06389
0.02446
-0.07420
0.02680
0.08476
0.07256
0.04227
-0.06533
0.06851
-0.08336
0.12589
-0.06751
0.07988
-0.01867
0.09351
0.04265
-0.03564
0.10498
0.06307
0.05162
0.06207
0.11335
-0.06895
0.08021
-0.00836
0.04382
0.03495
0.01865
-0.08188
0.07847
0.09165
0.02093
-0.04886
0.04662
-0.04331
0.02016
-0.10154
0.05741
-0.03153
-0.10331
0.12829
0.04955
-0.03214
0.07064
0.00917
0.01765
-0.03229
0.10962
-0.04561
-0.00037
0.09804
-0.12428
-0.04433
0.12210
-0.10623
0.12500
0.09096
-0.06050
-0.08184
-0.08334
-0.11703
0.09179
0.02622
-0.01779
0.05106
-0.08830
-0.10196
-0.06770
0.03533
-0.12119
0.03026
-0.00571
0.10011
0.03126
0.03889
-0.00132
-0.02484
0.02092
0.05135
0.06861
-0.02996
0.06703
0.03758
0.04498
0.06221
0.10703
0.07807
-0.09280
-0.01488
0.03937
-0.12608
-0.07083
0.03571
-0.09890
-0.05878
-0.01537
-0.00899
-0.04438
0.06927
0.05239
0.02513
0.03022
-0.05301
-0.09919
0.12553
-0.11905
-0.07207
-0.00203
0.02453
-0.05407
0.10822
-0.00107
-0.08594
0.07350
-0.04914
0.10254
0.08425
-0.05735
0.07858
0.09802
-0.09485
-0.02122
0.10467
0.00423
-0.10607
-0.05599
-0.01598
-0.01569
0.01051
-0.11002
0.05000
0.06818
-0.00693
-0.09220
0.05305
-0.06779
0.11992
0.01357
0.01411
0.07242
-0.03927
0.00434
-0.09752
-0.10633
-0.04673
0.08084
-0.02089
0.09083
0.01095
-0.00275
-0.10416
-0.04527
0.02433
0.06785
-0.12369
0.05283
0.05332
0.04673
0.04873
-0.10409
0.02703
-0.02613
0.08573
-0.12478
-0.09257
-0.02881
0.00222
-0.05294
-0.00133
0.00841
-0.05116
-0.05530
-0.11211
-0.12145
-0.10346
0.06680
0.02687
-0.09683
-0.08979
0.09279
0.00263
-0.09314
-0.08457
0.02982
-0.03807
-0.02870
0.12470
0.07062
-0.01749
-0.05539
-0.08443
-0.04290
-0.01994
0.06586
-0.06816
-0.09081
0.02131
-0.06677
0.04117
-0.08774
-0.09053
0.04283
0.04072
-0.12316
0.12166
0.11405
-0.02809
-0.08320
0.02430
0.10476
-0.00825
-0.00325
-0.12547
0.03017
-0.03352
-0.05159
0.12104
0.05686
-0.07506
-0.06241
0.00826
-0.09842
0.10371
-0.05518
0.04963
0.11788
0.06875
-0.03188
0.11778
0.02525
0.02148
-0.00341
0.07012
0.02783
0.07752
0.04879
0.03346
-0.06350
0.01419
0.12716
0.04002
-0.10808
-0.07323
0.03616
0.05437
0.05614
0.04235
-0.10865
0.02206
0.00841
0.07094
0.08466
-0.04447
-0.06550
-0.05750
0.10747
0.02526
0.00809
0.02425
0.10754
0.02280
0.00212
0.03731
-0.09355
0.08950
0.01184
-0.06703
0.01203
-0.10671
-0.06065
-0.05020
-0.02590
0.11134
0.11687
-0.08502
-0.01350
-0.11877
0.12734
-0.02611
0.01346
0.03344
-0.00883
0.10320
0.04641
0.10997
-0.03814
0.09116
0.01338
-0.11414
-0.07409
-0.07024
0.06299
-0.08382
-0.02656
-0.05989
-0.04404
-0.12511
0.02322
-0.04617
-0.03165
0.07414
0.09158
-0.11332
0.09041
-0.05708
-0.09347
-0.03119
-0.11005
0.08181
-0.03507
0.11040
0.02051
-0.01199
0.07930
0.05321
-0.07778
-0.06938
-0.08240
0.02669
0.07295
0.09195
0.04656
0.01761
0.04656
0.07490
0.03169
0.02549
-0.10008
0.09795
-0.09567
0.01521
-0.01652
0.06043
-0.12476
0.06379
-0.00712
0.09597
0.01846
-0.09218
-0.07651
-0.03950
-0.09195
0.04712
0.09923
-0.07274
0.03967
0.08832
0.06374
-0.10098
-0.10288
0.08874
0.06574
-0.04248
-0.10578
0.00368
0.09297
0.09610
0.07849
0.09781
-0.08295
-0.09332
0.01669
0.03166
-0.12077
0.01160
-0.02010
-0.11881
0.12611
-0.06202
-0.10947
0.12810
-0.06696
0.02949
0.12573
0.04962
-0.08687
0.04507
-0.02797
-0.09302
0.12835
0.00631
0.04772
-0.00985
0.04120
-0.08881
-0.06302
-0.02589
0.00876
-0.12676
0.11329
0.06857
0.06779
0.07699
0.00623
-0.12181
-0.12782
-0.10368
-0.08120
-0.08375
0.04242
0.12443
0.01861
-0.00068
-0.09475
-0.02255
-0.02666
-0.02032
-0.09936
0.06595
-0.10694
-0.00642
0.04737
0.11846
-0.12236
-0.12803
-0.10935
-0.12453
0.03426
-0.11992
0.06636
-0.04122
0.00232
0.09767
-0.09233
0.10670
-0.01244
-0.05947
-0.08241
-0.04450
0.07687
-0.12099
-0.07199
-0.10874
0.08101
-0.01519
0.02936
0.00807
0.07595
0.00674
-0.09337
-0.06335
0.02597
-0.00428
0.11220
-0.06345
0.12762
0.06007
-0.02668
0.02295
-0.10238
0.11425
0.04075
-0.02037
0.01838
0.05304
-0.06943
0.05336
-0.02778
0.01278
-0.10414
0.01056
0.09070
0.08396
0.05229
0.11378
-0.12371
-0.03533
0.04856
0.09091
-0.09381
0.08006
0.08222
-0.06800
0.00384
0.10706
0.11153
-0.01235
0.04150
0.06341
0.02092
-0.05366
-0.04261
-0.09461
0.08606
0.02931
0.04611
-0.09788
0.07140
0.08823
-0.02690
-0.09418
0.02083
-0.10740
-0.06245
0.03841
0.04514
0.10052
-0.00220
-0.00969
0.01696
0.08308
0.00618
-0.07308
0.02197
0.06101
-0.07601
-0.02637
-0.09985
0.06598
-0.07497
0.08807
0.12306
0.04809
-0.02517
0.07548
-0.01611
-0.01669
-0.01201
-0.06667
0.09730
0.08854
-0.00708
0.10164
0.04202
0.10043
-0.07070
0.12233
0.03960
0.05992
0.03157
0.08105
-0.02632
-0.11286
0.03966
-0.02089
0.02719
-0.08605
0.05945
0.08360
-0.06351
0.05705
0.10776
-0.00776
-0.09478
-0.12673
0.12750
0.11673
-0.05477
0.12204
-0.05689
0.08284
0.11288
0.05898
0.10911
0.04581
-0.03334
-0.09949
-0.12849
0.05935
0.12596
0.07057
-0.03946
0.06658
0.09066
0.11059
-0.12456
0.07268
0.04908
0.00197
0.01368
-0.03369
-0.09454
-0.08788
-0.04087
-0.02353
-0.11860
-0.06907
0.05397
-0.03510
0.05734
0.03662
-0.09347
-0.07266
0.02408
0.10932
0.06461
-0.08658
0.10403
-0.00321
-0.04077
0.01512
-0.07861
0.00795
-0.08342
-0.06515
-0.08814
0.09001
-0.09344
-0.11326
-0.00582
0.01253
-0.04950
0.01438
-0.09983
-0.04640
0.08575
-0.00560
-0.10017
0.09509
0.07828
-0.02218
-0.09320
-0.05287
0.05508
-0.12910
0.00338
-0.11929
0.05476
-0.00277
-0.10363
-0.09913
-0.09581
0.00204
0.10465
-0.07463
-0.02284
0.03028
0.02517
-0.11054
-0.06795
-0.01391
0.09061
-0.04925
-0.05584
-0.00822
0.11272
-0.09538
0.02841
0.12776
-0.07472
-0.01428
-0.10207
0.04049
0.00312
0.02252
0.05519
-0.08019
0.09138
-0.02163
-0.00954
0.06853
-0.08573
-0.00055
-0.11431
-0.05941
0.09977
0.03024
-0.08260
0.05695
0.12071
0.00422
0.07122
0.02008
-0.10449
0.10941
0.10127
-0.01375
-0.04888
-0.00391
0.09476
0.08467
0.01190
0.01624
-0.04310
0.11330
-0.04594
-0.10140
-0.02727
-0.06660
-0.04619
-0.03165
0.03388
-0.07857
0.11024
0.11974
0.03129
-0.00416
-0.09627
-0.09077
-0.04969
0.10693
-0.09441
0.00103
-0.06305
0.04217
0.12752
0.05297
-0.03997
0.05484
-0.12055
0.03536
0.09729
-0.10958
-0.02056
0.03762
0.06608
-0.02587
-0.06338
0.03360
0.06026
0.11602
0.00341
-0.09627
-0.07374
0.01856
-0.04759
0.10167
-0.07311
0.05687
0.03630
0.09142
-0.02034
0.00783
0.10818
0.00335
-0.02445
-0.00428
-0.08916
-0.01330
0.09962
-0.09219
-0.08833
0.09665
0.10813
-0.04087
0.09809
0.09678
-0.03259
-0.00540
-0.06121
0.04595
0.04218
-0.03205
-0.00224
0.01586
-0.03699
-0.08647
0.12258
0.11025
0.09178
-0.03889
0.12748
-0.09204
-0.05109
0.08399
0.08637
-0.02051
0.02543
0.09286
-0.01433
0.06766
0.00104
-0.04956
0.03260
-0.09934
0.07391
0.04208
-0.06087
-0.08529
0.02622
0.01684
-0.05702
-0.12221
-0.10554
0.04890
0.10891
0.12662
-0.03631
0.04032
-0.12062
-0.01897
0.04517
-0.04182
0.08345
0.01931
0.09611
0.00564
-0.00397
0.08565
0.00015
0.10223
-0.05810
-0.01024
0.11146
0.01221
-0.09951
-0.10273
0.04131
-0.11071
-0.05290
-0.07852
0.06120
0.04735
-0.05655
0.10089
-0.01049
-0.03578
-0.02292
-0.06731
0.01712
-0.03103
0.09440
0.04399
0.06288
0.07319
-0.04540
0.11160
0.10851
-0.06998
0.09867
-0.10200
-0.00569
-0.02520
0.12400
-0.02648
0.02251
0.09106
-0.02514
0.10051
0.07481
0.05893
-0.09392
0.01457
-0.03460
0.09940
-0.12471
0.03372
0.02796
-0.12632
0.10643
0.02880
0.06746
-0.00748
0.00727
0.02134
-0.08587
-0.08451
-0.05284
-0.10694
-0.10722
0.12847
0.12380
-0.08362
-0.08250
-0.08863
0.08278
0.03609
0.11507
0.06227
0.09556
0.08820
0.07000
0.08295
-0.00252
0.07664
0.00879
0.11348
0.00204
-0.06432
0.05703
0.04824
0.00462
-0.06380
-0.06234
0.06307
0.07112
0.12382
-0.09041
-0.05104
0.00650
0.04918
0.02095
0.03941
-0.04779
-0.08111
-0.01368
-0.06211
0.04068
0.03019
-0.06491
0.08079
0.00966
0.07564
-0.10728
-0.09371
-0.12096
-0.05314
0.01894
-0.11746
0.01885
0.02673
0.05301
0.10082
-0.10118
0.09996
0.12102
-0.01893
-0.04442
0.02086
0.03669
-0.11005
-0.01239
0.02025
0.06404
0.08484
0.08927
-0.01338
0.08384
0.04830
-0.09762
-0.09617
-0.07751
-0.11459
-0.09738
-0.09838
0.05304
0.10810
0.05122
-0.08336
-0.08735
0.10437
0.03733
0.08267
-0.05555
-0.11889
0.03630
-0.09332
-0.11040
-0.08278
-0.08802
-0.11547
0.07920
-0.10945
0.05854
-0.05113
0.12872
0.05073
-0.12578
-0.10403
0.07647
0.01421
-0.07416
-0.06449
-0.00558
-0.08586
-0.01628
0.08055
-0.11414
0.04078
0.03103
0.11814
-0.04865
-0.00587
0.00292
-0.10469
0.00695
0.06515
0.05995
0.02897
-0.03332
-0.09606
-0.02028
-0.08985
0.04033
-0.04688
0.01090
-0.08773
0.05854
0.03863
-0.04524
-0.06829
-0.01888
-0.07122
-0.05626
0.04602
0.10669
0.11660
0.02901
0.07401
-0.02381
0.00939
0.10346
0.09941
0.00175
0.03183
0.05069
0.08264
-0.10123
-0.06986
-0.09056
-0.01455
-0.07702
0.08495
-0.04090
-0.12740
0.09782
-0.10828
0.03448
-0.06671
-0.05638
0.05671
-0.10991
-0.02724
-0.02622
-0.02353
-0.02382
-0.05904
0.04065
0.05336
-0.07076
-0.06539
-0.09666
0.12633
-0.01849
0.04467
0.09402
-0.01833
-0.08141
0.12390
-0.02616
0.08907
-0.09315
0.03221
-0.01043
0.09411
0.09111
0.04105
-0.01936
-0.11535
0.10754
-0.06701
0.01016
0.01828
-0.09373
-0.11839
-0.06337
-0.03067
0.08473
-0.09102
0.10260
0.07410
0.10171
0.10472
0.10420
-0.09245
0.10811
0.11698
-0.07338
-0.01535
-0.03199
-0.03970
0.00653
0.02102
-0.01201
-0.06176
-0.00507
0.09730
0.02651
0.00916
-0.11117
-0.05867
-0.09671
-0.05218
0.06752
0.04636
-0.12208
-0.08855
0.11744
-0.04931
-0.04119
0.01380
-0.03652
-0.05332
-0.04530
-0.00473
0.01824
-0.05037
-0.01211
-0.06239
-0.00555
-0.10693
0.00238
-0.00722
-0.05489
-0.03669
0.05906
0.05162
0.10352
-0.06904
-0.07157
0.06943
0.01873
-0.09896
0.11827
-0.03571
-0.00860
-0.01822
0.05905
0.00163
-0.02706
0.00236
0.07011
-0.10089
-0.05307
-0.04172
-0.07908
-0.10900
-0.00460
0.11727
0.12591
0.03512
-0.10679
0.09322
-0.01437
-0.05776
0.12523
-0.00827
0.02689
0.00501
0.00308
0.02398
0.01634
-0.02377
-0.09333
0.04582
0.07647
-0.02992
-0.09623
-0.08654
0.04700
0.02227
-0.02101
-0.04759
0.12781
-0.11977
0.01504
0.02171
0.04216
-0.02356
-0.00394
0.11175
-0.04607
0.05409
0.05331
-0.00846
0.06969
0.11592
0.11086
-0.00758
-0.04273
0.01337
-0.10077
0.10267
0.08801
0.08392
-0.10997
0.04727
0.11573
0.12151
0.08943
0.07616
0.07477
0.04389
0.05064
-0.12529
-0.07174
0.04825
-0.07513
0.12729
0.00095
0.01589
-0.12808
-0.08493
0.00214
-0.05126
0.10655
-0.10040
-0.09425
0.03334
0.06411
-0.02117
0.07816
0.02059
0.06823
0.04552
0.05422
-0.09086
0.06175
-0.07457
-0.00301
-0.03378
0.12812
-0.04410
0.05684
-0.07945
-0.09116
0.09663
0.05798
-0.07662
-0.11803
-0.07371
0.07917
0.10117
-0.03201
0.12344
0.12567
-0.04181
-0.11612
-0.06441
0.11598
0.05984
-0.06859
0.05009
0.05864
-0.06465
0.06033
-0.04858
-0.00926
0.09319
0.00995
0.05918
0.03694
-0.10263
-0.11401
-0.02475
0.07051
0.04371
-0.02971
0.10072
-0.01206
0.01626
-0.07166
0.09401
0.11380
0.08249
-0.10205
-0.01028
-0.04181
-0.04341
-0.01182
-0.02559
0.11838
-0.02340
-0.02404
-0.06897
-0.06411
0.04933
0.03928
0.06721
0.09521
-0.11853
0.05185
0.04925
-0.12711
-0.04496
-0.04378
-0.12347
0.08573
-0.10685
-0.07539
-0.01024
0.08006
0.10894
-0.10913
-0.07550
-0.00654
-0.12495
0.09763
0.10967
0.00090
-0.07347
-0.03609
0.08933
-0.06918
-0.04021
0.10737
0.03856
-0.08024
-0.07432
0.07934
0.05611
-0.11159
-0.04821
0.10041
-0.06324
-0.11518
-0.04506
-0.01993
-0.03002
0.10388
-0.10822
0.01713
0.01398
-0.12116
0.03904
-0.12680
-0.12048
-0.06235
0.11811
-0.12013
-0.10566
0.07991
-0.03819
0.00043
-0.10799
-0.11076
-0.05025
0.06225
-0.08452
-0.02569
0.09244
0.01459
-0.11855
0.11462
-0.07294
0.04156
-0.02147
-0.11303
-0.08179
0.10570
-0.01438
0.03009
-0.08982
-0.10457
0.07998
-0.08505
-0.01314
-0.10679
-0.03759
0.12765
-0.11247
0.06191
0.03286
0.07319
0.06441
-0.02350
-0.06414
-0.07899
0.07732
0.02980
-0.11680
-0.01409
-0.01773
-0.09982
-0.07745
0.12646
0.06240
-0.07358
-0.11418
-0.12582
0.01650
0.05427
-0.04916
-0.02696
0.04000
0.08229
0.06658
0.08160
0.03932
0.06204
-0.00749
-0.12765
-0.01473
-0.08500
0.11820
-0.05813
-0.00495
-0.06781
-0.00480
0.08891
0.00808
-0.12721
-0.03932
0.04335
0.07743
0.08130
0.09875
0.01161
-0.10054
-0.06450
-0.12083
-0.07146
-0.08154
0.04737
0.11290
-0.07177
0.03207
0.03521
0.06654
0.00138
-0.10025
0.04280
-0.05043
-0.01441
0.08660
-0.10724
0.01354
0.01947
0.01577
-0.07863
0.06686
0.05286
-0.05783
0.02019
-0.11391
0.11690
-0.06948
0.09429
-0.06921
-0.09268
0.05609
-0.11630
0.02610
-0.01735
0.12828
-0.11803
0.10506
0.02677
-0.06499
-0.04663
0.03497
-0.07393
0.04762
-0.00400
-0.00854
-0.12563
-0.05113
-0.02103
-0.09494
-0.08248
0.06360
0.11215
0.02799
-0.09189
0.00222
0.07832
-0.05315
0.03475
0.06139
0.06191
0.03770
0.08450
0.11841
-0.09470
0.00190
-0.08855
0.11519
0.00703
-0.00193
0.06304
0.10357
0.02256
-0.06427
0.07480
-0.06414
-0.08442
-0.08792
0.08532
0.08070
-0.08777
-0.12442
-0.06909
0.04976
-0.11954
0.11771
0.09234
0.00152
0.02809
-0.04400
-0.00969
-0.10877
-0.12263
-0.07034
0.00931
0.10779
0.11158
0.06462
0.12129
-0.01308
-0.07082
0.03383
0.06194
-0.03162
0.04545
0.04374
0.03158
-0.08467
0.07251
0.07017
0.04561
-0.06032
-0.05721
-0.07471
-0.02386
0.08683
-0.06325
-0.12468
-0.12122
-0.06644
0.10486
-0.07123
-0.11323
-0.02889
-0.09641
0.04216
0.07782
-0.03589
0.04177
0.07613
-0.10989
0.11870
-0.08212
0.09737
-0.08995
-0.10402
-0.10228
0.04860
-0.02570
0.07456
-0.00524
0.07617
0.12698
-0.06016
-0.06781
-0.05046
-0.10451
0.01051
-0.06458
-0.00330
0.02556
-0.03074
-0.10712
0.09499
0.02167
-0.12715
0.07974
0.01282
-0.06312
0.06000
0.10412
-0.11766
0.06818
0.03217
0.02593
-0.07734
-0.12707
-0.08780
0.07044
-0.07532
-0.11161
-0.02890
0.10511
-0.00105
0.08875
0.05401
-0.10043
0.10477
0.00646
-0.00987
0.01542
0.12681
-0.05799
-0.09779
-0.04313
-0.09152
0.05760
0.09507
-0.06029
0.06166
-0.06998
-0.05051
0.12154
0.02242
-0.00833
-0.03583
-0.10172
-0.10088
-0.04015
-0.07076
0.03813
0.12173
0.03014
-0.08699
-0.08418
-0.11728
0.09553
0.10197
0.09941
0.11463
-0.02657
-0.04459
0.12263
0.08781
0.01875
0.00651
-0.02293
-0.10186
-0.08266
-0.06478
-0.08522
0.00081
-0.05702
0.05887
0.05534
-0.01063
0.01630
-0.10405
-0.03204
-0.06897
0.04363
-0.05333
0.06725
0.00180
0.01253
-0.06225
0.05437
0.11650
0.03189
-0.10124
-0.01844
0.01718
0.03669
0.12087
0.00001
-0.00126
-0.08079
0.04904
-0.07602
-0.11279
0.01516
-0.06673
0.05936
-0.03634
0.05388
0.08895
0.05342
-0.02879
0.07139
0.10923
-0.02674
-0.01503
0.12512
-0.00983
0.10344
-0.00580
-0.05251
0.00217
-0.08719
0.10882
-0.02400
-0.01845
-0.05888
-0.08333
0.01610
-0.11905
0.05014
0.08803
-0.04265
0.06508
0.06776
0.10562
0.04869
-0.07395
0.04544
0.02315
0.12634
0.01862
0.08701
-0.05550
-0.02136
0.10577
-0.10241
0.05838
0.01533
0.01124
0.06331
0.06419
0.10154
0.05146
0.01883
0.12809
-0.11801
0.05954
-0.10345
0.01358
-0.09552
-0.07067
0.12230
0.04284
-0.02499
-0.09252
0.02442
-0.01724
0.09376
0.01159
-0.05712
-0.05221
0.10835
0.11194
0.02786
-0.04906
0.08185
0.08491
0.10880
0.09966
0.03603
-0.03341
0.08774
0.07463
-0.12368
-0.06613
-0.05211
0.10980
-0.12044
0.06112
-0.12349
0.00248
0.03029
0.07909
-0.06257
-0.09832
-0.02183
0.08854
0.02051
-0.07291
0.04435
-0.03146
0.06437
-0.04305
0.05500
-0.12750
-0.00384
0.03706
-0.06721
0.10407
-0.02008
0.07009
-0.05319
-0.04343
-0.11965
0.11935
-0.02884
-0.00702
-0.03155
0.09610
-0.07048
-0.09643
-0.11807
-0.03023
-0.05962
0.03212
-0.11053
-0.03983
-0.01426
-0.01252
-0.12648
0.06226
-0.10138
0.08993
0.09156
-0.00878
0.12474
0.09155
0.05837
0.00394
0.09766
0.04116
-0.04645
0.06423
0.04652
0.03082
-0.10423
0.04437
-0.05503
0.02129
-0.11096
0.04836
0.08489
0.04467
-0.01022
-0.03963
-0.12007
0.06229
0.02572
-0.00099
0.04570
0.02518
-0.08475
0.05566
0.12376
0.01773
-0.00374
0.09008
-0.04499
-0.05489
-0.12366
0.02818
0.09095
-0.04891
0.09966
0.08050
0.05319
-0.11506
0.11007
0.09326
0.02499
-0.05044
0.12756
0.06234
-0.12801
-0.06787
-0.06611
0.03344
0.03856
0.12250
-0.08093
-0.00663
-0.03330
0.09940
0.07319
-0.08325
0.10186
-0.02916
-0.05311
0.06666
0.05424
-0.00503
-0.09365
0.03494
0.09457
0.01320
0.02100
0.07816
-0.06836
-0.00662
-0.09188
0.08831
0.11187
0.11605
0.09012
-0.12485
-0.01360
0.08393
0.07702
-0.06582
-0.03637
0.07913
0.07159
0.02600
-0.03145
-0.02666
-0.02299
-0.08987
-0.09891
0.01600
-0.01366
-0.11187
0.11910
0.00692
0.00696
0.07107
0.05119
-0.10936
0.07700
-0.12666
0.06066
0.00758
-0.03251
0.01204
0.08308
-0.01283
-0.09302
0.02121
0.03933
-0.12586
0.07766
-0.11054
0.02625
0.06621
-0.04352
-0.04286
-0.03029
0.08813
-0.01900
-0.06802
0.05042
-0.05391
0.05040
-0.08314
-0.10018
-0.04185
0.02775
-0.00229
0.03646
0.11678
0.09055
0.06331
-0.09499
0.06178
-0.03901
-0.10706
0.07020
0.09881
-0.12735
-0.05293
-0.02987
-0.05843
-0.12648
0.07329
0.10731
-0.08198
0.02794
-0.02851
-0.03928
0.07750
-0.05484
0.05928
-0.07342
-0.10400
0.03061
-0.08576
0.02536
-0.08005
0.09550
0.06938
0.06269
0.00629
-0.01193
0.11865
0.09880
-0.02768
-0.08086
0.09100
-0.11932
-0.11703
-0.06056
0.08817
0.08067
0.10519
0.00115
0.06348
0.08213
-0.11254
-0.02366
0.05838
0.00202
0.01128
-0.08412
0.06565
0.00671
0.09157
0.12329
-0.07230
-0.11465
0.06833
-0.07909
-0.04589
0.03778
-0.12881
0.03210
0.08917
-0.02544
0.06191
0.03008
-0.12106
0.03856
-0.11963
-0.02236
0.04361
-0.02164
-0.10836
0.09153
0.06893
-0.08676
-0.12737
-0.10983
0.01756
0.08112
0.07177
0.11617
-0.00851
0.02384
0.10220
0.03504
0.10057
-0.08045
-0.09092
-0.08115
-0.09405
-0.06253
0.06181
0.09146
0.09947
0.07496
-0.11222
-0.10301
-0.10961
0.03228
0.01123
-0.06287
0.06293
0.03059
0.12262
-0.05885
-0.09342
-0.07114
-0.00075
-0.05370
-0.04603
0.07821
-0.12798
0.02347
0.01652
0.08161
-0.06052
0.10457
0.06011
0.01671
-0.05423
0.01975
-0.10052
0.10756
0.08739
-0.09210
0.04390
0.05337
-0.09357
-0.10282
0.04973
0.07014
-0.03845
-0.00082
-0.09175
-0.01920
-0.12633
0.03344
0.04640
0.02979
0.11652
-0.07371
0.07123
0.00326
-0.06585
-0.07804
0.05031
-0.07043
0.12507
0.12493
-0.04601
-0.05373
0.00000
0.00000
0.00000
0.00000
0.00000
0.00000
0.00000
0.00000
0.00000
0.00000
0.00000
0.00000
0.00000
0.00000
0.00000
0.00000
0.00000
0.00000
0.00000
0.00000
0.00000
0.00000
0.00000
0.00000
0.00000
0.00000
0.00000
0.00000
0.00000
0.00000
0.00000
0.00000
-0.22765
0.15378
0.16834
0.23543
0.15177
-0.01047
-0.09346
-0.18861
-0.21254
0.18834
-0.16635
-0.00363
-0.03506
-0.06419
-0.01179
-0.00460
0.18035
0.17937
0.01552
-0.02459
0.12871
0.03030
0.08689
-0.05531
-0.13914
-0.24208
0.13116
-0.05083
0.18936
0.09604
-0.23979
0.03238
0.03697
-0.10811
-0.21931
-0.17962
-0.09188
-0.11601
-0.10822
0.19641
0.20391
-0.10768
-0.06380
0.06283
0.17565
-0.02904
0.19417
-0.13422
0.17389
-0.06578
-0.03695
-0.13100
0.17037
0.08760
0.19584
-0.10295
0.12766
0.20278
0.20647
0.24147
-0.07306
-0.09513
-0.23270
-0.00361
-0.03075
0.13280
0.03694
0.12606
-0.09700
0.04463
-0.03498
0.15605
0.23446
0.03829
-0.02627
0.00831
-0.17344
0.17909
0.15655
-0.03756
-0.07209
0.06704
-0.01854
-0.13264
-0.10425
0.04663
-0.11690
0.06642
-0.24394
-0.10872
-0.11790
0.17842
0.15921
-0.15621
0.01538
-0.02937
-0.21289
-0.23729
-0.00601
0.13729
0.12513
0.08366
0.13782
-0.08200
0.04284
-0.12091
-0.23873
0.13192
-0.24018
-0.00766
0.13041
0.08755
0.05369
0.04008
-0.09569
0.04992
-0.18013
0.12878
0.18447
-0.08215
-0.22659
-0.06044
-0.08882
0.14856
0.04096
0.02606
-0.20434
-0.19369
-0.21504
0.08729
0.00666
-0.14038
-0.18409
0.11287
0.22029
0.09440
-0.00673
0.00297
0.23716
-0.00155
-0.10508
-0.22548
0.04508
0.11504
0.06736
-0.01831
0.15251
0.02101
-0.23152
-0.24582
-0.10565
-0.20264
0.19038
0.16443
-0.09416
-0.04835
0.00713
-0.14766
-0.09986
-0.15474
0.19035
-0.20424
0.04363
0.16273
-0.03707
0.04439
-0.16308
0.10151
-0.18758
-0.10075
0.14997
-0.21890
0.18425
0.03791
-0.12011
0.15283
0.04658
-0.16394
-0.17192
0.22851
-0.17663
-0.20910
-0.17835
-0.19126
0.19701
0.23241
0.14810
0.07431
0.18637
0.21245
-0.02736
-0.15543
0.12387
-0.02905
-0.08119
-0.10257
0.19773
-0.16409
0.19150
0.14824
0.15012
0.23569
-0.22326
0.13139
-0.10157
0.04735
-0.21643
-0.20885
-0.24904
0.19868
-0.21643
0.23653
0.10075
-0.17800
0.16047
0.06251
-0.15025
-0.16727
0.22217
0.14862
-0.06616
0.11443
-0.16970
0.14180
-0.21113
0.19432
-0.24857
0.19877
0.16109
-0.12973
-0.07075
-0.07848
-0.16532
-0.10595
0.02857
-0.13939
0.13497
-0.19565
-0.21948
-0.17904
0.05674
-0.19786
-0.16693
0.20114
-0.20972
-0.01896
-0.20168
-0.02790
-0.10993
-0.11175
0.15078
0.18998
-0.07598
0.06147
-0.19078
0.04784
0.15185
-0.06350
0.21964
0.02750
-0.01113
0.18167
0.01230
0.08667
-0.20456
-0.03189
0.05761
-0.17571
-0.04522
-0.10822
-0.11022
0.21403
-0.09589
-0.12176
-0.20679
-0.06674
-0.04955
-0.24795
0.17137
0.07853
0.04447
-0.17447
0.06583
-0.07095
0.09905
-0.06423
0.11145
0.16860
0.16478
-0.19122
0.14413
-0.16896
0.07224
0.02625
0.01949
-0.10808
-0.22704
0.03242
-0.09257
-0.05084
-0.05281
0.04435
-0.01928
0.00924
-0.05294
0.15472
-0.20239
-0.00876
0.11510
-0.08663
-0.04883
-0.00230
-0.13927
-0.16003
0.16178
0.00489
0.16251
-0.16212
0.02210
0.14472
0.01126
-0.03533
-0.23315
-0.23265
-0.19435
0.22343
0.14682
-0.19364
0.05307
-0.00097
-0.11333
-0.08194
0.12152
0.17895
0.08891
0.03648
-0.24280
-0.10377
-0.03230
-0.20610
0.12452
-0.17470
-0.01239
-0.22388
-0.12585
0.15645
-0.08113
-0.01704
0.11474
-0.02776
0.18493
-0.19260
0.15706
0.06570
0.16222
0.00804
-0.24547
0.16058
0.23612
0.02283
0.06622
-0.18884
0.01371
0.02428
0.07932
0.10116
-0.18288
0.05894
0.21567
0.22396
0.20551
-0.22543
-0.07127
0.12171
0.14756
-0.17944
-0.02184
0.01427
0.09512
-0.18735
0.00582
-0.20069
0.10817
0.22220
-0.03021
0.04753
0.10913
0.14967
-0.13742
-0.01520
-0.01682
0.18031
-0.09611
0.09018
-0.04284
0.08218
-0.02012
0.22984
-0.21057
-0.11009
-0.09220
0.03116
-0.16363
-0.19566
0.07004
-0.01484
-0.07380
-0.17010
0.14677
-0.09666
0.06704
0.21135
0.19456
0.18387
0.09146
-0.12467
-0.17350
-0.00409
0.18032
0.21156
-0.12648
-0.19543
-0.14805
0.13519
0.24790
0.08876
-0.09350
0.03430
-0.23727
-0.06590
-0.15007
0.14860
0.02365
-0.03590
0.19878
-0.00840
0.15672
0.15053
0.07262
0.09613
0.06331
0.00961
0.12844
0.22651
0.22648
-0.18362
-0.11656
-0.03614
-0.17472
-0.09009
0.04759
0.06758
-0.17862
-0.07305
-0.23196
-0.14389
0.14442
0.11437
0.10948
-0.22071
0.14630
0.20701
0.24572
0.22402
-0.14083
-0.13519
0.22344
-0.17162
0.22958
0.05913
0.12702
0.01711
-0.20537
0.00310
0.18924
0.10801
0.05335
-0.12668
0.18693
0.08428
0.00983
0.10260
0.23420
-0.22013
0.16326
-0.18011
0.03375
-0.21210
0.16542
0.02058
-0.06643
0.16264
-0.07985
0.03460
-0.22317
-0.04485
-0.23689
-0.02846
-0.00018
0.01481
-0.22772
-0.05485
-0.15320
0.23978
0.21366
0.18818
-0.00861
0.23648
-0.10044
0.20696
-0.08831
-0.21524
-0.06958
-0.00024
-0.23790
-0.18214
0.04799
-0.02147
-0.00446
0.07127
-0.00232
0.11374
-0.14418
-0.20980
-0.14478
0.16810
-0.11981
-0.18732
0.10013
0.16310
0.11150
0.15471
0.00528
-0.03557
-0.16925
0.23953
-0.01603
-0.00208
-0.04631
-0.23436
-0.10304
-0.02882
-0.15284
0.22173
-0.22591
0.05229
0.12610
0.00162
0.23835
0.01250
-0.11870
-0.07848
0.10086
0.07762
0.24454
-0.09611
-0.14304
-0.15684
-0.03932
0.16031
-0.17920
0.13821
0.11150
-0.22922
-0.07049
0.11278
-0.06686
0.13618
-0.04332
0.17670
0.15958
-0.07497
-0.15695
0.05977
-0.23882
0.24467
0.15495
0.24626
-0.06053
-0.06803
0.22458
0.21079
0.11868
-0.09861
0.03997
0.22564
-0.09291
0.24203
-0.17949
0.12068
-0.06137
-0.20234
-0.17043
0.04370
-0.01797
0.00060
-0.14425
0.04594
-0.18609
-0.16928
-0.02956
-0.00376
0.19658
-0.04500
0.07069
0.02675
-0.01637
-0.22328
-0.24467
0.09071
0.21922
-0.01052
0.06676
-0.17830
-0.23694
-0.04103
-0.02044
-0.06542
-0.16335
-0.03554
-0.24374
-0.24343
-0.13953
-0.05752
-0.23812
-0.09479
-0.22400
-0.19023
-0.20083
0.04111
0.20609
0.09798
-0.11053
0.04550
-0.17714
-0.23582
0.19696
-0.07231
-0.15235
0.06545
-0.13414
0.18137
0.06450
-0.18506
0.19073
0.21776
0.10425
-0.24191
-0.15898
0.17122
-0.18721
-0.16222
0.17258
-0.18861
-0.19219
-0.07364
-0.06896
0.03393
0.23083
-0.06230
0.10377
-0.06854
-0.16272
0.01055
0.06114
-0.01782
-0.21994
-0.15306
-0.00097
-0.10242
0.17758
-0.10560
0.06107
-0.02603
0.12518
-0.03562
0.01302
0.24416
0.02559
-0.24894
-0.24470
-0.21600
0.04675
0.19366
-0.12308
-0.12154
-0.01426
-0.11535
-0.22663
0.03355
0.11209
-0.09526
-0.23499
-0.06229
-0.05148
-0.11056
-0.11570
-0.20610
0.13901
0.14670
-0.18346
0.05726
0.13265
0.08575
0.03691
-0.00083
-0.20580
0.17102
-0.08971
-0.22194
0.17722
-0.18511
-0.12696
0.07977
-0.22426
-0.19703
0.13656
-0.03887
0.05052
0.13295
-0.14683
0.00145
-0.00369
0.15564
-0.16806
0.15728
0.13918
0.15609
0.03520
-0.03488
-0.09883
0.11148
0.05173
-0.17642
0.07517
0.23821
0.08458
-0.14220
0.23118
-0.11492
0.14692
0.08713
-0.21356
-0.23776
-0.17515
-0.07128
-0.13141
-0.21548
-0.20769
-0.21567
0.23250
-0.20174
-0.05716
0.19023
0.14798
0.24263
0.23653
0.02769
0.23184
0.22404
0.23883
-0.05176
-0.02571
0.22708
-0.00807
0.18415
-0.01368
-0.11187
-0.02830
0.19208
-0.08688
-0.12467
-0.18040
-0.22348
-0.16873
-0.08584
0.24228
0.08513
0.14106
0.22924
0.21899
0.21916
0.13829
-0.18634
0.06477
-0.18297
-0.06963
0.09028
0.03830
0.14633
0.21743
-0.08587
0.06011
0.23691
0.06650
0.23317
-0.18716
0.11989
0.00998
0.19639
-0.22149
0.09003
-0.24978
-0.15564
0.18178
-0.02123
0.08691
-0.20751
-0.04364
0.08957
-0.07230
0.10852
0.04308
0.24506
-0.02840
0.20627
-0.11058
-0.05549
0.20084
0.10145
-0.15164
-0.02417
0.01734
-0.08814
-0.11946
-0.23443
-0.13637
0.05060
0.18096
0.00897
0.10895
0.17288
-0.21439
0.24887
0.10895
0.15452
0.07472
-0.08115
0.15629
0.04613
-0.03927
0.03074
0.20345
-0.05591
0.09171
-0.01894
0.22741
0.09237
0.18474
0.12482
0.22881
0.07602
0.07250
0.10760
0.19728
0.20508
0.02787
0.15021
-0.03858
-0.11682
0.22957
0.11826
0.20482
0.19187
-0.12988
-0.07905
-0.02895
-0.15248
-0.03021
0.01295
0.05392
0.07325
0.01336
0.08088
0.10806
-0.04515
0.04555
-0.13191
-0.22860
0.16379
-0.15760
-0.03818
-0.18298
0.16176
-0.12326
-0.01396
0.15671
0.18381
-0.07656
0.21723
-0.08543
-0.20852
-0.12395
0.14551
-0.19350
-0.20016
0.08284
-0.12477
0.18133
0.18292
-0.11025
0.14195
0.00978
0.23777
0.08022
-0.00520
-0.23096
0.03736
0.18972
-0.20697
-0.13686
-0.14962
0.01740
0.02362
0.24613
-0.19906
-0.03315
0.05076
0.01553
-0.06373
0.03286
0.15508
0.10077
0.24838
0.14709
-0.18043
0.21351
0.01144
-0.17660
-0.06958
0.17821
0.11085
-0.13870
-0.03842
-0.09658
-0.09090
0.11769
-0.22649
-0.12061
-0.07504
-0.24523
-0.13347
-0.20846
-0.19211
-0.04226
-0.23973
-0.01926
-0.02973
0.06918
0.19393
0.20604
0.07787
0.04645
0.00795
0.23840
-0.20780
0.05027
0.00328
-0.19123
0.00384
0.00499
-0.00013
0.08134
0.10005
-0.22970
0.16933
0.23284
-0.14501
0.07386
0.08785
0.04982
0.19461
0.13216
-0.13005
-0.12772
0.20441
0.03596
-0.07490
-0.10955
0.15891
-0.01390
0.09816
-0.06361
-0.11743
0.06682
0.08162
-0.06367
0.17607
0.16034
0.21320
-0.02354
0.09320
-0.19249
0.17107
0.22134
0.18871
0.19489
-0.22232
-0.21168
0.12454
0.02866
-0.07595
0.01240
0.14569
-0.20505
-0.02868
-0.00726
-0.01041
-0.08667
0.12347
0.24936
0.09929
-0.24429
-0.14579
0.09225
-0.23131
0.24055
0.13002
0.12962
-0.21412
-0.03084
-0.22431
-0.12006
0.19821
0.17331
0.11207
0.23149
0.12529
0.13628
-0.01440
-0.13608
-0.13022
0.14206
0.23029
-0.04327
-0.08515
0.02758
0.08973
-0.12941
0.09486
-0.21666
-0.02648
0.05281
0.11324
0.23908
-0.18278
-0.05735
0.24769
0.12793
-0.18827
-0.02224
0.04683
0.12461
-0.04171
-0.15419
-0.20882
-0.13736
-0.02042
0.11630
-0.23281
0.00585
-0.03463
-0.12177
0.16385
-0.07023
0.11349
-0.21752
-0.02550
0.11652
-0.20356
-0.23725
-0.02758
0.16951
0.04747
-0.12037
0.22564
0.06755
-0.05917
0.09135
0.03217
-0.08400
-0.18230
0.21353
-0.03812
0.15446
0.07625
0.04689
0.08383
-0.08900
-0.16563
0.23402
0.05761
-0.22944
-0.20701
-0.13531
0.09880
0.03580
-0.14650
-0.24689
-0.14059
-0.20900
-0.23335
0.22584
-0.18479
0.23631
-0.22745
-0.16788
0.11082
-0.16759
0.04986
0.13929
0.14896
0.11323
-0.06811
0.01444
-0.08166
0.13507
0.15215
0.15710
-0.11386
-0.19322
-0.05529
-0.20316
0.09600
0.23286
0.22279
0.19411
-0.11516
-0.23400
-0.16619
0.00817
-0.03117
-0.04255
-0.04100
-0.04901
0.04427
0.22331
0.07320
0.00607
-0.21602
0.02024
-0.02892
0.09544
-0.16501
0.08248
0.21816
-0.23549
0.04866
0.15744
-0.24340
-0.12802
0.24487
0.01488
0.01042
-0.17625
0.04630
-0.24230
-0.23735
-0.14049
-0.10215
-0.09710
-0.08808
-0.12531
0.08289
0.24212
0.23484
-0.00802
0.24058
-0.14153
-0.05922
-0.18155
-0.13003
-0.01505
-0.12697
0.12735
-0.04923
-0.05138
-0.15418
-0.12908
0.03924
0.15382
0.09744
-0.14790
-0.16031
-0.04249
0.21437
-0.07385
-0.02625
-0.09342
-0.24667
0.04335
0.14074
0.12504
0.15720
-0.04233
0.06086
-0.04513
0.09013
-0.20291
0.16827
0.10794
0.20845
-0.06151
-0.20745
-0.22642
0.00153
0.19303
-0.13564
-0.07141
0.20309
0.05689
0.14044
-0.20995
0.21106
0.23608
-0.14667
0.22593
0.07028
-0.01638
-0.04140
-0.04743
0.05982
-0.18133
0.15778
-0.18902
0.21602
-0.04582
0.14975
-0.09375
0.13315
-0.23129
0.24715
0.04990
0.11914
0.00265
-0.06491
-0.03194
-0.10017
-0.14824
-0.06870
0.10965
-0.20352
0.24116
0.09099
-0.04640
-0.14616
-0.18249
-0.10457
0.17143
-0.04064
0.00410
-0.24927
0.16855
0.15713
0.15139
0.01727
0.13765
-0.01384
0.00545
0.19319
0.07554
0.11829
0.07777
-0.04329
-0.04362
-0.15742
-0.18592
-0.13001
-0.05405
0.13290
0.11728
-0.02981
-0.24886
0.04376
0.16207
-0.13021
0.05510
-0.11016
-0.15166
0.08497
-0.20096
0.00923
-0.17629
0.07790
-0.18544
-0.14640
0.03903
0.04956
-0.14958
0.06025
-0.18803
-0.18501
0.16269
-0.06810
-0.06303
0.06122
-0.11306
-0.21707
-0.07126
0.21576
0.21310
-0.10218
-0.04563
-0.07316
0.02943
-0.17338
0.16201
0.03724
-0.00625
-0.20114
-0.14068
0.16378
0.24431
0.12035
0.20566
-0.08296
0.18742
0.09217
-0.06628
0.22635
-0.05121
-0.11630
-0.19118
-0.01913
0.03304
-0.17579
0.00703
0.03829
0.10342
0.04695
0.19823
-0.06340
0.16872
0.07400
0.14484
-0.02430
0.21703
0.07121
-0.22450
-0.08792
0.24790
-0.03698
0.15875
0.08675
0.03241
-0.13541
0.05564
-0.05687
-0.13190
-0.10260
0.14495
-0.21823
-0.12370
0.06245
0.22376
0.00014
-0.19713
0.11324
-0.14393
0.23580
-0.01111
-0.01673
0.19368
-0.09040
-0.21491
-0.04400
0.09642
0.17011
-0.19247
0.08378
0.21750
-0.11930
0.24657
-0.00528
0.11259
0.18425
0.16712
0.01492
0.07654
0.20352
0.11138
-0.01616
0.17680
0.00969
0.14182
-0.06577
0.11495
0.08519
-0.03908
-0.11471
-0.15158
0.23438
0.09036
0.00121
-0.05065
0.10727
-0.05431
0.06509
0.01989
0.16499
-0.07897
-0.12645
0.16483
-0.13020
0.02542
-0.22071
0.04999
0.13645
0.09294
-0.16875
-0.12759
0.21111
-0.21053
0.13858
0.01857
0.24233
-0.00649
-0.23543
-0.12608
0.17777
0.23258
0.20724
0.06607
0.16609
0.22803
-0.04999
-0.10850
0.19985
-0.17834
-0.20373
-0.16410
-0.03884
0.16644
-0.00500
0.19597
-0.22726
0.10948
0.11507
0.07377
0.15888
0.08157
-0.14502
-0.16140
0.18002
0.12416
0.14437
0.20403
-0.10250
-0.09526
-0.18094
-0.00121
0.01809
0.01253
0.07066
0.03531
0.20876
0.16906
0.19943
-0.04321
-0.13580
-0.00383
0.06600
0.22070
0.08169
-0.19157
0.13071
-0.12170
-0.08886
-0.24221
0.21347
-0.23789
-0.22047
-0.18418
0.12751
0.18164
-0.14362
-0.06199
-0.16825
0.00094
-0.24701
-0.23775
-0.12434
0.23319
-0.16420
0.21550
0.16120
0.08673
0.14240
-0.00901
0.04023
0.03617
0.21946
0.05040
0.05457
0.20877
-0.08586
-0.19994
-0.22611
0.05494
0.23556
-0.20737
0.04680
-0.20768
-0.17227
-0.03315
0.00889
0.18230
-0.18127
-0.07710
0.11561
-0.22905
-0.03602
0.22810
0.16562
0.23637
-0.14434
-0.18152
-0.16544
-0.22368
0.12927
-0.18507
-0.20437
0.05879
-0.11447
0.21594
-0.09189
0.19163
0.21402
0.08605
0.24841
-0.06335
0.14218
-0.07591
0.08779
-0.23138
-0.18692
0.03699
0.18389
-0.20525
0.16477
0.10755
-0.02914
-0.22263
0.18578
-0.19431
0.22525
0.19023
0.03598
-0.00847
0.06412
0.05934
-0.01871
0.13120
-0.08129
-0.20257
-0.10662
-0.14559
-0.00870
-0.11201
-0.21267
0.07695
0.11571
0.04429
-0.18403
-0.21393
0.06131
0.06256
-0.24323
0.08425
0.23053
0.22524
0.03562
0.07617
0.09967
-0.22227
0.09601
0.16748
0.12323
-0.13239
0.03065
0.04578
0.11186
0.12610
-0.14418
-0.09269
-0.11322
-0.08655
0.11025
0.12347
0.02222
-0.14635
0.16558
0.15167
-0.11013
0.21627
0.14977
-0.18263
-0.02464
0.19219
0.19600
-0.22046
0.03906
0.20913
0.14697
0.16336
-0.15300
-0.06259
-0.18907
-0.16488
-0.24471
-0.17192
-0.06307
0.22922
0.08356
0.13710
-0.15900
0.05468
0.16722
-0.21929
0.21809
0.14748
-0.20793
-0.08895
0.11946
0.13876
0.05094
-0.05628
-0.05427
0.12323
-0.10311
-0.00003
0.18610
0.15429
0.16022
-0.00226
-0.21512
-0.01400
0.19694
0.02300
0.00549
0.21291
0.06896
-0.11159
-0.02744
0.16979
0.24680
0.16563
0.19107
-0.23595
0.13099
-0.21343
-0.05494
-0.24243
0.13716
-0.14088
-0.16821
0.19511
-0.11620
-0.00926
0.16608
0.20906
-0.24417
-0.14647
-0.19866
0.18923
-0.09877
0.00997
0.06420
-0.05429
0.24623
-0.04108
-0.24248
-0.08826
0.16982
-0.01769
0.24927
0.13477
0.20349
-0.18032
0.02026
0.01736
-0.17283
-0.09603
0.13819
-0.21042
-0.23012
0.22300
0.05695
-0.05381
-0.22306
0.13404
-0.00224
0.14121
-0.23058
-0.10575
0.05620
-0.16835
0.15528
0.22318
0.11870
0.04080
0.01838
-0.18545
-0.13617
-0.21600
-0.21995
-0.02401
-0.11262
0.13349
-0.17648
-0.06607
-0.03603
-0.01236
-0.03101
0.17349
0.09943
0.01896
-0.23550
-0.02459
0.22956
0.15563
-0.05540
-0.16483
-0.19629
0.00417
0.05979
0.03655
-0.09486
-0.15058
0.22269
0.03835
-0.08797
-0.03014
0.01626
-0.15172
0.11159
-0.00538
0.04268
-0.08244
-0.19818
-0.23906
-0.07735
0.04804
-0.19492
-0.17684
-0.24757
-0.00954
0.03835
0.11680
-0.14566
0.15685
-0.01662
-0.16849
0.07583
0.21943
0.19752
0.01487
0.09794
0.15891
-0.03196
0.01885
-0.08973
0.03953
-0.21445
-0.07796
-0.14569
-0.02448
-0.01599
-0.14537
-0.17124
0.19283
-0.17636
-0.01470
0.09751
-0.08237
-0.04541
-0.03687
0.14711
0.10213
0.05814
-0.02411
0.18544
0.04775
-0.20897
-0.21135
-0.10826
0.08999
-0.01439
-0.19812
-0.12659
-0.04495
-0.16280
-0.23135
0.19366
-0.00257
0.11268
-0.15861
0.04743
-0.18164
0.14100
-0.13171
-0.06472
0.15817
-0.00805
-0.07777
-0.01020
-0.15122
-0.20794
0.04966
-0.06230
-0.03636
0.24570
-0.15428
0.16618
-0.17538
0.12159
0.06986
0.09834
-0.05580
-0.20613
0.13742
-0.16472
0.17697
-0.11930
0.15809
-0.19779
-0.23689
0.00390
0.11165
0.00344
-0.08032
-0.15788
-0.03020
-0.05227
0.09488
-0.17282
-0.08196
0.17110
-0.23683
-0.18657
-0.11014
0.13012
0.19858
0.00223
0.24242
-0.04807
-0.16994
-0.03689
-0.22200
0.15548
-0.01667
-0.08145
0.11629
0.17122
-0.24926
0.22241
0.24136
-0.00363
-0.18277
0.05409
0.12605
-0.17354
-0.08205
0.11461
-0.22290
-0.01610
0.09038
0.10944
-0.14021
0.08707
0.10192
-0.01446
-0.13081
-0.00620
-0.16266
-0.14298
0.07807
-0.04333
-0.10090
-0.08492
-0.00536
-0.17154
0.11901
0.23833
0.10011
0.21974
0.23316
-0.01918
-0.02020
-0.20817
-0.03447
0.22130
0.08446
0.04758
0.13825
0.19023
-0.22619
0.13959
0.15723
-0.17607
0.01056
0.04819
-0.03989
0.05855
0.09861
0.18570
0.23590
0.07534
-0.06082
-0.21447
0.09963
0.23935
0.06981
-0.12063
-0.10732
0.00756
-0.16261
-0.24933
0.01456
0.13621
-0.22058
0.00866
0.09586
0.01669
0.22300
0.23716
-0.00150
-0.20758
-0.14087
-0.17783
-0.07519
-0.22638
-0.22841
-0.17925
0.11930
0.16891
-0.23480
-0.01824
0.00794
-0.07981
-0.19308
-0.11919
0.15244
-0.13234
0.17023
0.14013
-0.19000
0.13342
0.24778
-0.23612
-0.01634
-0.24288
0.21324
-0.15100
0.06623
-0.02965
-0.18670
0.20221
-0.18244
0.19809
0.19390
0.05078
-0.05931
0.22521
-0.16596
0.01873
-0.02077
0.23631
-0.01447
-0.11999
0.07109
-0.02088
0.08935
-0.09838
0.09650
-0.03042
0.13491
-0.03104
0.07398
0.06649
-0.03462
0.18926
-0.10465
0.17550
-0.15015
0.16546
-0.02366
-0.14048
-0.24790
0.05883
-0.16408
-0.08710
0.16070
-0.00361
0.01293
0.12707
0.17578
-0.12552
-0.02480
0.20565
0.04306
0.17048
0.12652
-0.10437
-0.23115
-0.17695
0.21802
0.12317
0.24893
-0.16687
-0.02458
0.06109
-0.06225
-0.06371
-0.12214
-0.14618
-0.10884
-0.23596
-0.09056
0.03141
-0.12816
-0.12167
0.20979
-0.08709
-0.17813
-0.00718
0.22452
-0.11131
-0.03514
0.12716
-0.23553
-0.04464
-0.15520
0.08415
0.01500
-0.04098
-0.03953
0.02039
-0.00636
-0.22007
-0.07710
-0.00602
0.11453
-0.00039
-0.05544
-0.14695
-0.20497
0.02209
0.00000
0.00000
0.00000
0.00000
0.00000
0.00000
0.00000
0.00000
0.00000
0.00000
0.00000
0.00000
0.00000
0.00000
0.00000
0.00000
0.00000
0.00000
0.00000
0.00000
0.00000
0.00000
0.00000
0.00000
0.00000
0.00000
0.00000
0.00000
0.00000
0.00000
0.00000
0.00000
0.00000
0.00000
0.00000
0.00000
0.00000
0.00000
0.00000
0.00000
0.00000
0.00000
0.00000
0.00000
0.00000
0.00000
0.00000
0.00000
0.00000
0.00000
0.00000
0.00000
0.00000
0.00000
0.00000
0.00000
0.00000
0.00000
0.00000
0.00000
0.00000
0.00000
0.00000
0.00000
0.19928
0.14023
0.08850
-0.21386
-0.02506
-0.17966
-0.13718
-0.16854
0.01558
0.13369
-0.15982
-0.09877
0.20465
-0.04756
-0.15641
0.06857
0.17832
0.04250
-0.04421
0.20478
-0.16517
-0.20795
-0.16782
0.24558
-0.09430
-0.01630
0.15424
0.06653
0.19062
-0.11004
0.04992
-0.21214
0.10152
0.03564
0.02645
0.20594
-0.25518
0.24939
-0.11132
-0.23865
-0.07944
0.11104
-0.07534
0.12323
-0.12012
-0.09820
-0.01232
-0.25227
0.16253
-0.07148
0.22423
0.17118
-0.21865
0.14644
-0.03531
-0.10267
0.12737
-0.15397
0.21475
-0.20480
-0.15973
-0.25722
-0.00625
0.00794
0.15352
0.24653
0.14898
-0.10251
0.09836
-0.05041
-0.09251
0.16050
-0.05724
0.17707
0.01910
-0.23007
-0.21257
0.24080
0.12957
0.24106
-0.14205
-0.02177
-0.22462
-0.10232
0.07350
-0.10930
-0.13226
0.00705
-0.03668
0.04293
-0.08684
0.06588
-0.23156
0.07828
-0.15883
-0.14578
0.25406
-0.21356
-0.20967
-0.12275
-0.21415
-0.07662
0.05201
-0.05488
0.05105
0.05794
-0.21221
-0.23738
0.17743
0.10965
0.02350
-0.21163
0.25552
0.04131
0.15412
0.23818
0.09881
-0.22385
-0.17848
0.02749
0.12385
-0.08874
-0.05582
-0.23100
-0.02520
0.05671
0.22285
0.25403
-0.10019
-0.15596
0.08789
-0.10722
0.23075
-0.09262
-0.13312
0.09729
-0.24433
0.17852
-0.25505
0.20357
0.18852
-0.22752
-0.05575
-0.21370
-0.09330
-0.02778
-0.19801
-0.19969
0.13432
-0.20427
-0.21505
0.13720
0.04725
-0.07664
0.06301
0.16223
0.11431
-0.19398
0.08552
-0.04158
-0.18188
0.21556
0.14154
0.21218
0.00214
-0.03156
-0.24428
-0.22290
-0.15663
0.07904
0.06528
0.03350
0.15923
-0.03990
-0.04629
-0.01397
0.05539
0.19585
0.02723
-0.15027
0.06763
0.10921
0.03888
0.06250
-0.13562
0.03450
0.07512
-0.25807
0.19778
-0.19523
-0.04213
0.19950
0.17956
0.07769
-0.14596
0.21698
-0.14677
-0.23153
-0.13696
0.05391
0.13866
0.09489
-0.04463
-0.24525
-0.03344
0.02112
0.20000
0.14397
0.23318
0.16873
-0.24573
0.22932
0.07969
0.21242
0.04846
-0.13575
-0.20909
0.17814
-0.09413
-0.16297
-0.10394
0.15885
-0.22420
0.17615
-0.00420
-0.08972
0.02992
0.07431
-0.20602
-0.19210
-0.07512
0.20733
-0.09370
-0.10504
-0.01584
-0.02900
0.14173
-0.14428
-0.02315
-0.05005
-0.19948
0.24762
-0.23054
0.07829
-0.17070
-0.17722
0.18664
-0.14593
0.16386
-0.05748
0.17360
0.15133
-0.01921
0.21512
-0.02624
0.19464
-0.22196
-0.18252
0.15416
-0.08016
0.17725
0.10905
0.23054
0.06646
0.00488
0.20580
-0.15280
0.12739
0.22685
0.03272
0.01434
0.20046
-0.25621
0.03904
0.02316
-0.01859
-0.21504
-0.16163
-0.21399
-0.12590
-0.04457
-0.24206
0.07052
0.13303
-0.24329
-0.04639
0.07397
0.23669
-0.13291
0.04586
-0.14996
-0.07740
-0.25337
0.19088
-0.10965
0.03258
-0.22216
0.07047
0.07454
0.19504
-0.12003
0.01454
0.15785
0.25706
-0.11416
0.12450
-0.06500
-0.04034
-0.22837
-0.05357
0.01682
-0.03263
-0.09606
0.02998
0.05694
0.22509
0.14767
0.24908
-0.21713
0.02437
-0.12517
-0.04271
-0.08688
-0.16001
0.11374
0.11390
-0.06847
0.10625
-0.08992
-0.10792
-0.16822
-0.11563
-0.16690
0.00440
-0.24137
0.24234
0.07176
-0.06662
-0.20008
0.12170
0.05088
0.19406
0.01859
-0.02214
0.13491
0.20304
0.07211
0.06145
-0.21976
-0.11872
0.03876
-0.25219
-0.06677
-0.20953
-0.20667
-0.15060
0.17853
-0.14392
-0.14236
-0.10392
0.23165
0.11792
0.06417
-0.20364
0.12049
0.25604
0.18262
-0.19428
-0.09537
0.08236
0.24828
0.13793
-0.09048
0.05117
-0.16260
0.14757
-0.25101
0.22080
-0.03424
-0.00189
0.01840
0.01810
-0.15703
0.16309
-0.05990
0.01318
0.25462
-0.10633
-0.13423
-0.22956
-0.03933
0.15236
0.22936
0.15188
-0.09559
0.06159
0.19519
0.25695
-0.07633
0.24721
-0.08448
0.25406
0.24594
-0.22922
-0.25679
0.11078
-0.12388
0.20075
-0.24085
0.22302
-0.14488
0.14189
-0.13999
0.15072
0.09887
-0.18027
-0.25813
-0.10451
0.20944
-0.18075
-0.15846
0.09975
-0.18097
-0.06790
-0.19839
0.19268
0.19126
0.24716
-0.20965
0.12772
-0.02857
-0.00054
0.15827
-0.23607
0.01666
-0.11978
0.23677
-0.16066
-0.06183
-0.16737
-0.15651
0.00043
-0.14590
0.00642
0.06366
0.15353
0.22151
0.15098
-0.24555
0.04348
0.16646
-0.06044
0.03204
-0.21597
-0.07154
-0.20068
0.10421
0.10731
0.04726
-0.19977
0.19427
0.09688
0.12970
-0.06474
0.09738
0.05064
-0.12567
-0.25724
0.14873
0.01218
-0.10782
0.23403
0.05352
-0.23673
0.03779
0.04914
0.23837
-0.19018
-0.20684
-0.09879
0.12703
0.02465
-0.24162
0.23379
-0.12000
0.01597
-0.23511
-0.08912
0.01298
0.06449
-0.20443
-0.01959
0.13633
-0.21022
0.02070
-0.18404
0.01525
-0.02888
-0.00586
-0.03317
0.04909
0.03653
-0.17344
-0.23594
0.23067
0.08670
-0.15075
0.10733
-0.06217
-0.25463
-0.09575
0.17206
-0.17092
0.16859
-0.00543
-0.05804
0.24044
0.02219
0.21335
-0.16284
0.04827
0.24750
0.05587
0.04055
-0.14209
-0.01448
-0.01916
-0.00710
-0.25288
-0.13776
0.09822
0.04819
0.01165
-0.22477
-0.07959
0.19382
0.02778
0.20025
-0.14066
-0.04876
-0.02761
0.00814
0.11214
-0.12422
0.02030
-0.06796
0.08715
-0.02295
-0.15684
0.17346
-0.04800
-0.16115
-0.01611
0.12680
0.02434
-0.10139
0.06611
0.08687
0.09082
-0.14979
0.08593
-0.22326
0.19282
0.09586
0.24946
0.01908
-0.24669
-0.05254
-0.02990
-0.23718
-0.15563
0.00278
-0.02880
0.18388
-0.23620
0.14305
0.07087
-0.07985
-0.17300
0.20138
-0.18080
-0.15425
-0.07295
-0.05872
0.09105
0.11002
0.14963
0.01530
0.20979
-0.13086
-0.01818
0.23577
0.17218
0.12089
0.06674
-0.05973
-0.15371
0.15326
-0.19364
-0.13596
0.21026
0.21595
0.14070
-0.13815
0.11039
-0.24710
-0.20558
-0.06402
0.21066
-0.14184
-0.00774
0.16205
-0.15065
0.06238
-0.04391
-0.21164
-0.22940
-0.00091
0.08417
-0.01109
0.05278
0.14558
-0.20810
-0.01460
-0.25329
-0.07036
-0.16894
-0.01588
0.19662
-0.15355
-0.19954
-0.11583
-0.11870
-0.25616
-0.11027
0.17793
0.18606
-0.20510
0.22417
0.02536
0.14858
-0.11657
-0.19231
-0.16189
-0.24365
-0.12409
-0.22489
-0.09235
-0.02120
0.02055
0.08056
0.05388
0.03385
-0.24914
-0.03009
-0.04518
-0.21294
-0.21739
-0.16909
0.12702
-0.15825
-0.20255
-0.11317
-0.01691
0.01764
0.04264
0.22430
-0.06793
-0.17845
0.04033
-0.16705
-0.23491
-0.05326
-0.10681
-0.03922
0.04175
0.14075
0.09377
0.08665
0.18134
0.05170
-0.10838
-0.11265
0.00931
0.00314
-0.05608
0.09868
-0.16263
0.20576
-0.18546
-0.12436
-0.07903
-0.08835
0.10782
0.18499
0.06500
-0.23080
0.04247
0.21357
-0.17504
0.13284
0.21116
-0.09555
-0.17374
0.12824
-0.18295
0.14444
0.19846
-0.13182
-0.11839
-0.23132
-0.12865
-0.18944
-0.03077
0.12222
0.20886
-0.03276
-0.03277
-0.15033
0.17260
0.24064
0.00421
0.05386
-0.05614
-0.19639
-0.12360
0.13900
-0.20575
-0.10865
0.03198
-0.21708
-0.22402
0.22461
-0.17680
0.10528
-0.19053
0.15108
-0.15117
-0.10320
-0.19121
-0.21396
-0.08486
-0.17596
0.08196
-0.23345
0.21037
0.03764
-0.07027
-0.16205
-0.08116
0.11585
-0.15399
-0.03951
0.08297
-0.05184
0.20627
0.23929
0.00904
0.18474
0.21383
-0.25243
-0.01016
-0.00304
-0.15893
0.18557
0.15120
-0.12941
0.13624
0.08818
0.10784
0.21388
-0.08948
0.17682
-0.21902
0.13292
0.22632
0.07507
-0.03309
-0.24453
0.09113
0.07655
0.11659
0.03139
-0.04835
0.07882
0.19656
-0.01386
0.08811
-0.18620
-0.24456
0.06641
0.09556
0.20423
0.10662
-0.02871
-0.15600
0.15897
-0.13818
0.16251
-0.01071
-0.24194
0.18738
0.09604
0.03940
0.23506
-0.00355
0.16649
-0.15557
-0.15494
0.08944
-0.17735
-0.24693
-0.22222
-0.20209
-0.25672
0.19761
-0.11916
-0.04348
-0.04986
0.11273
-0.12443
-0.19938
-0.23133
0.16149
0.05294
-0.15831
-0.18070
0.13458
-0.10496
-0.05378
0.11659
0.01219
0.12788
-0.16716
-0.25438
-0.21272
0.22558
0.09513
0.06914
-0.20350
0.00077
-0.23678
0.18268
0.15833
-0.25112
-0.18777
0.06578
0.00853
-0.03425
-0.09092
-0.18630
0.18356
0.22777
-0.16071
-0.22131
0.21239
0.06696
-0.11302
-0.00450
-0.00242
-0.07543
0.22628
0.18945
-0.10476
-0.14025
-0.20393
0.04942
0.03171
0.05227
0.19412
-0.19513
0.13582
-0.12561
0.22191
-0.08453
0.17203
-0.11545
-0.23307
0.17722
-0.09133
0.14011
0.11351
-0.09674
0.22813
0.14801
0.16567
-0.13695
0.18489
0.15279
-0.03055
-0.01542
-0.11143
-0.00423
-0.04543
-0.21513
-0.02966
0.14899
0.13282
0.12212
0.21113
-0.23812
0.13145
-0.12843
-0.02636
0.00325
0.24845
0.06383
0.13893
0.07958
-0.09444
0.07187
-0.14461
0.19181
0.25418
-0.20176
0.19920
-0.05239
0.09574
-0.03423
-0.11135
-0.03633
-0.15773
0.04903
-0.04122
0.04203
0.00059
-0.13083
0.20527
0.01187
0.11522
0.05711
-0.11121
0.21700
0.02282
-0.20649
0.23746
-0.06858
-0.15810
-0.15408
0.01381
-0.05021
0.17955
-0.06473
0.13340
0.18728
0.20335
-0.03052
-0.00807
-0.09242
0.05486
0.12087
0.02698
0.04939
0.02921
0.01188
0.03962
0.16215
-0.04316
-0.03062
-0.06291
0.18034
0.08042
-0.04508
0.01690
0.15026
-0.21915
0.07469
-0.21817
0.22080
-0.17403
0.16143
0.00639
0.07015
0.17888
-0.03783
0.18392
-0.00068
-0.01490
0.23187
-0.19197
0.15153
0.00671
0.15582
-0.16471
-0.08513
-0.07246
-0.06073
0.14972
0.02475
0.12459
-0.23903
-0.02462
-0.24413
0.21652
0.04602
-0.10074
-0.06085
0.05947
-0.03821
-0.05984
0.24004
0.06543
-0.14767
0.14522
-0.06355
0.15292
-0.16746
-0.13763
0.16495
-0.18508
-0.18511
0.18958
0.08908
0.16731
-0.07602
-0.09682
-0.02630
0.12090
-0.03602
0.05066
-0.09536
0.25261
-0.01637
-0.14554
0.02067
0.14362
0.17757
0.02291
-0.24957
-0.21470
-0.16070
-0.02740
0.19741
-0.01063
-0.01403
0.06260
-0.24051
0.14032
-0.16296
0.24771
0.01047
0.22873
-0.16594
-0.03472
0.02901
-0.22074
0.17224
-0.14392
-0.07921
0.15925
0.05480
0.15989
0.25427
-0.09043
-0.13542
-0.06489
0.00922
-0.09025
0.21618
0.09475
-0.24953
0.15412
-0.09546
0.16861
0.12052
0.10194
0.08921
0.08625
0.07306
-0.23969
0.16052
-0.16547
-0.09354
0.16913
0.05370
-0.08205
-0.17011
-0.18972
-0.24821
-0.01661
0.06794
0.01166
-0.14220
-0.08541
0.04208
-0.18377
-0.07631
-0.13421
-0.13656
-0.18252
-0.17041
-0.04584
0.08869
0.24345
0.11081
-0.10922
0.10081
-0.12533
-0.09921
-0.10561
0.23754
-0.02637
0.06376
-0.25335
0.13865
-0.07661
0.09403
0.11212
0.01597
0.04459
0.12825
0.25192
-0.15834
0.03443
0.22693
0.14233
0.11108
0.14689
0.14533
0.01685
0.05114
-0.16712
0.18405
-0.19276
0.09720
-0.01486
0.06881
0.15040
0.02742
-0.21974
0.11875
-0.10164
-0.19039
0.25535
-0.09780
-0.07289
-0.07593
0.16602
0.09816
-0.01499
0.08365
0.02110
-0.11760
-0.22376
-0.02952
0.20492
0.18980
0.12318
-0.09555
0.04642
0.06138
-0.20265
0.13134
0.18546
0.19688
-0.14212
0.20059
-0.18874
-0.16857
-0.00374
0.22189
-0.05073
-0.15992
0.14052
0.04457
-0.23765
0.23946
0.17336
-0.16948
-0.18909
0.22141
-0.10122
0.16522
0.09793
-0.20594
-0.11453
0.22893
-0.04832
-0.17292
0.08074
0.20834
-0.04885
-0.07884
-0.20375
0.13371
0.11432
0.18199
-0.00448
0.12624
-0.22670
-0.09071
-0.05193
-0.04279
-0.17036
0.06239
0.01098
-0.04024
-0.21181
-0.16104
-0.24784
0.16580
-0.17653
0.18879
-0.15148
0.03972
-0.05663
0.02362
-0.18525
0.21772
-0.06985
0.16020
-0.24945
0.22611
0.02026
0.20027
-0.06253
-0.17487
0.20102
-0.22146
0.07853
0.25393
-0.21166
0.20296
0.10290
0.22163
0.19926
-0.15649
-0.22733
-0.05059
-0.08006
0.02310
-0.10570
0.09261
0.16755
0.12172
0.22677
0.01799
-0.24795
-0.10012
0.03809
-0.00611
-0.09052
-0.10907
0.20957
0.16507
0.09690
-0.10657
-0.02691
0.09256
-0.19678
0.11751
0.14334
0.08507
-0.01776
0.02160
0.03654
-0.09822
0.22092
0.19513
-0.07327
-0.10364
-0.12451
0.21635
0.08943
0.14080
-0.04163
-0.21441
0.24340
-0.07587
-0.20303
0.01611
0.09545
-0.22493
0.02441
-0.06831
0.05926
-0.00234
-0.09740
-0.10254
0.19961
0.00873
-0.05280
-0.14613
-0.14559
0.10301
-0.14885
-0.11224
-0.04822
-0.09143
-0.12104
-0.23838
-0.12970
0.19497
0.11515
-0.05372
-0.04334
0.00305
-0.12615
-0.17170
-0.16036
-0.11188
0.18698
0.22106
-0.15596
0.21068
0.08293
0.23626
-0.03064
0.12200
-0.22874
0.08871
0.03254
0.22913
-0.06903
0.19614
-0.12404
-0.19468
0.14866
-0.04349
0.14194
0.19363
-0.06847
-0.13842
-0.05320
-0.13801
0.03371
-0.00762
0.17946
-0.00415
-0.19247
-0.24955
-0.19769
-0.12686
0.08417
-0.13173
0.11739
0.16373
-0.02315
-0.15940
0.16712
0.09176
0.08122
-0.10380
-0.19930
0.01375
-0.07383
0.22271
-0.12900
-0.05353
-0.20338
-0.18252
0.03113
0.17955
-0.06673
0.04195
0.07539
0.14168
-0.06138
0.08093
-0.15619
0.15237
-0.20561
0.21004
-0.21486
0.19218
-0.14781
0.21530
-0.24838
0.24727
0.11503
0.14530
0.13817
0.01463
0.14907
0.22967
0.14492
0.01131
-0.06221
0.22570
0.23819
0.06818
0.01512
-0.12235
0.00716
-0.15807
0.06304
0.25213
0.24670
0.24451
-0.11248
0.10325
0.12430
-0.22039
0.07894
0.09565
0.01814
-0.05585
0.25441
0.07852
-0.24848
0.00288
-0.22684
0.17327
-0.09255
0.14295
0.11822
-0.25285
-0.07218
-0.05702
-0.21929
0.10872
0.22445
-0.00982
-0.04456
0.17479
0.24250
0.13325
-0.25722
0.15593
0.02667
0.06060
-0.17973
0.09713
-0.23344
-0.07255
0.12698
-0.01527
-0.24259
-0.18874
0.15617
0.16442
0.09868
-0.18088
0.22447
0.15235
0.01359
0.06278
0.04376
-0.07899
-0.10128
0.17182
0.15697
-0.00786
0.16648
-0.17356
0.21546
0.06548
-0.20645
0.16316
0.04489
0.05310
0.11501
0.07173
-0.09455
-0.01393
-0.06111
-0.10989
0.03299
0.11071
0.12278
0.23305
0.11291
-0.19999
-0.04456
0.07679
-0.18111
0.21263
-0.09711
-0.05396
-0.21873
-0.04079
-0.00880
0.04728
-0.15808
-0.18360
0.11322
-0.25303
-0.25083
-0.21226
-0.08523
0.19086
-0.06507
0.15692
0.20908
0.02619
-0.15369
0.04970
-0.11495
-0.18103
0.15417
0.16791
0.22558
-0.23688
-0.19369
-0.04521
0.00961
0.05710
-0.13368
0.02097
-0.12164
-0.24722
0.20073
-0.01246
-0.24463
-0.02768
0.12570
-0.22486
-0.00710
0.06222
-0.25618
-0.15540
-0.17304
0.00221
0.16099
0.07867
-0.09949
-0.12633
-0.02601
0.18913
-0.22754
-0.07987
-0.21419
-0.09078
0.15063
0.07772
-0.21386
-0.00991
0.19012
0.16476
0.15857
0.15307
0.18760
0.17962
0.13209
-0.14659
0.12467
0.18966
-0.08682
-0.03276
-0.21152
-0.13956
-0.12233
-0.03794
0.08103
0.23710
-0.05217
0.03944
0.02974
-0.20848
-0.10657
-0.06505
-0.13480
0.04038
-0.14077
0.17994
-0.14243
-0.02618
-0.16592
0.03731
0.23419
-0.23361
0.24744
-0.17783
0.18104
-0.18544
-0.23235
0.07043
0.00111
0.04629
-0.01354
-0.21732
-0.20739
0.13339
0.05188
-0.04746
0.06659
0.17149
-0.24871
0.01304
0.02684
-0.20082
0.03126
-0.24452
-0.11906
0.05444
0.05990
-0.19395
-0.24966
-0.16698
0.08547
-0.13653
-0.22499
0.10417
-0.00607
0.22320
0.12361
-0.20971
0.10549
0.00636
-0.08496
-0.20573
-0.15097
0.11356
0.10577
0.10378
-0.13053
-0.01384
0.03406
0.12045
-0.05336
-0.13112
-0.06976
0.23541
0.22100
0.10178
0.14641
-0.20802
0.20421
0.19152
-0.18109
0.06536
0.10261
0.11360
-0.04260
-0.20488
-0.11158
0.19391
-0.04478
-0.16285
0.14473
0.23418
0.11949
-0.06444
0.04453
0.24011
-0.22283
-0.00389
-0.13704
-0.01354
-0.09455
-0.23430
0.24057
0.21921
-0.17433
0.11238
-0.03494
-0.07967
-0.08816
-0.11053
0.21294
-0.19511
0.11843
-0.12208
-0.09859
-0.22690
-0.18644
-0.10365
-0.08946
-0.15664
-0.16707
0.03533
0.20154
0.24235
-0.01282
0.00000
0.00000
0.00000
0.00000
0.00000
0.00000
0.00000
0.00000
0.00000
0.00000
0.00000
0.00000
0.00000
0.00000
0.00000
0.00000
0.00000
0.00000
0.00000
0.00000
0.00000
0.00000
0.00000
0.00000
0.00000
0.00000
